<?xml version="1.0"?>
<opencv_storage>
<opencv_ml_boost>
  <format>3</format>
  <is_classifier>1</is_classifier>
  <var_all>301</var_all>
  <var_count>300</var_count>
  <ord_var_count>300</ord_var_count>
  <cat_var_count>1</cat_var_count>
  <training_params>
    <boosting_type>RealAdaboost</boosting_type>
    <use_surrogates>0</use_surrogates>
    <max_categories>10</max_categories>
    <regression_accuracy>9.9999997764825821e-03</regression_accuracy>
    <max_depth>1</max_depth>
    <min_sample_count>10</min_sample_count>
    <cross_validation_folds>0</cross_validation_folds>
    <weight_trimming_rate>9.4999999999999996e-01</weight_trimming_rate></training_params>
  <global_var_idx>1</global_var_idx>
  <var_idx>
    0 1 2 3 4 5 6 7 8 9 10 11 12 13 14 15 16 17 18 19 20 21 22 23 24 25
    26 27 28 29 30 31 32 33 34 35 36 37 38 39 40 41 42 43 44 45 46 47 48
    49 50 51 52 53 54 55 56 57 58 59 60 61 62 63 64 65 66 67 68 69 70 71
    72 73 74 75 76 77 78 79 80 81 82 83 84 85 86 87 88 89 90 91 92 93 94
    95 96 97 98 99 100 101 102 103 104 105 106 107 108 109 110 111 112
    113 114 115 116 117 118 119 120 121 122 123 124 125 126 127 128 129
    130 131 132 133 134 135 136 137 138 139 140 141 142 143 144 145 146
    147 148 149 150 151 152 153 154 155 156 157 158 159 160 161 162 163
    164 165 166 167 168 169 170 171 172 173 174 175 176 177 178 179 180
    181 182 183 184 185 186 187 188 189 190 191 192 193 194 195 196 197
    198 199 200 201 202 203 204 205 206 207 208 209 210 211 212 213 214
    215 216 217 218 219 220 221 222 223 224 225 226 227 228 229 230 231
    232 233 234 235 236 237 238 239 240 241 242 243 244 245 246 247 248
    249 250 251 252 253 254 255 256 257 258 259 260 261 262 263 264 265
    266 267 268 269 270 271 272 273 274 275 276 277 278 279 280 281 282
    283 284 285 286 287 288 289 290 291 292 293 294 295 296 297 298 299</var_idx>
  <var_type>
    0 0 0 0 0 0 0 0 0 0 0 0 0 0 0 0 0 0 0 0 0 0 0 0 0 0 0 0 0 0 0 0 0 0
    0 0 0 0 0 0 0 0 0 0 0 0 0 0 0 0 0 0 0 0 0 0 0 0 0 0 0 0 0 0 0 0 0 0
    0 0 0 0 0 0 0 0 0 0 0 0 0 0 0 0 0 0 0 0 0 0 0 0 0 0 0 0 0 0 0 0 0 0
    0 0 0 0 0 0 0 0 0 0 0 0 0 0 0 0 0 0 0 0 0 0 0 0 0 0 0 0 0 0 0 0 0 0
    0 0 0 0 0 0 0 0 0 0 0 0 0 0 0 0 0 0 0 0 0 0 0 0 0 0 0 0 0 0 0 0 0 0
    0 0 0 0 0 0 0 0 0 0 0 0 0 0 0 0 0 0 0 0 0 0 0 0 0 0 0 0 0 0 0 0 0 0
    0 0 0 0 0 0 0 0 0 0 0 0 0 0 0 0 0 0 0 0 0 0 0 0 0 0 0 0 0 0 0 0 0 0
    0 0 0 0 0 0 0 0 0 0 0 0 0 0 0 0 0 0 0 0 0 0 0 0 0 0 0 0 0 0 0 0 0 0
    0 0 0 0 0 0 0 0 0 0 0 0 0 0 0 0 0 0 0 0 0 0 0 0 0 0 0 0 1</var_type>
  <cat_ofs>
    0 0 0 0 0 0 0 0 0 0 0 0 0 0 0 0 0 0 0 0 0 0 0 0 0 0 0 0 0 0 0 0 0 0
    0 0 0 0 0 0 0 0 0 0 0 0 0 0 0 0 0 0 0 0 0 0 0 0 0 0 0 0 0 0 0 0 0 0
    0 0 0 0 0 0 0 0 0 0 0 0 0 0 0 0 0 0 0 0 0 0 0 0 0 0 0 0 0 0 0 0 0 0
    0 0 0 0 0 0 0 0 0 0 0 0 0 0 0 0 0 0 0 0 0 0 0 0 0 0 0 0 0 0 0 0 0 0
    0 0 0 0 0 0 0 0 0 0 0 0 0 0 0 0 0 0 0 0 0 0 0 0 0 0 0 0 0 0 0 0 0 0
    0 0 0 0 0 0 0 0 0 0 0 0 0 0 0 0 0 0 0 0 0 0 0 0 0 0 0 0 0 0 0 0 0 0
    0 0 0 0 0 0 0 0 0 0 0 0 0 0 0 0 0 0 0 0 0 0 0 0 0 0 0 0 0 0 0 0 0 0
    0 0 0 0 0 0 0 0 0 0 0 0 0 0 0 0 0 0 0 0 0 0 0 0 0 0 0 0 0 0 0 0 0 0
    0 0 0 0 0 0 0 0 0 0 0 0 0 0 0 0 0 0 0 0 0 0 0 0 0 0 0 0 0 0 0 0 0 0
    0 0 0 0 0 0 0 0 0 0 0 0 0 0 0 0 0 0 0 0 0 0 0 0 0 0 0 0 0 0 0 0 0 0
    0 0 0 0 0 0 0 0 0 0 0 0 0 0 0 0 0 0 0 0 0 0 0 0 0 0 0 0 0 0 0 0 0 0
    0 0 0 0 0 0 0 0 0 0 0 0 0 0 0 0 0 0 0 0 0 0 0 0 0 0 0 0 0 0 0 0 0 0
    0 0 0 0 0 0 0 0 0 0 0 0 0 0 0 0 0 0 0 0 0 0 0 0 0 0 0 0 0 0 0 0 0 0
    0 0 0 0 0 0 0 0 0 0 0 0 0 0 0 0 0 0 0 0 0 0 0 0 0 0 0 0 0 0 0 0 0 0
    0 0 0 0 0 0 0 0 0 0 0 0 0 0 0 0 0 0 0 0 0 0 0 0 0 0 0 0 0 0 0 0 0 0
    0 0 0 0 0 0 0 0 0 0 0 0 0 0 0 0 0 0 0 0 0 0 0 0 0 0 0 0 0 0 0 0 0 0
    0 0 0 0 0 0 0 0 0 0 0 0 0 0 0 0 0 0 0 0 0 0 0 0 0 0 0 0 0 0 0 0 0 0
    0 0 0 0 0 0 0 0 0 0 0 0 0 0 0 0 0 0 0 0 0 0</cat_ofs>
  <class_labels>
    0 1</class_labels>
  <missing_subst>
    0. 0. 0. 0. 0. 0. 0. 0. 0. 0. 0. 0. 0. 0. 0. 0. 0. 0. 0. 0. 0. 0. 0.
    0. 0. 0. 0. 0. 0. 0. 0. 0. 0. 0. 0. 0. 0. 0. 0. 0. 0. 0. 0. 0. 0. 0.
    0. 0. 0. 0. 0. 0. 0. 0. 0. 0. 0. 0. 0. 0. 0. 0. 0. 0. 0. 0. 0. 0. 0.
    0. 0. 0. 0. 0. 0. 0. 0. 0. 0. 0. 0. 0. 0. 0. 0. 0. 0. 0. 0. 0. 0. 0.
    0. 0. 0. 0. 0. 0. 0. 0. 0. 0. 0. 0. 0. 0. 0. 0. 0. 0. 0. 0. 0. 0. 0.
    0. 0. 0. 0. 0. 0. 0. 0. 0. 0. 0. 0. 0. 0. 0. 0. 0. 0. 0. 0. 0. 0. 0.
    0. 0. 0. 0. 0. 0. 0. 0. 0. 0. 0. 0. 0. 0. 0. 0. 0. 0. 0. 0. 0. 0. 0.
    0. 0. 0. 0. 0. 0. 0. 0. 0. 0. 0. 0. 0. 0. 0. 0. 0. 0. 0. 0. 0. 0. 0.
    0. 0. 0. 0. 0. 0. 0. 0. 0. 0. 0. 0. 0. 0. 0. 0. 0. 0. 0. 0. 0. 0. 0.
    0. 0. 0. 0. 0. 0. 0. 0. 0. 0. 0. 0. 0. 0. 0. 0. 0. 0. 0. 0. 0. 0. 0.
    0. 0. 0. 0. 0. 0. 0. 0. 0. 0. 0. 0. 0. 0. 0. 0. 0. 0. 0. 0. 0. 0. 0.
    0. 0. 0. 0. 0. 0. 0. 0. 0. 0. 0. 0. 0. 0. 0. 0. 0. 0. 0. 0. 0. 0. 0.
    0. 0. 0. 0. 0. 0. 0. 0. 0. 0. 0. 0. 0. 0. 0. 0. 0. 0. 0. 0. 0. 0. 0.
    0. 0.</missing_subst>
  <ntrees>100</ntrees>
  <trees>
    <_>
      <nodes>
        <_>
          <depth>0</depth>
          <value>0.</value>
          <splits>
            <_><var>98</var>
              <quality>4.9490451812744141e-02</quality>
              <le>4.6398621052503586e-03</le></_></splits></_>
        <_>
          <depth>1</depth>
          <value>1.2149235007678710e-01</value></_>
        <_>
          <depth>1</depth>
          <value>-4.3483820832470371e-01</value></_></nodes></_>
    <_>
      <nodes>
        <_>
          <depth>0</depth>
          <value>5.6572813068781052e-10</value>
          <splits>
            <_><var>82</var>
              <quality>3.6413315683603287e-02</quality>
              <le>4.2402144754305482e-04</le></_></splits></_>
        <_>
          <depth>1</depth>
          <value>-3.4841554163138611e-01</value></_>
        <_>
          <depth>1</depth>
          <value>1.0913758078179711e-01</value></_></nodes></_>
    <_>
      <nodes>
        <_>
          <depth>0</depth>
          <value>1.8495949995445470e-02</value>
          <splits>
            <_><var>101</var>
              <quality>2.6839012280106544e-02</quality>
              <le>1.3395852874964476e-03</le></_></splits></_>
        <_>
          <depth>1</depth>
          <value>-1.6301088873203748e-01</value></_>
        <_>
          <depth>1</depth>
          <value>1.7001287386277661e-01</value></_></nodes></_>
    <_>
      <nodes>
        <_>
          <depth>0</depth>
          <value>1.5846253173393371e-09</value>
          <splits>
            <_><var>10</var>
              <quality>2.2415515035390854e-02</quality>
              <le>5.2367448806762695e-03</le></_></splits></_>
        <_>
          <depth>1</depth>
          <value>-7.0633907145220096e-02</value></_>
        <_>
          <depth>1</depth>
          <value>3.3574882631385300e-01</value></_></nodes></_>
    <_>
      <nodes>
        <_>
          <depth>0</depth>
          <value>-4.7733476727399936e-02</value>
          <splits>
            <_><var>287</var>
              <quality>2.4746695533394814e-02</quality>
              <le>4.3174345046281815e-03</le></_></splits></_>
        <_>
          <depth>1</depth>
          <value>-1.7055681233758421e-01</value></_>
        <_>
          <depth>1</depth>
          <value>1.4803580840230010e-01</value></_></nodes></_>
    <_>
      <nodes>
        <_>
          <depth>0</depth>
          <value>5.9174617243836776e-02</value>
          <splits>
            <_><var>178</var>
              <quality>2.0889854058623314e-02</quality>
              <le>6.3506467267870903e-03</le></_></splits></_>
        <_>
          <depth>1</depth>
          <value>1.4363968599229926e-01</value></_>
        <_>
          <depth>1</depth>
          <value>-1.6217325290232354e-01</value></_></nodes></_>
    <_>
      <nodes>
        <_>
          <depth>0</depth>
          <value>-1.3160127431406612e-02</value>
          <splits>
            <_><var>148</var>
              <quality>1.9271528348326683e-02</quality>
              <le>1.0568197816610336e-02</le></_></splits></_>
        <_>
          <depth>1</depth>
          <value>1.4592434355307193e-02</value></_>
        <_>
          <depth>1</depth>
          <value>-9.1989195964195558e-01</value></_></nodes></_>
    <_>
      <nodes>
        <_>
          <depth>0</depth>
          <value>5.7328391910584889e-04</value>
          <splits>
            <_><var>173</var>
              <quality>1.7636243253946304e-02</quality>
              <le>5.3411340340971947e-03</le></_></splits></_>
        <_>
          <depth>1</depth>
          <value>7.9935169959242852e-02</value></_>
        <_>
          <depth>1</depth>
          <value>-2.3413948802418813e-01</value></_></nodes></_>
    <_>
      <nodes>
        <_>
          <depth>0</depth>
          <value>-1.8249240636636476e-03</value>
          <splits>
            <_><var>160</var>
              <quality>1.8334176391363144e-02</quality>
              <le>8.1401714123785496e-04</le></_></splits></_>
        <_>
          <depth>1</depth>
          <value>-2.7746879975708610e-01</value></_>
        <_>
          <depth>1</depth>
          <value>6.8761423444203287e-02</value></_></nodes></_>
    <_>
      <nodes>
        <_>
          <depth>0</depth>
          <value>-1.9068165588867959e-02</value>
          <splits>
            <_><var>264</var>
              <quality>1.6395257785916328e-02</quality>
              <le>2.4464842863380909e-03</le></_></splits></_>
        <_>
          <depth>1</depth>
          <value>1.1648168458158732e-01</value></_>
        <_>
          <depth>1</depth>
          <value>-1.4519808792127892e-01</value></_></nodes></_>
    <_>
      <nodes>
        <_>
          <depth>0</depth>
          <value>-1.7414178864710050e-04</value>
          <splits>
            <_><var>141</var>
              <quality>1.6599843278527260e-02</quality>
              <le>3.1771268695592880e-03</le></_></splits></_>
        <_>
          <depth>1</depth>
          <value>1.0039937508200933e-01</value></_>
        <_>
          <depth>1</depth>
          <value>-1.7609992286984644e-01</value></_></nodes></_>
    <_>
      <nodes>
        <_>
          <depth>0</depth>
          <value>1.3259111790055705e-02</value>
          <splits>
            <_><var>121</var>
              <quality>1.2959919869899750e-02</quality>
              <le>5.2383458241820335e-03</le></_></splits></_>
        <_>
          <depth>1</depth>
          <value>-4.0344628663540875e-02</value></_>
        <_>
          <depth>1</depth>
          <value>2.7066019834701510e-01</value></_></nodes></_>
    <_>
      <nodes>
        <_>
          <depth>0</depth>
          <value>-1.5026257545025569e-02</value>
          <splits>
            <_><var>87</var>
              <quality>1.1818224564194679e-02</quality>
              <le>3.1225625425577164e-03</le></_></splits></_>
        <_>
          <depth>1</depth>
          <value>-9.2550180056826567e-02</value></_>
        <_>
          <depth>1</depth>
          <value>1.4407192650159636e-01</value></_></nodes></_>
    <_>
      <nodes>
        <_>
          <depth>0</depth>
          <value>4.9029987748383276e-03</value>
          <splits>
            <_><var>255</var>
              <quality>1.2377498671412468e-02</quality>
              <le>4.3691983446478844e-03</le></_></splits></_>
        <_>
          <depth>1</depth>
          <value>-9.8221431591117264e-02</value></_>
        <_>
          <depth>1</depth>
          <value>1.3217473330068813e-01</value></_></nodes></_>
    <_>
      <nodes>
        <_>
          <depth>0</depth>
          <value>4.1308125423449296e-03</value>
          <splits>
            <_><var>56</var>
              <quality>1.1932422406971455e-02</quality>
              <le>8.0208573490381241e-03</le></_></splits></_>
        <_>
          <depth>1</depth>
          <value>5.1944630594039545e-02</value></_>
        <_>
          <depth>1</depth>
          <value>-2.6450423949077012e-01</value></_></nodes></_>
    <_>
      <nodes>
        <_>
          <depth>0</depth>
          <value>-6.9886031715414099e-04</value>
          <splits>
            <_><var>149</var>
              <quality>1.0457647964358330e-02</quality>
              <le>8.1888763234019279e-03</le></_></splits></_>
        <_>
          <depth>1</depth>
          <value>2.5807950815041319e-02</value></_>
        <_>
          <depth>1</depth>
          <value>-4.4144428394322743e-01</value></_></nodes></_>
    <_>
      <nodes>
        <_>
          <depth>0</depth>
          <value>1.2642257627713735e-03</value>
          <splits>
            <_><var>27</var>
              <quality>1.0818605311214924e-02</quality>
              <le>2.5906779337674379e-03</le></_></splits></_>
        <_>
          <depth>1</depth>
          <value>1.9413678457458169e-01</value></_>
        <_>
          <depth>1</depth>
          <value>-5.8394323480908450e-02</value></_></nodes></_>
    <_>
      <nodes>
        <_>
          <depth>0</depth>
          <value>-5.0732385427969583e-03</value>
          <splits>
            <_><var>118</var>
              <quality>8.9812520891427994e-03</quality>
              <le>4.8900051042437553e-03</le></_></splits></_>
        <_>
          <depth>1</depth>
          <value>4.4746249164131627e-02</value></_>
        <_>
          <depth>1</depth>
          <value>-1.9695269400680324e-01</value></_></nodes></_>
    <_>
      <nodes>
        <_>
          <depth>0</depth>
          <value>-1.9100650917729348e-04</value>
          <splits>
            <_><var>132</var>
              <quality>8.6467694491147995e-03</quality>
              <le>1.6501694917678833e-03</le></_></splits></_>
        <_>
          <depth>1</depth>
          <value>1.0728002665520200e-01</value></_>
        <_>
          <depth>1</depth>
          <value>-8.5423257854407741e-02</value></_></nodes></_>
    <_>
      <nodes>
        <_>
          <depth>0</depth>
          <value>2.1902366914523870e-03</value>
          <splits>
            <_><var>188</var>
              <quality>9.6527328714728355e-03</quality>
              <le>4.5189890079200268e-04</le></_></splits></_>
        <_>
          <depth>1</depth>
          <value>-1.6174458725441795e-01</value></_>
        <_>
          <depth>1</depth>
          <value>6.4768230015920858e-02</value></_></nodes></_>
    <_>
      <nodes>
        <_>
          <depth>0</depth>
          <value>-3.1671157695468927e-03</value>
          <splits>
            <_><var>267</var>
              <quality>9.2194331809878349e-03</quality>
              <le>1.3705338351428509e-02</le></_></splits></_>
        <_>
          <depth>1</depth>
          <value>2.7091711215722687e-02</value></_>
        <_>
          <depth>1</depth>
          <value>-3.3572773339429002e-01</value></_></nodes></_>
    <_>
      <nodes>
        <_>
          <depth>0</depth>
          <value>2.6344224354168007e-03</value>
          <splits>
            <_><var>147</var>
              <quality>1.0000128298997879e-02</quality>
              <le>2.6996626984328032e-03</le></_></splits></_>
        <_>
          <depth>1</depth>
          <value>1.2733308092729506e-01</value></_>
        <_>
          <depth>1</depth>
          <value>-8.2376966164286247e-02</value></_></nodes></_>
    <_>
      <nodes>
        <_>
          <depth>0</depth>
          <value>-3.0311360726473463e-03</value>
          <splits>
            <_><var>163</var>
              <quality>9.2098405584692955e-03</quality>
              <le>2.5630076415836811e-03</le></_></splits></_>
        <_>
          <depth>1</depth>
          <value>7.6627278346078215e-02</value></_>
        <_>
          <depth>1</depth>
          <value>-1.2551771235649184e-01</value></_></nodes></_>
    <_>
      <nodes>
        <_>
          <depth>0</depth>
          <value>2.9966842390272677e-05</value>
          <splits>
            <_><var>240</var>
              <quality>7.4479905888438225e-03</quality>
              <le>7.0713050663471222e-03</le></_></splits></_>
        <_>
          <depth>1</depth>
          <value>3.0108351099943555e-02</value></_>
        <_>
          <depth>1</depth>
          <value>-2.6687263738567490e-01</value></_></nodes></_>
    <_>
      <nodes>
        <_>
          <depth>0</depth>
          <value>7.8362633396409124e-04</value>
          <splits>
            <_><var>55</var>
              <quality>7.0156562142074108e-03</quality>
              <le>1.7714805435389280e-03</le></_></splits></_>
        <_>
          <depth>1</depth>
          <value>-8.1521149027393686e-02</value></_>
        <_>
          <depth>1</depth>
          <value>9.0951909306848266e-02</value></_></nodes></_>
    <_>
      <nodes>
        <_>
          <depth>0</depth>
          <value>-3.2405923343994127e-03</value>
          <splits>
            <_><var>192</var>
              <quality>7.2200139984488487e-03</quality>
              <le>5.7397047057747841e-03</le></_></splits></_>
        <_>
          <depth>1</depth>
          <value>-5.8400598248039413e-02</value></_>
        <_>
          <depth>1</depth>
          <value>1.3534392550864513e-01</value></_></nodes></_>
    <_>
      <nodes>
        <_>
          <depth>0</depth>
          <value>5.3504181102693301e-03</value>
          <splits>
            <_><var>278</var>
              <quality>6.7261336371302605e-03</quality>
              <le>6.5377289429306984e-03</le></_></splits></_>
        <_>
          <depth>1</depth>
          <value>-2.9394413568146430e-02</value></_>
        <_>
          <depth>1</depth>
          <value>2.1147403102579429e-01</value></_></nodes></_>
    <_>
      <nodes>
        <_>
          <depth>0</depth>
          <value>-1.2257699135584735e-03</value>
          <splits>
            <_><var>15</var>
              <quality>6.7480090074241161e-03</quality>
              <le>2.7900491841137409e-03</le></_></splits></_>
        <_>
          <depth>1</depth>
          <value>-8.0023108182603983e-02</value></_>
        <_>
          <depth>1</depth>
          <value>8.9337651641851479e-02</value></_></nodes></_>
    <_>
      <nodes>
        <_>
          <depth>0</depth>
          <value>-3.3806899953422631e-03</value>
          <splits>
            <_><var>287</var>
              <quality>6.4525729976594448e-03</quality>
              <le>4.6350006014108658e-03</le></_></splits></_>
        <_>
          <depth>1</depth>
          <value>5.8264538500543910e-02</value></_>
        <_>
          <depth>1</depth>
          <value>-1.1399621670730664e-01</value></_></nodes></_>
    <_>
      <nodes>
        <_>
          <depth>0</depth>
          <value>3.4870446961712156e-03</value>
          <splits>
            <_><var>287</var>
              <quality>7.2290515527129173e-03</quality>
              <le>1.0793793946504593e-02</le></_></splits></_>
        <_>
          <depth>1</depth>
          <value>-2.0943920685503385e-02</value></_>
        <_>
          <depth>1</depth>
          <value>3.2553329632318617e-01</value></_></nodes></_>
    <_>
      <nodes>
        <_>
          <depth>0</depth>
          <value>-5.6869623213638872e-04</value>
          <splits>
            <_><var>183</var>
              <quality>6.1292424798011780e-03</quality>
              <le>7.3732780292630196e-03</le></_></splits></_>
        <_>
          <depth>1</depth>
          <value>2.2661455343667952e-02</value></_>
        <_>
          <depth>1</depth>
          <value>-2.8587860036000029e-01</value></_></nodes></_>
    <_>
      <nodes>
        <_>
          <depth>0</depth>
          <value>-1.3604571033938755e-04</value>
          <splits>
            <_><var>6</var>
              <quality>6.3620819710195065e-03</quality>
              <le>7.5949491001665592e-03</le></_></splits></_>
        <_>
          <depth>1</depth>
          <value>-2.6654712961961941e-02</value></_>
        <_>
          <depth>1</depth>
          <value>2.5806404487799112e-01</value></_></nodes></_>
    <_>
      <nodes>
        <_>
          <depth>0</depth>
          <value>1.8085972566338870e-03</value>
          <splits>
            <_><var>265</var>
              <quality>6.5847206860780716e-03</quality>
              <le>1.0614774189889431e-02</le></_></splits></_>
        <_>
          <depth>1</depth>
          <value>2.4031108774933970e-02</value></_>
        <_>
          <depth>1</depth>
          <value>-3.2050224121667764e-01</value></_></nodes></_>
    <_>
      <nodes>
        <_>
          <depth>0</depth>
          <value>-1.4165889349210103e-03</value>
          <splits>
            <_><var>135</var>
              <quality>6.5806261263787746e-03</quality>
              <le>4.1450820863246918e-03</le></_></splits></_>
        <_>
          <depth>1</depth>
          <value>4.3442636883167851e-02</value></_>
        <_>
          <depth>1</depth>
          <value>-1.5716627225422261e-01</value></_></nodes></_>
    <_>
      <nodes>
        <_>
          <depth>0</depth>
          <value>1.9109717427737538e-03</value>
          <splits>
            <_><var>108</var>
              <quality>7.4218083173036575e-03</quality>
              <le>2.2909538820385933e-03</le></_></splits></_>
        <_>
          <depth>1</depth>
          <value>1.2941111482709933e-01</value></_>
        <_>
          <depth>1</depth>
          <value>-5.9755986692649893e-02</value></_></nodes></_>
    <_>
      <nodes>
        <_>
          <depth>0</depth>
          <value>-2.0455917902664033e-03</value>
          <splits>
            <_><var>170</var>
              <quality>6.6744829528033733e-03</quality>
              <le>8.9485906064510345e-03</le></_></splits></_>
        <_>
          <depth>1</depth>
          <value>1.4800473154654171e-02</value></_>
        <_>
          <depth>1</depth>
          <value>-4.4634692934369147e-01</value></_></nodes></_>
    <_>
      <nodes>
        <_>
          <depth>0</depth>
          <value>8.6410619906672611e-04</value>
          <splits>
            <_><var>243</var>
              <quality>6.2732519581913948e-03</quality>
              <le>2.1119345910847187e-03</le></_></splits></_>
        <_>
          <depth>1</depth>
          <value>-1.0721151022490590e-01</value></_>
        <_>
          <depth>1</depth>
          <value>6.2277016263165647e-02</value></_></nodes></_>
    <_>
      <nodes>
        <_>
          <depth>0</depth>
          <value>-7.5353597452375081e-04</value>
          <splits>
            <_><var>258</var>
              <quality>6.2591405585408211e-03</quality>
              <le>4.2038895189762115e-03</le></_></splits></_>
        <_>
          <depth>1</depth>
          <value>-5.1012974201544117e-02</value></_>
        <_>
          <depth>1</depth>
          <value>1.3119416727379976e-01</value></_></nodes></_>
    <_>
      <nodes>
        <_>
          <depth>0</depth>
          <value>1.9980676534659932e-03</value>
          <splits>
            <_><var>196</var>
              <quality>6.2041347846388817e-03</quality>
              <le>2.9865612741559744e-03</le></_></splits></_>
        <_>
          <depth>1</depth>
          <value>-5.1990429334376531e-02</value></_>
        <_>
          <depth>1</depth>
          <value>1.2362862010711473e-01</value></_></nodes></_>
    <_>
      <nodes>
        <_>
          <depth>0</depth>
          <value>-6.9502093865779155e-04</value>
          <splits>
            <_><var>41</var>
              <quality>6.2427297234535217e-03</quality>
              <le>2.0168069750070572e-03</le></_></splits></_>
        <_>
          <depth>1</depth>
          <value>-9.4155757289397207e-02</value></_>
        <_>
          <depth>1</depth>
          <value>6.9934665142511010e-02</value></_></nodes></_>
    <_>
      <nodes>
        <_>
          <depth>0</depth>
          <value>7.9230595716818270e-04</value>
          <splits>
            <_><var>124</var>
              <quality>7.1195717900991440e-03</quality>
              <le>3.2115662470459938e-03</le></_></splits></_>
        <_>
          <depth>1</depth>
          <value>7.9152314164856491e-02</value></_>
        <_>
          <depth>1</depth>
          <value>-9.5329117809972663e-02</value></_></nodes></_>
    <_>
      <nodes>
        <_>
          <depth>0</depth>
          <value>-2.2676539674698899e-03</value>
          <splits>
            <_><var>225</var>
              <quality>6.3999639824032784e-03</quality>
              <le>1.6732513904571533e-02</le></_></splits></_>
        <_>
          <depth>1</depth>
          <value>1.2414807061197427e-02</value></_>
        <_>
          <depth>1</depth>
          <value>-4.9833067010137899e-01</value></_></nodes></_>
    <_>
      <nodes>
        <_>
          <depth>0</depth>
          <value>1.5782141209017702e-03</value>
          <splits>
            <_><var>286</var>
              <quality>6.5520848147571087e-03</quality>
              <le>7.7639939263463020e-03</le></_></splits></_>
        <_>
          <depth>1</depth>
          <value>-1.4108048434634330e-02</value></_>
        <_>
          <depth>1</depth>
          <value>4.7368682398461764e-01</value></_></nodes></_>
    <_>
      <nodes>
        <_>
          <depth>0</depth>
          <value>8.0459074906834207e-04</value>
          <splits>
            <_><var>100</var>
              <quality>6.5209795720875263e-03</quality>
              <le>2.4698984343558550e-03</le></_></splits></_>
        <_>
          <depth>1</depth>
          <value>-9.3482819495402672e-02</value></_>
        <_>
          <depth>1</depth>
          <value>7.3945775288827204e-02</value></_></nodes></_>
    <_>
      <nodes>
        <_>
          <depth>0</depth>
          <value>4.7775237127123594e-04</value>
          <splits>
            <_><var>178</var>
              <quality>6.1330385506153107e-03</quality>
              <le>2.4281702935695648e-03</le></_></splits></_>
        <_>
          <depth>1</depth>
          <value>1.2752615478304952e-01</value></_>
        <_>
          <depth>1</depth>
          <value>-5.0655057266384050e-02</value></_></nodes></_>
    <_>
      <nodes>
        <_>
          <depth>0</depth>
          <value>-2.4384884976007644e-03</value>
          <splits>
            <_><var>19</var>
              <quality>6.0427053831517696e-03</quality>
              <le>6.1920098960399628e-03</le></_></splits></_>
        <_>
          <depth>1</depth>
          <value>1.6641747081719296e-02</value></_>
        <_>
          <depth>1</depth>
          <value>-3.4903876884837592e-01</value></_></nodes></_>
    <_>
      <nodes>
        <_>
          <depth>0</depth>
          <value>1.5793348845854773e-03</value>
          <splits>
            <_><var>105</var>
              <quality>6.7114275880157948e-03</quality>
              <le>2.6052980683743954e-03</le></_></splits></_>
        <_>
          <depth>1</depth>
          <value>7.7098669277220616e-02</value></_>
        <_>
          <depth>1</depth>
          <value>-9.2392722802958141e-02</value></_></nodes></_>
    <_>
      <nodes>
        <_>
          <depth>0</depth>
          <value>7.4165162006657129e-04</value>
          <splits>
            <_><var>193</var>
              <quality>6.8305330350995064e-03</quality>
              <le>9.4577595591545105e-03</le></_></splits></_>
        <_>
          <depth>1</depth>
          <value>-2.0234555608645784e-02</value></_>
        <_>
          <depth>1</depth>
          <value>3.5810901161692116e-01</value></_></nodes></_>
    <_>
      <nodes>
        <_>
          <depth>0</depth>
          <value>2.9764608284274437e-04</value>
          <splits>
            <_><var>294</var>
              <quality>5.9045655652880669e-03</quality>
              <le>9.2167854309082031e-03</le></_></splits></_>
        <_>
          <depth>1</depth>
          <value>1.1287697405131815e-02</value></_>
        <_>
          <depth>1</depth>
          <value>-6.4059700137785125e-01</value></_></nodes></_>
    <_>
      <nodes>
        <_>
          <depth>0</depth>
          <value>-7.9271085649011393e-04</value>
          <splits>
            <_><var>83</var>
              <quality>6.2538045458495617e-03</quality>
              <le>9.3304384499788284e-03</le></_></splits></_>
        <_>
          <depth>1</depth>
          <value>-1.3424193330779361e-02</value></_>
        <_>
          <depth>1</depth>
          <value>5.7686165922744204e-01</value></_></nodes></_>
    <_>
      <nodes>
        <_>
          <depth>0</depth>
          <value>-1.2392793612488677e-03</value>
          <splits>
            <_><var>256</var>
              <quality>6.4552319236099720e-03</quality>
              <le>6.8965721875429153e-03</le></_></splits></_>
        <_>
          <depth>1</depth>
          <value>2.8376920222139709e-02</value></_>
        <_>
          <depth>1</depth>
          <value>-2.3492448947143210e-01</value></_></nodes></_>
    <_>
      <nodes>
        <_>
          <depth>0</depth>
          <value>-1.6800957669485729e-03</value>
          <splits>
            <_><var>197</var>
              <quality>6.4318319782614708e-03</quality>
              <le>5.3679272532463074e-03</le></_></splits></_>
        <_>
          <depth>1</depth>
          <value>-3.0633659650368194e-02</value></_>
        <_>
          <depth>1</depth>
          <value>2.3646890206996940e-01</value></_></nodes></_>
    <_>
      <nodes>
        <_>
          <depth>0</depth>
          <value>8.3111792261870748e-04</value>
          <splits>
            <_><var>26</var>
              <quality>5.2769170142710209e-03</quality>
              <le>7.2289579547941685e-03</le></_></splits></_>
        <_>
          <depth>1</depth>
          <value>1.7158588255162595e-02</value></_>
        <_>
          <depth>1</depth>
          <value>-3.5339360804581654e-01</value></_></nodes></_>
    <_>
      <nodes>
        <_>
          <depth>0</depth>
          <value>1.3715434800521582e-03</value>
          <splits>
            <_><var>245</var>
              <quality>7.4349166825413704e-03</quality>
              <le>7.7695054933428764e-03</le></_></splits></_>
        <_>
          <depth>1</depth>
          <value>-2.8102045885323643e-02</value></_>
        <_>
          <depth>1</depth>
          <value>2.7353232313663040e-01</value></_></nodes></_>
    <_>
      <nodes>
        <_>
          <depth>0</depth>
          <value>-2.4528124543711223e-03</value>
          <splits>
            <_><var>241</var>
              <quality>5.4665743373334408e-03</quality>
              <le>9.4389114528894424e-03</le></_></splits></_>
        <_>
          <depth>1</depth>
          <value>1.0171971025142458e-02</value></_>
        <_>
          <depth>1</depth>
          <value>-4.9450224176962043e-01</value></_></nodes></_>
    <_>
      <nodes>
        <_>
          <depth>0</depth>
          <value>1.1925887887041249e-03</value>
          <splits>
            <_><var>123</var>
              <quality>6.2604392878711224e-03</quality>
              <le>3.8523373659700155e-03</le></_></splits></_>
        <_>
          <depth>1</depth>
          <value>-3.8910953796822301e-02</value></_>
        <_>
          <depth>1</depth>
          <value>1.6712009118298998e-01</value></_></nodes></_>
    <_>
      <nodes>
        <_>
          <depth>0</depth>
          <value>-1.9591717917614151e-03</value>
          <splits>
            <_><var>70</var>
              <quality>5.6791407987475395e-03</quality>
              <le>6.7054145038127899e-03</le></_></splits></_>
        <_>
          <depth>1</depth>
          <value>2.8240571152332548e-02</value></_>
        <_>
          <depth>1</depth>
          <value>-2.0257289139390525e-01</value></_></nodes></_>
    <_>
      <nodes>
        <_>
          <depth>0</depth>
          <value>1.8181751265953578e-04</value>
          <splits>
            <_><var>16</var>
              <quality>5.9952591545879841e-03</quality>
              <le>4.0052072145044804e-03</le></_></splits></_>
        <_>
          <depth>1</depth>
          <value>-4.7781963441445002e-02</value></_>
        <_>
          <depth>1</depth>
          <value>1.3263505507798803e-01</value></_></nodes></_>
    <_>
      <nodes>
        <_>
          <depth>0</depth>
          <value>1.1359272535945032e-03</value>
          <splits>
            <_><var>158</var>
              <quality>5.3827418014407158e-03</quality>
              <le>4.6790242195129395e-02</le></_></splits></_>
        <_>
          <depth>1</depth>
          <value>8.8665277134639120e-03</value></_>
        <_>
          <depth>1</depth>
          <value>-9.3233637863746244e-01</value></_></nodes></_>
    <_>
      <nodes>
        <_>
          <depth>0</depth>
          <value>-7.2512069881658728e-04</value>
          <splits>
            <_><var>269</var>
              <quality>5.7307528331875801e-03</quality>
              <le>4.7685280442237854e-03</le></_></splits></_>
        <_>
          <depth>1</depth>
          <value>3.8285829429552887e-02</value></_>
        <_>
          <depth>1</depth>
          <value>-1.5670922809391646e-01</value></_></nodes></_>
    <_>
      <nodes>
        <_>
          <depth>0</depth>
          <value>-3.6127922384774275e-04</value>
          <splits>
            <_><var>142</var>
              <quality>6.3076033256947994e-03</quality>
              <le>3.9279875345528126e-03</le></_></splits></_>
        <_>
          <depth>1</depth>
          <value>6.2640185279027302e-02</value></_>
        <_>
          <depth>1</depth>
          <value>-1.0628330740882540e-01</value></_></nodes></_>
    <_>
      <nodes>
        <_>
          <depth>0</depth>
          <value>7.4502628090191857e-04</value>
          <splits>
            <_><var>105</var>
              <quality>5.6092063896358013e-03</quality>
              <le>6.1193285509943962e-03</le></_></splits></_>
        <_>
          <depth>1</depth>
          <value>3.0163438653386082e-02</value></_>
        <_>
          <depth>1</depth>
          <value>-2.0275676185751243e-01</value></_></nodes></_>
    <_>
      <nodes>
        <_>
          <depth>0</depth>
          <value>5.1253492504166364e-04</value>
          <splits>
            <_><var>125</var>
              <quality>5.8937785215675831e-03</quality>
              <le>7.7904309146106243e-03</le></_></splits></_>
        <_>
          <depth>1</depth>
          <value>2.3543889378520037e-02</value></_>
        <_>
          <depth>1</depth>
          <value>-2.7569548694453255e-01</value></_></nodes></_>
    <_>
      <nodes>
        <_>
          <depth>0</depth>
          <value>-8.2118662271396395e-04</value>
          <splits>
            <_><var>61</var>
              <quality>5.6976531632244587e-03</quality>
              <le>9.4974301755428314e-03</le></_></splits></_>
        <_>
          <depth>1</depth>
          <value>4.0396972260904579e-02</value></_>
        <_>
          <depth>1</depth>
          <value>-1.4745755431005333e-01</value></_></nodes></_>
    <_>
      <nodes>
        <_>
          <depth>0</depth>
          <value>-1.8145824677828144e-03</value>
          <splits>
            <_><var>98</var>
              <quality>6.5312488004565239e-03</quality>
              <le>1.0773055255413055e-03</le></_></splits></_>
        <_>
          <depth>1</depth>
          <value>7.4913236657641213e-02</value></_>
        <_>
          <depth>1</depth>
          <value>-9.1796221758907989e-02</value></_></nodes></_>
    <_>
      <nodes>
        <_>
          <depth>0</depth>
          <value>1.5735656458386570e-04</value>
          <splits>
            <_><var>286</var>
              <quality>5.9935771860182285e-03</quality>
              <le>3.1754488591104746e-03</le></_></splits></_>
        <_>
          <depth>1</depth>
          <value>5.5822270176071505e-02</value></_>
        <_>
          <depth>1</depth>
          <value>-1.1379536680413482e-01</value></_></nodes></_>
    <_>
      <nodes>
        <_>
          <depth>0</depth>
          <value>2.4830124794965724e-03</value>
          <splits>
            <_><var>107</var>
              <quality>5.6728892959654331e-03</quality>
              <le>1.6701534390449524e-02</le></_></splits></_>
        <_>
          <depth>1</depth>
          <value>1.3099750957299573e-02</value></_>
        <_>
          <depth>1</depth>
          <value>-6.3206440156800658e-01</value></_></nodes></_>
    <_>
      <nodes>
        <_>
          <depth>0</depth>
          <value>-5.8906204427139038e-04</value>
          <splits>
            <_><var>28</var>
              <quality>5.3939623758196831e-03</quality>
              <le>6.8596377968788147e-03</le></_></splits></_>
        <_>
          <depth>1</depth>
          <value>2.1632857365123045e-02</value></_>
        <_>
          <depth>1</depth>
          <value>-2.6198174459920265e-01</value></_></nodes></_>
    <_>
      <nodes>
        <_>
          <depth>0</depth>
          <value>3.0163323909499180e-05</value>
          <splits>
            <_><var>237</var>
              <quality>6.2037026509642601e-03</quality>
              <le>1.4598626643419266e-02</le></_></splits></_>
        <_>
          <depth>1</depth>
          <value>-1.6561781408989038e-02</value></_>
        <_>
          <depth>1</depth>
          <value>4.1613262775696419e-01</value></_></nodes></_>
    <_>
      <nodes>
        <_>
          <depth>0</depth>
          <value>-6.8726628693928154e-05</value>
          <splits>
            <_><var>50</var>
              <quality>5.9891967102885246e-03</quality>
              <le>9.9420119076967239e-03</le></_></splits></_>
        <_>
          <depth>1</depth>
          <value>1.5482486722492321e-02</value></_>
        <_>
          <depth>1</depth>
          <value>-4.3025269032281455e-01</value></_></nodes></_>
    <_>
      <nodes>
        <_>
          <depth>0</depth>
          <value>1.1919921853006006e-03</value>
          <splits>
            <_><var>76</var>
              <quality>5.2335020154714584e-03</quality>
              <le>1.1497975792735815e-03</le></_></splits></_>
        <_>
          <depth>1</depth>
          <value>1.5528479942903839e-01</value></_>
        <_>
          <depth>1</depth>
          <value>-3.4854873921873246e-02</value></_></nodes></_>
    <_>
      <nodes>
        <_>
          <depth>0</depth>
          <value>-5.0633549099418271e-04</value>
          <splits>
            <_><var>96</var>
              <quality>5.5058095604181290e-03</quality>
              <le>1.1958386749029160e-02</le></_></splits></_>
        <_>
          <depth>1</depth>
          <value>8.7420663727514128e-03</value></_>
        <_>
          <depth>1</depth>
          <value>-7.3682245788600131e-01</value></_></nodes></_>
    <_>
      <nodes>
        <_>
          <depth>0</depth>
          <value>-1.1243944426179175e-03</value>
          <splits>
            <_><var>148</var>
              <quality>5.1174294203519821e-03</quality>
              <le>2.6455211918801069e-03</le></_></splits></_>
        <_>
          <depth>1</depth>
          <value>2.9202291554332453e-02</value></_>
        <_>
          <depth>1</depth>
          <value>-1.8070258028408301e-01</value></_></nodes></_>
    <_>
      <nodes>
        <_>
          <depth>0</depth>
          <value>-9.8187184450331541e-04</value>
          <splits>
            <_><var>249</var>
              <quality>4.8651364631950855e-03</quality>
              <le>1.3613268733024597e-02</le></_></splits></_>
        <_>
          <depth>1</depth>
          <value>1.3351451825791623e-02</value></_>
        <_>
          <depth>1</depth>
          <value>-3.7487497076499637e-01</value></_></nodes></_>
    <_>
      <nodes>
        <_>
          <depth>0</depth>
          <value>-8.0398064806628524e-04</value>
          <splits>
            <_><var>263</var>
              <quality>6.4070909284055233e-03</quality>
              <le>1.0996568948030472e-02</le></_></splits></_>
        <_>
          <depth>1</depth>
          <value>-3.7253870412625782e-02</value></_>
        <_>
          <depth>1</depth>
          <value>1.8643160382656634e-01</value></_></nodes></_>
    <_>
      <nodes>
        <_>
          <depth>0</depth>
          <value>9.2531231453538924e-04</value>
          <splits>
            <_><var>259</var>
              <quality>5.3177643567323685e-03</quality>
              <le>4.2659090831875801e-03</le></_></splits></_>
        <_>
          <depth>1</depth>
          <value>5.6675681088206538e-02</value></_>
        <_>
          <depth>1</depth>
          <value>-9.9911046174191012e-02</value></_></nodes></_>
    <_>
      <nodes>
        <_>
          <depth>0</depth>
          <value>1.4318122379076349e-04</value>
          <splits>
            <_><var>250</var>
              <quality>5.3917267359793186e-03</quality>
              <le>8.6708106100559235e-03</le></_></splits></_>
        <_>
          <depth>1</depth>
          <value>9.4126291492169414e-03</value></_>
        <_>
          <depth>1</depth>
          <value>-7.1241777136157958e-01</value></_></nodes></_>
    <_>
      <nodes>
        <_>
          <depth>0</depth>
          <value>1.1859427809253833e-03</value>
          <splits>
            <_><var>250</var>
              <quality>7.6257162727415562e-03</quality>
              <le>4.3898187577724457e-03</le></_></splits></_>
        <_>
          <depth>1</depth>
          <value>-3.3401273936219035e-02</value></_>
        <_>
          <depth>1</depth>
          <value>2.3770440015539490e-01</value></_></nodes></_>
    <_>
      <nodes>
        <_>
          <depth>0</depth>
          <value>-1.9044025799650692e-03</value>
          <splits>
            <_><var>144</var>
              <quality>5.6754569523036480e-03</quality>
              <le>2.3391842842102051e-03</le></_></splits></_>
        <_>
          <depth>1</depth>
          <value>-7.5297536459119407e-02</value></_>
        <_>
          <depth>1</depth>
          <value>7.9775303923177512e-02</value></_></nodes></_>
    <_>
      <nodes>
        <_>
          <depth>0</depth>
          <value>-3.4212551309138869e-04</value>
          <splits>
            <_><var>278</var>
              <quality>5.2224271930754185e-03</quality>
              <le>1.7750266939401627e-02</le></_></splits></_>
        <_>
          <depth>1</depth>
          <value>6.8787120678221779e-03</value></_>
        <_>
          <depth>1</depth>
          <value>-1.0002600408972520e+00</value></_></nodes></_>
    <_>
      <nodes>
        <_>
          <depth>0</depth>
          <value>1.8174753842951108e-04</value>
          <splits>
            <_><var>234</var>
              <quality>5.4959733970463276e-03</quality>
              <le>7.5930538587272167e-03</le></_></splits></_>
        <_>
          <depth>1</depth>
          <value>-1.5768714655170608e-02</value></_>
        <_>
          <depth>1</depth>
          <value>3.8024796095595759e-01</value></_></nodes></_>
    <_>
      <nodes>
        <_>
          <depth>0</depth>
          <value>7.7288128773732767e-04</value>
          <splits>
            <_><var>209</var>
              <quality>4.9325055442750454e-03</quality>
              <le>5.4481071420013905e-03</le></_></splits></_>
        <_>
          <depth>1</depth>
          <value>3.3963181412527119e-02</value></_>
        <_>
          <depth>1</depth>
          <value>-1.5698917302341001e-01</value></_></nodes></_>
    <_>
      <nodes>
        <_>
          <depth>0</depth>
          <value>-4.8566386075408894e-04</value>
          <splits>
            <_><var>219</var>
              <quality>4.8336125910282135e-03</quality>
              <le>1.9951231777667999e-02</le></_></splits></_>
        <_>
          <depth>1</depth>
          <value>-7.8623282654306983e-03</value></_>
        <_>
          <depth>1</depth>
          <value>8.4665932667506982e-01</value></_></nodes></_>
    <_>
      <nodes>
        <_>
          <depth>0</depth>
          <value>3.2598680775149704e-04</value>
          <splits>
            <_><var>184</var>
              <quality>5.0702826119959354e-03</quality>
              <le>5.5267434800043702e-04</le></_></splits></_>
        <_>
          <depth>1</depth>
          <value>-1.3180765267257744e-01</value></_>
        <_>
          <depth>1</depth>
          <value>4.0978162320942466e-02</value></_></nodes></_>
    <_>
      <nodes>
        <_>
          <depth>0</depth>
          <value>1.8096997007457346e-03</value>
          <splits>
            <_><var>149</var>
              <quality>6.1781248077750206e-03</quality>
              <le>2.5823123287409544e-03</le></_></splits></_>
        <_>
          <depth>1</depth>
          <value>6.8696772904616288e-02</value></_>
        <_>
          <depth>1</depth>
          <value>-9.5829325499626070e-02</value></_></nodes></_>
    <_>
      <nodes>
        <_>
          <depth>0</depth>
          <value>-4.5145453537325902e-04</value>
          <splits>
            <_><var>27</var>
              <quality>5.0948560237884521e-03</quality>
              <le>1.1217053979635239e-03</le></_></splits></_>
        <_>
          <depth>1</depth>
          <value>1.8007252103353127e-01</value></_>
        <_>
          <depth>1</depth>
          <value>-3.0490976191174402e-02</value></_></nodes></_>
    <_>
      <nodes>
        <_>
          <depth>0</depth>
          <value>-4.3922389716395064e-04</value>
          <splits>
            <_><var>71</var>
              <quality>5.8138351887464523e-03</quality>
              <le>1.7841227818280458e-03</le></_></splits></_>
        <_>
          <depth>1</depth>
          <value>-1.5992554421701752e-01</value></_>
        <_>
          <depth>1</depth>
          <value>3.8278328819479082e-02</value></_></nodes></_>
    <_>
      <nodes>
        <_>
          <depth>0</depth>
          <value>2.7749475885831363e-05</value>
          <splits>
            <_><var>76</var>
              <quality>5.0056730397045612e-03</quality>
              <le>1.9646441563963890e-02</le></_></splits></_>
        <_>
          <depth>1</depth>
          <value>-5.6593050433338963e-03</value></_>
        <_>
          <depth>1</depth>
          <value>1.6341824551595534e+00</value></_></nodes></_>
    <_>
      <nodes>
        <_>
          <depth>0</depth>
          <value>-3.1466481787319591e-03</value>
          <splits>
            <_><var>252</var>
              <quality>5.7443031109869480e-03</quality>
              <le>1.0944912210106850e-02</le></_></splits></_>
        <_>
          <depth>1</depth>
          <value>1.7894438479298329e-02</value></_>
        <_>
          <depth>1</depth>
          <value>-2.9865369005180870e-01</value></_></nodes></_>
    <_>
      <nodes>
        <_>
          <depth>0</depth>
          <value>-7.5774211908817243e-04</value>
          <splits>
            <_><var>191</var>
              <quality>5.0900802016258240e-03</quality>
              <le>5.3297821432352066e-03</le></_></splits></_>
        <_>
          <depth>1</depth>
          <value>-3.0036897598695024e-02</value></_>
        <_>
          <depth>1</depth>
          <value>1.8434902767543462e-01</value></_></nodes></_>
    <_>
      <nodes>
        <_>
          <depth>0</depth>
          <value>2.2552745908012619e-03</value>
          <splits>
            <_><var>208</var>
              <quality>5.0120269879698753e-03</quality>
              <le>9.1365939006209373e-03</le></_></splits></_>
        <_>
          <depth>1</depth>
          <value>-1.8672975995481306e-02</value></_>
        <_>
          <depth>1</depth>
          <value>2.5984640029769479e-01</value></_></nodes></_>
    <_>
      <nodes>
        <_>
          <depth>0</depth>
          <value>3.2906019194076406e-04</value>
          <splits>
            <_><var>229</var>
              <quality>5.3636636584997177e-03</quality>
              <le>4.4639363884925842e-02</le></_></splits></_>
        <_>
          <depth>1</depth>
          <value>9.1677090787604786e-03</value></_>
        <_>
          <depth>1</depth>
          <value>-7.5568999402053261e-01</value></_></nodes></_>
    <_>
      <nodes>
        <_>
          <depth>0</depth>
          <value>-1.2652260158026673e-04</value>
          <splits>
            <_><var>102</var>
              <quality>5.2970903925597668e-03</quality>
              <le>4.0140501223504543e-03</le></_></splits></_>
        <_>
          <depth>1</depth>
          <value>6.1744838825142208e-02</value></_>
        <_>
          <depth>1</depth>
          <value>-9.0608320304282897e-02</value></_></nodes></_>
    <_>
      <nodes>
        <_>
          <depth>0</depth>
          <value>-1.6853884640312285e-03</value>
          <splits>
            <_><var>149</var>
              <quality>6.0503426939249039e-03</quality>
              <le>6.6088405437767506e-03</le></_></splits></_>
        <_>
          <depth>1</depth>
          <value>-2.8234079286652596e-02</value></_>
        <_>
          <depth>1</depth>
          <value>2.4284759183677654e-01</value></_></nodes></_>
    <_>
      <nodes>
        <_>
          <depth>0</depth>
          <value>2.0591668292071179e-04</value>
          <splits>
            <_><var>13</var>
              <quality>5.0292685627937317e-03</quality>
              <le>7.0183211937546730e-04</le></_></splits></_>
        <_>
          <depth>1</depth>
          <value>-1.0621568391000950e-01</value></_>
        <_>
          <depth>1</depth>
          <value>5.0184525206108714e-02</value></_></nodes></_>
    <_>
      <nodes>
        <_>
          <depth>0</depth>
          <value>2.3510672689211179e-06</value>
          <splits>
            <_><var>143</var>
              <quality>5.2225841209292412e-03</quality>
              <le>2.0161373540759087e-03</le></_></splits></_>
        <_>
          <depth>1</depth>
          <value>7.6025757454728796e-02</value></_>
        <_>
          <depth>1</depth>
          <value>-7.2579921809296843e-02</value></_></nodes></_>
    <_>
      <nodes>
        <_>
          <depth>0</depth>
          <value>7.8197342109770362e-04</value>
          <splits>
            <_><var>172</var>
              <quality>5.9612998738884926e-03</quality>
              <le>1.7452060710638762e-03</le></_></splits></_>
        <_>
          <depth>1</depth>
          <value>-1.0204091124026334e-01</value></_>
        <_>
          <depth>1</depth>
          <value>6.2098683580776581e-02</value></_></nodes></_>
    <_>
      <nodes>
        <_>
          <depth>0</depth>
          <value>-9.1285004548359409e-04</value>
          <splits>
            <_><var>93</var>
              <quality>4.9568670801818371e-03</quality>
              <le>7.5897220522165298e-03</le></_></splits></_>
        <_>
          <depth>1</depth>
          <value>-2.9630330080901796e-02</value></_>
        <_>
          <depth>1</depth>
          <value>1.8282932489748430e-01</value></_></nodes></_>
    <_>
      <nodes>
        <_>
          <depth>0</depth>
          <value>2.6308899355904621e-04</value>
          <splits>
            <_><var>164</var>
              <quality>4.9360389821231365e-03</quality>
              <le>1.6001023352146149e-02</le></_></splits></_>
        <_>
          <depth>1</depth>
          <value>8.5955601194986787e-03</value></_>
        <_>
          <depth>1</depth>
          <value>-7.3044291905942049e-01</value></_></nodes></_>
    <_>
      <nodes>
        <_>
          <depth>0</depth>
          <value>-1.0987567856051802e-04</value>
          <splits>
            <_><var>228</var>
              <quality>5.1532140932977200e-03</quality>
              <le>3.2549435272812843e-03</le></_></splits></_>
        <_>
          <depth>1</depth>
          <value>-5.3734937106092243e-02</value></_>
        <_>
          <depth>1</depth>
          <value>1.0149358246782612e-01</value></_></nodes></_></trees></opencv_ml_boost>
</opencv_storage>
