<?xml version="1.0"?>
<opencv_storage>
<opencv_ml_svm>
  <format>3</format>
  <svmType>C_SVC</svmType>
  <kernel>
    <type>RBF</type>
    <gamma>5.0625000000000009e-01</gamma></kernel>
  <C>6.2500000000000000e+01</C>
  <term_criteria><epsilon>1.1920928955078125e-07</epsilon>
    <iterations>1000</iterations></term_criteria>
  <var_count>10</var_count>
  <class_count>2</class_count>
  <class_labels type_id="opencv-matrix">
    <rows>2</rows>
    <cols>1</cols>
    <dt>i</dt>
    <data>
      0 1</data></class_labels>
  <sv_total>523</sv_total>
  <support_vectors>
    <_>
      4.54545468e-02 2.04545468e-01 4.54545468e-02 1.70454547e-01
      5.68181835e-02 5.68181835e-02 1.13636367e-01 5.68181835e-02
      1.59090906e-01 9.09090936e-02</_>
    <_>
      8.36083591e-02 1.41914189e-01 4.51045111e-02 1.41914189e-01
      7.04070404e-02 9.24092382e-02 1.14411443e-01 8.03080276e-02
      1.08910888e-01 1.21012099e-01</_>
    <_>
      1.15030669e-01 1.44171774e-01 6.59509152e-02 1.70245394e-01
      1.53374225e-01 7.36196339e-02 9.20245349e-02 5.36809787e-02
      6.90184012e-02 6.28834367e-02</_>
    <_>
      1.18852451e-01 1.68032780e-01 8.19672048e-02 1.43442616e-01
      3.68852429e-02 1.02459013e-01 1.27049178e-01 6.55737668e-02
      9.42622870e-02 6.14754073e-02</_>
    <_>
      1.57076210e-01 6.37636110e-02 4.35458794e-02 9.40902010e-02
      6.99844509e-02 5.20995334e-02 1.50855362e-01 3.96578535e-02
      1.62519440e-01 1.66407466e-01</_>
    <_>
      1.13755077e-01 8.47359300e-02 6.03598393e-02 6.15206026e-02
      7.60301799e-02 1.46836907e-01 1.25943124e-01 8.06732476e-02
      1.25943124e-01 1.24201976e-01</_>
    <_>
      8.11188817e-02 1.59440562e-01 5.87412603e-02 1.73426583e-01
      8.67132917e-02 8.25174823e-02 9.65035036e-02 5.87412603e-02
      9.93007049e-02 1.03496507e-01</_>
    <_>
      7.56013766e-02 1.99312717e-01 2.74914093e-02 1.34020627e-01
      5.84192462e-02 1.20274916e-01 6.87285215e-02 5.84192462e-02
      1.30584195e-01 1.27147764e-01</_>
    <_>
      1.11194029e-01 1.24626867e-01 7.23880604e-02 9.77611914e-02
      1.38059705e-01 7.61194006e-02 1.03731342e-01 4.62686568e-02
      1.20895520e-01 1.08955227e-01</_>
    <_>
      1.26600280e-01 1.45092458e-01 7.53911808e-02 1.13798007e-01
      1.33712664e-01 4.97866273e-02 1.43669978e-01 3.12944502e-02
      8.67709816e-02 9.38833579e-02</_>
    <_>
      1.11979172e-01 1.10677086e-01 7.29166716e-02 8.85416716e-02
      1.10677086e-01 6.64062500e-02 1.06770836e-01 1.13281250e-01
      1.01562500e-01 1.17187500e-01</_>
    <_>
      1.66666672e-01 5.00000045e-02 8.33333358e-02 1.33333340e-01
      5.00000045e-02 1.50000006e-01 6.66666701e-02 1.00000009e-01
      1.16666675e-01 8.33333358e-02</_>
    <_>
      1.07648723e-01 1.35977328e-01 4.53257784e-02 1.72804534e-01
      2.83286124e-02 1.64305940e-01 1.33144468e-01 5.66572249e-02
      6.51558042e-02 9.06515568e-02</_>
    <_>
      1.23695977e-01 1.08792849e-01 7.00447112e-02 1.40089422e-01
      7.15350211e-02 9.38897207e-02 1.01341285e-01 6.85543939e-02
      1.14754096e-01 1.07302532e-01</_>
    <_>
      1.15167320e-01 5.86701408e-02 9.90873501e-02 5.91047369e-02
      9.90873501e-02 8.77879187e-02 1.39504567e-01 7.51847029e-02
      1.42112121e-01 1.24293782e-01</_>
    <_>
      1.01321585e-01 1.04258440e-01 8.81057233e-02 1.17474303e-01
      1.39500737e-01 9.39794406e-02 1.01321585e-01 3.67107205e-02
      1.08663730e-01 1.08663730e-01</_>
    <_>
      1.43239617e-01 1.31191432e-01 3.74832675e-02 9.63855386e-02
      4.95314598e-02 6.82730898e-02 1.68674693e-01 3.74832675e-02
      1.29852742e-01 1.37884870e-01</_>
    <_>
      8.57988149e-02 1.80473372e-01 2.07100585e-02 3.07692319e-01
      2.07100585e-02 5.62130176e-02 9.46745574e-02 1.09467454e-01
      5.62130176e-02 6.80473372e-02</_>
    <_>
      1.17149755e-01 7.85024166e-02 6.21980652e-02 9.78260860e-02
      1.16545893e-01 1.13526568e-01 1.20169081e-01 4.71014492e-02
      1.20772943e-01 1.26207724e-01</_>
    <_>
      1.06003754e-01 9.56848040e-02 9.28705409e-02 7.69230798e-02
      1.17260791e-01 1.38836771e-01 1.14446528e-01 7.31707290e-02
      9.09943730e-02 9.38086286e-02</_>
    <_>
      9.06862766e-02 2.25490198e-01 2.94117667e-02 1.81372553e-01
      5.63725494e-02 1.02941178e-01 6.12745136e-02 1.05392158e-01
      7.35294148e-02 7.35294148e-02</_>
    <_>
      7.86713287e-02 1.48601398e-01 1.25874132e-01 1.04895100e-01
      1.15384616e-01 9.96503457e-02 7.34265745e-02 7.86713287e-02
      8.39160830e-02 9.09090936e-02</_>
    <_>
      8.21167901e-02 2.08029196e-01 9.67153311e-02 1.31386861e-01
      4.74452563e-02 1.18613139e-01 4.37956192e-02 9.67153311e-02
      9.67153311e-02 7.84671530e-02</_>
    <_>
      6.75324649e-02 1.42857134e-01 5.71428575e-02 1.14285715e-01
      4.41558436e-02 1.55844152e-01 1.14285715e-01 9.35064927e-02
      1.14285715e-01 9.61038917e-02</_>
    <_>
      1.07049607e-01 1.61879897e-01 3.65535244e-02 1.33159265e-01
      9.66057479e-02 9.13838148e-02 8.87728482e-02 5.22193238e-02
      1.22715406e-01 1.09660573e-01</_>
    <_>
      9.96784568e-02 1.09324753e-01 6.75241128e-02 1.83279738e-01
      7.39549845e-02 7.07395524e-02 1.25401929e-01 3.53697762e-02
      1.28617361e-01 1.06109321e-01</_>
    <_>
      1.12380952e-01 1.58095241e-01 5.52380942e-02 1.27619043e-01
      8.95238072e-02 1.00952379e-01 8.57142881e-02 4.95238081e-02
      1.08571425e-01 1.12380952e-01</_>
    <_>
      1.09890111e-01 1.81318685e-01 4.39560451e-02 1.51098907e-01
      9.34065953e-02 9.06593427e-02 7.96703324e-02 6.04395606e-02
      7.69230798e-02 1.12637363e-01</_>
    <_>
      1.22736417e-01 1.60965785e-01 4.22535203e-02 1.28772631e-01
      6.23742417e-02 7.34406412e-02 1.19718306e-01 5.63380271e-02
      1.27766594e-01 1.05633803e-01</_>
    <_>
      1.69241101e-01 3.76091339e-02 1.47750163e-02 5.91000654e-02
      6.31296188e-02 1.14842176e-01 1.70584276e-01 4.43250500e-02
      1.73270658e-01 1.53122902e-01</_>
    <_>
      1.13103449e-01 1.60000011e-01 5.24137951e-02 1.33793101e-01
      7.72413835e-02 1.04827590e-01 1.25517249e-01 4.00000028e-02
      9.37931091e-02 9.93103459e-02</_>
    <_>
      1.63781613e-01 8.38881433e-02 4.59387451e-02 7.78961331e-02
      1.03195734e-01 6.32489994e-02 1.91744328e-01 4.79360819e-02
      1.16511315e-01 1.05858847e-01</_>
    <_>
      1.37896836e-01 1.37896836e-01 2.87698433e-02 1.32936522e-01
      8.63095298e-02 9.62301642e-02 1.45833343e-01 5.15873060e-02
      8.13492090e-02 1.01190485e-01</_>
    <_>
      1.17296219e-01 2.24652082e-01 6.56063557e-02 1.21272363e-01
      8.94632190e-02 3.77733596e-02 1.11331999e-01 2.98210718e-02
      9.34393629e-02 1.09343931e-01</_>
    <_>
      1.24668434e-01 1.53846145e-01 5.03978767e-02 1.18037134e-01
      7.29442984e-02 7.02917725e-02 1.07427053e-01 6.63129985e-02
      1.02122016e-01 1.33952245e-01</_>
    <_>
      6.53594807e-02 1.89542487e-01 3.92156877e-02 1.76470593e-01
      5.88235296e-02 5.88235296e-02 1.17647059e-01 1.96078438e-02
      1.24183007e-01 1.50326803e-01</_>
    <_>
      9.26470608e-02 1.05147064e-01 1.22794122e-01 7.20588267e-02
      1.70588240e-01 1.03676476e-01 1.15441181e-01 5.29411770e-02
      8.67647082e-02 7.79411793e-02</_>
    <_>
      1.00000001e-01 1.02702707e-01 5.67567572e-02 1.02702707e-01
      1.02702707e-01 1.59459457e-01 8.37837830e-02 6.21621646e-02
      1.32432431e-01 9.72972959e-02</_>
    <_>
      1.32151484e-01 1.31345689e-01 3.94842885e-02 8.62207860e-02
      6.52699471e-02 1.07977435e-01 1.34568900e-01 6.28525391e-02
      1.18452862e-01 1.21676065e-01</_>
    <_>
      1.34146333e-01 8.53658468e-02 2.43902430e-02 1.21951215e-01
      1.70731694e-01 8.53658468e-02 1.46341458e-01 6.09756075e-02
      7.31707290e-02 9.75609720e-02</_>
    <_>
      1.08108111e-01 1.45945951e-01 2.16216221e-02 1.83783785e-01
      8.64864886e-02 8.10810849e-02 9.18918923e-02 3.78378406e-02
      1.24324329e-01 1.18918926e-01</_>
    <_>
      1.31719127e-01 1.54479414e-01 5.61743341e-02 1.00726388e-01
      8.61985460e-02 3.63196097e-02 1.53026626e-01 2.56658588e-02
      1.29782081e-01 1.25907987e-01</_>
    <_>
      1.26126125e-01 2.28228241e-01 1.50150154e-02 1.44144148e-01
      5.40540554e-02 5.10510504e-02 1.53153151e-01 3.60360369e-02
      1.08108111e-01 8.40840861e-02</_>
    <_>
      1.02564111e-01 1.11111119e-01 7.69230798e-02 1.70940176e-01
      1.28205135e-01 7.69230798e-02 7.69230798e-02 1.02564111e-01
      7.69230798e-02 7.69230798e-02</_>
    <_>
      6.75675720e-02 1.08108111e-01 2.02702712e-02 1.82432443e-01
      2.02702712e-02 1.48648649e-01 1.14864871e-01 7.43243247e-02
      1.28378376e-01 1.35135144e-01</_>
    <_>
      1.21765599e-01 1.15677319e-01 5.47945201e-02 1.01978689e-01
      8.52359235e-02 1.05022833e-01 1.18721463e-01 8.67579952e-02
      1.12633184e-01 9.74124819e-02</_>
    <_>
      1.13712370e-01 9.69899669e-02 3.67892981e-02 1.32107019e-01
      4.18060198e-02 1.12040132e-01 1.12040132e-01 6.85618743e-02
      1.63879603e-01 1.22073576e-01</_>
    <_>
      1.64516121e-01 1.03225805e-01 2.58064512e-02 1.48387089e-01
      1.03225805e-01 3.87096778e-02 1.35483876e-01 3.87096778e-02
      1.35483876e-01 1.06451608e-01</_>
    <_>
      8.89183804e-02 5.57398796e-02 1.14134043e-01 4.77770418e-02
      1.77173197e-01 1.17451891e-01 9.75447893e-02 7.56469816e-02
      1.24087594e-01 1.01526208e-01</_>
    <_>
      1.64429531e-01 8.55704695e-02 2.51677856e-02 1.22483224e-01
      9.39597338e-02 4.36241627e-02 1.59395978e-01 1.51006710e-02
      1.37583897e-01 1.52684569e-01</_>
    <_>
      9.58904102e-02 5.47945201e-02 1.36986300e-02 1.36986300e-01
      4.10958901e-02 1.91780820e-01 9.58904102e-02 9.58904102e-02
      1.50684923e-01 1.23287670e-01</_>
    <_>
      7.85498470e-02 1.57099694e-01 2.71903314e-02 1.69184297e-01
      4.22960743e-02 1.38972804e-01 8.45921487e-02 8.76132920e-02
      1.02719031e-01 1.11782476e-01</_>
    <_>
      9.83981639e-02 2.74599522e-01 3.66132706e-02 2.01372981e-01
      4.11899313e-02 4.34782580e-02 7.32265413e-02 4.80549186e-02
      8.92448500e-02 9.38215032e-02</_>
    <_>
      1.06617644e-01 1.21323533e-01 1.02941178e-01 7.35294148e-02
      8.82352963e-02 7.35294148e-02 1.13970585e-01 1.25000000e-01
      1.17647059e-01 7.72058815e-02</_>
    <_>
      1.09589040e-01 6.21707030e-02 8.95679593e-02 4.00421470e-02
      1.32771328e-01 9.58904102e-02 1.27502635e-01 3.89884077e-02
      1.58061117e-01 1.45416215e-01</_>
    <_>
      1.27041742e-01 8.07622522e-02 1.05263159e-01 6.44283146e-02
      7.62250423e-02 1.18874773e-01 1.30671501e-01 1.00725956e-01
      9.89110693e-02 9.70961899e-02</_>
    <_>
      1.30756110e-01 6.87890872e-02 3.24047767e-02 9.49403122e-02
      4.60488945e-02 6.31040409e-02 1.31324619e-01 3.92268337e-02
      2.06367254e-01 1.87038094e-01</_>
    <_>
      6.87830672e-02 1.69312164e-01 7.40740746e-02 1.90476179e-01
      1.79894179e-01 3.70370373e-02 1.00529097e-01 2.64550261e-02
      7.40740746e-02 7.93650746e-02</_>
    <_>
      6.25000000e-02 1.31250009e-01 2.50000004e-02 1.43749997e-01
      6.25000000e-02 1.06250003e-01 1.25000000e-01 7.50000030e-02
      1.37500003e-01 1.31250009e-01</_>
    <_>
      7.36842155e-02 1.57894745e-01 0. 2.52631605e-01 1.05263162e-02
      4.21052650e-02 7.36842155e-02 6.31579012e-02 1.89473689e-01
      1.36842117e-01</_>
    <_>
      8.83534104e-02 1.38554215e-01 7.02811182e-02 1.42570272e-01
      1.14457831e-01 1.28514051e-01 8.03212821e-02 6.42570257e-02
      9.03614461e-02 8.23293179e-02</_>
    <_>
      1.38623327e-01 1.11854687e-01 8.31739977e-02 1.04206502e-01
      1.16634801e-01 5.06692156e-02 1.27151057e-01 3.63288708e-02
      1.25239000e-01 1.06118545e-01</_>
    <_>
      7.17299581e-02 1.66666657e-01 1.09704636e-01 1.98312223e-01
      1.22362867e-01 5.48523180e-02 8.64978880e-02 4.64134999e-02
      6.54008389e-02 7.80590698e-02</_>
    <_>
      1.24087587e-01 2.00729921e-01 4.92700711e-02 2.18978107e-01
      5.65693416e-02 8.21167901e-02 6.38686121e-02 5.29197082e-02
      8.39416087e-02 6.75182492e-02</_>
    <_>
      1.11711711e-01 9.54954997e-02 2.70270277e-02 6.84684664e-02
      4.14414406e-02 1.80180192e-01 1.18918926e-01 4.50450480e-02
      1.56756759e-01 1.54954955e-01</_>
    <_>
      1.19914345e-01 8.35117772e-02 4.28265519e-02 1.45610273e-01
      5.13918623e-02 1.00642398e-01 1.19914345e-01 6.63811564e-02
      1.34903640e-01 1.34903640e-01</_>
    <_>
      7.46376812e-02 1.37681171e-01 5.21739163e-02 1.25362322e-01
      6.30434826e-02 1.35507256e-01 8.47826153e-02 1.36956528e-01
      9.78260934e-02 9.20289904e-02</_>
    <_>
      1.26436785e-01 1.18773945e-01 6.64112344e-02 1.23882502e-01
      1.16219662e-01 9.32311565e-02 9.19540226e-02 5.36398441e-02
      1.03448272e-01 1.06002554e-01</_>
    <_>
      8.76865685e-02 8.02238807e-02 5.97014911e-02 1.34328350e-01
      7.83582106e-02 1.34328350e-01 1.32462680e-01 9.70149264e-02
      1.04477607e-01 9.14179087e-02</_>
    <_>
      8.91304314e-02 2.23913029e-01 4.56521735e-02 1.78260863e-01
      4.78260852e-02 5.21739125e-02 1.08695649e-01 3.04347817e-02
      1.08695649e-01 1.15217388e-01</_>
    <_>
      8.82825032e-02 2.16693416e-01 8.98876414e-02 1.38041735e-01
      8.34670961e-02 5.77849112e-02 1.13964684e-01 4.33386825e-02
      8.82825032e-02 8.02568197e-02</_>
    <_>
      1.00917429e-01 1.10091738e-01 6.42201826e-02 1.65137604e-01
      7.33944923e-02 1.00917429e-01 7.33944923e-02 7.33944923e-02
      1.46788985e-01 9.17431116e-02</_>
    <_>
      1.13240421e-01 8.71080160e-02 8.53658542e-02 9.93031338e-02
      1.35888502e-01 1.16724737e-01 1.08013935e-01 9.58188176e-02
      8.18815306e-02 7.66550526e-02</_>
    <_>
      1.62482560e-01 6.69456050e-02 3.76569033e-02 5.09065539e-02
      1.15062758e-01 6.34588599e-02 1.37377962e-01 2.51046028e-02
      1.81311011e-01 1.59693167e-01</_>
    <_>
      9.58512202e-02 1.40200287e-01 1.00143068e-01 1.43061519e-01
      1.33047208e-01 7.43919909e-02 9.01287571e-02 5.15021458e-02
      9.29899886e-02 7.86838382e-02</_>
    <_>
      1.16541356e-01 2.66917288e-01 1.05263159e-01 1.35338351e-01
      9.02255625e-02 1.12781953e-02 1.27819553e-01 1.87969934e-02
      7.14285746e-02 5.63909784e-02</_>
    <_>
      1.24661252e-01 1.04336046e-01 7.58807585e-02 1.08401090e-01
      8.40108395e-02 7.99458027e-02 1.27371281e-01 8.67208689e-02
      1.00271001e-01 1.08401090e-01</_>
    <_>
      1.00000001e-01 1.79166675e-01 9.58333388e-02 1.12500004e-01
      1.29166663e-01 8.74999985e-02 1.05555557e-01 3.05555556e-02
      7.50000030e-02 8.47222209e-02</_>
    <_>
      1.07826091e-01 2.38260880e-01 3.47826108e-02 1.56521738e-01
      5.39130457e-02 7.47826099e-02 1.02608696e-01 6.95652217e-02
      8.17391351e-02 7.99999982e-02</_>
    <_>
      9.55414027e-02 1.08280256e-01 1.91082805e-02 1.97452232e-01
      5.09554148e-02 1.52866244e-01 6.36942685e-02 1.21019110e-01
      8.28025490e-02 1.08280256e-01</_>
    <_>
      1.47916675e-01 7.91666657e-02 4.23611104e-02 6.59722239e-02
      6.59722239e-02 7.43055567e-02 1.56250000e-01 5.90277798e-02
      1.58333331e-01 1.50694445e-01</_>
    <_>
      9.12547559e-02 1.48288965e-01 1.10266156e-01 9.12547559e-02
      1.52091250e-01 9.50570330e-02 7.22433478e-02 7.60456249e-02
      6.84410632e-02 9.50570330e-02</_>
    <_>
      5.17711155e-02 2.09809259e-01 6.81198910e-02 2.09809259e-01
      5.17711155e-02 1.17166214e-01 6.26702979e-02 5.99455014e-02
      8.44686627e-02 8.44686627e-02</_>
    <_>
      8.15602839e-02 2.55319148e-01 3.54609936e-02 1.41843975e-01
      5.67375869e-02 4.96453866e-02 1.02836877e-01 2.83687934e-02
      1.41843975e-01 1.06382973e-01</_>
    <_>
      9.59383771e-02 1.05742298e-01 5.81232496e-02 1.09243698e-01
      8.19327757e-02 1.27450988e-01 9.66386572e-02 1.48459390e-01
      9.03361365e-02 8.61344561e-02</_>
    <_>
      1.32475078e-01 7.10132867e-02 6.81063086e-02 9.55149457e-02
      1.03405312e-01 8.67940187e-02 1.25830561e-01 6.47840500e-02
      1.31644517e-01 1.20431893e-01</_>
    <_>
      1.27659574e-01 1.74468085e-01 3.40425521e-02 1.57446802e-01
      4.68085110e-02 5.95744662e-02 1.06382973e-01 5.53191453e-02
      1.44680843e-01 9.36170220e-02</_>
    <_>
      9.66494828e-02 1.46907210e-01 7.08762854e-02 1.34020612e-01
      7.21649453e-02 8.63402039e-02 7.86082447e-02 6.05670102e-02
      1.23711333e-01 1.30154639e-01</_>
    <_>
      1.37931034e-01 1.45593867e-01 4.21455912e-02 1.83908045e-01
      9.96168554e-02 3.44827585e-02 1.03448272e-01 1.91570874e-02
      1.07279688e-01 1.26436785e-01</_>
    <_>
      1.36973172e-01 7.95019120e-02 7.85440579e-02 7.56704956e-02
      8.23754743e-02 7.47126415e-02 1.36973172e-01 4.59770113e-02
      1.54214561e-01 1.35057464e-01</_>
    <_>
      7.34693855e-02 9.65986401e-02 1.25170067e-01 8.57142881e-02
      9.11564603e-02 1.30612254e-01 9.79591832e-02 7.21088424e-02
      1.23809524e-01 1.03401363e-01</_>
    <_>
      1.20663650e-01 4.97737564e-02 7.69230798e-02 3.77073921e-02
      8.44645575e-02 1.28205135e-01 1.01055808e-01 8.29562619e-02
      1.55354455e-01 1.62895933e-01</_>
    <_>
      1.33004919e-01 1.18226603e-01 1.97044332e-02 1.42857134e-01
      5.91133013e-02 9.35960561e-02 1.03448272e-01 3.94088663e-02
      1.47783250e-01 1.42857134e-01</_>
    <_>
      1.41630903e-01 9.01287571e-02 7.43919909e-02 9.72818360e-02
      1.17310449e-01 9.72818360e-02 1.34477824e-01 5.57939932e-02
      1.03004292e-01 8.86981413e-02</_>
    <_>
      9.32896882e-02 1.65302783e-01 8.18330646e-02 2.02945992e-01
      1.03109658e-01 5.56464829e-02 8.18330646e-02 3.92798707e-02
      9.81996730e-02 7.85597414e-02</_>
    <_>
      1.09504126e-01 1.79752052e-01 7.02479333e-02 8.67768526e-02
      1.71487600e-01 2.89256182e-02 1.32231399e-01 3.92561965e-02
      9.50413197e-02 8.67768526e-02</_>
    <_>
      1.82197496e-01 1.01529904e-01 7.09318519e-02 6.81502074e-02
      8.90125185e-02 6.39777482e-02 1.82197496e-01 2.92072333e-02
      1.07093185e-01 1.05702363e-01</_>
    <_>
      9.89761055e-02 1.74061432e-01 2.73037534e-02 1.55290097e-01
      5.29010221e-02 1.16040953e-01 1.04095563e-01 5.29010221e-02
      1.05802044e-01 1.12627983e-01</_>
    <_>
      1.39534891e-01 8.19009095e-02 6.16784655e-02 5.76339737e-02
      1.06167845e-01 7.68453032e-02 1.45601615e-01 5.46006076e-02
      1.39534891e-01 1.36501521e-01</_>
    <_>
      8.21917802e-02 1.91780820e-01 8.90410990e-02 2.26027399e-01
      4.79452051e-02 4.79452051e-02 1.16438359e-01 3.42465751e-02
      1.02739722e-01 6.16438352e-02</_>
    <_>
      6.86695278e-02 2.70386279e-01 9.87124443e-02 1.45922750e-01
      4.72102985e-02 9.01287571e-02 9.01287571e-02 6.43776804e-02
      5.57939932e-02 6.86695278e-02</_>
    <_>
      7.72727281e-02 7.72727281e-02 1.31818175e-01 7.27272704e-02
      1.09090909e-01 1.29545450e-01 8.63636360e-02 1.47727266e-01
      8.63636360e-02 8.18181783e-02</_>
    <_>
      1.22416534e-01 9.06200334e-02 4.61049303e-02 1.27186015e-01
      8.58505592e-02 1.14467412e-01 1.55802861e-01 6.20031804e-02
      1.08108111e-01 8.74403864e-02</_>
    <_>
      1.07692309e-01 9.23076943e-02 4.61538471e-02 4.61538471e-02
      6.15384616e-02 4.61538471e-02 2.00000003e-01 4.61538471e-02
      2.46153846e-01 1.07692309e-01</_>
    <_>
      1.16465859e-01 8.63453746e-02 7.42971897e-02 8.83534104e-02
      1.02409631e-01 1.32530123e-01 1.18473887e-01 8.83534104e-02
      9.43775028e-02 9.83935744e-02</_>
    <_>
      8.69565234e-02 2.66798437e-01 8.30039531e-02 1.75889328e-01
      6.52173907e-02 6.52173907e-02 5.53359687e-02 4.74308319e-02
      8.10276717e-02 7.31225312e-02</_>
    <_>
      8.38509351e-02 9.47204977e-02 4.34782617e-02 2.03416154e-01
      6.83229864e-02 1.38198763e-01 8.69565234e-02 1.04037270e-01
      8.85093212e-02 8.85093212e-02</_>
    <_>
      9.58904102e-02 3.69863003e-01 1.36986300e-02 1.36986300e-01
      8.90410990e-02 4.79452051e-02 1.09589040e-01 0. 6.16438352e-02
      7.53424615e-02</_>
    <_>
      9.66386572e-02 1.97478995e-01 5.46218529e-02 2.01680690e-01
      6.72268942e-02 1.09243706e-01 6.72268942e-02 5.04201725e-02
      8.82352963e-02 6.72268942e-02</_>
    <_>
      1.24087587e-01 9.12408754e-02 4.74452563e-02 6.56934306e-02
      1.45985395e-01 1.16788320e-01 1.13138683e-01 1.31386861e-01
      8.39416087e-02 8.02919716e-02</_>
    <_>
      9.57324058e-02 1.02652825e-01 1.13033444e-01 1.10726640e-01
      9.57324058e-02 9.11187977e-02 1.11880042e-01 1.07266434e-01
      9.11187977e-02 8.07381719e-02</_>
    <_>
      1.82495341e-01 1.45251393e-01 5.21415286e-02 4.84171323e-02
      7.07634985e-02 6.14525154e-02 1.48975790e-01 4.84171323e-02
      1.15456238e-01 1.26629427e-01</_>
    <_>
      5.96745051e-02 2.18806520e-01 5.60578667e-02 2.04339966e-01
      9.22242329e-02 1.06690779e-01 9.04159173e-02 4.33996394e-02
      6.32911399e-02 6.50994629e-02</_>
    <_>
      8.79629627e-02 1.94444448e-01 3.24074067e-02 1.43518522e-01
      7.40740746e-02 9.72222239e-02 8.33333358e-02 7.40740746e-02
      8.33333358e-02 1.29629627e-01</_>
    <_>
      1.05337083e-01 7.44381994e-02 6.32022470e-02 7.02247173e-02
      7.72471949e-02 1.44662917e-01 1.06741577e-01 1.01123594e-01
      1.33426964e-01 1.23595506e-01</_>
    <_>
      1.39605463e-01 7.89074376e-02 9.10470411e-02 5.31107746e-02
      2.30652496e-01 5.15933223e-02 1.65402129e-01 4.24886197e-02
      8.49772394e-02 6.22154772e-02</_>
    <_>
      9.35251787e-02 2.12230220e-01 4.67625894e-02 2.23021582e-01
      4.67625894e-02 7.19424486e-02 9.71223041e-02 8.63309354e-02
      6.11510798e-02 6.11510798e-02</_>
    <_>
      9.54356864e-02 9.95850712e-02 5.39419129e-02 1.53526977e-01
      9.54356864e-02 1.49377599e-01 1.32780090e-01 4.97925356e-02
      7.46887997e-02 9.54356864e-02</_>
    <_>
      1.22609682e-01 8.43644589e-02 1.14735663e-01 6.52418509e-02
      1.18110240e-01 1.31608561e-01 9.78627726e-02 5.39932549e-02
      1.12485945e-01 9.89876315e-02</_>
    <_>
      6.75675720e-02 1.62162170e-01 2.70270277e-02 1.41891897e-01
      4.05405425e-02 1.41891897e-01 8.10810849e-02 8.10810849e-02
      1.21621624e-01 1.35135144e-01</_>
    <_>
      1.47798732e-01 2.01257855e-01 4.08805013e-02 1.60377353e-01
      4.08805013e-02 6.60377368e-02 1.10062890e-01 3.45911942e-02
      9.74842757e-02 1.00628927e-01</_>
    <_>
      1.59305990e-01 8.20189267e-02 3.47003154e-02 6.30914867e-02
      6.78233430e-02 1.05678238e-01 1.67192429e-01 5.83596230e-02
      1.37223974e-01 1.24605678e-01</_>
    <_>
      9.67741907e-02 8.46774131e-02 6.45161271e-02 1.02822579e-01
      6.25000000e-02 1.39112905e-01 9.27419364e-02 8.66935477e-02
      1.33064508e-01 1.37096763e-01</_>
    <_>
      5.80357164e-02 2.23214298e-01 7.58928582e-02 7.58928582e-02
      1.16071433e-01 8.48214328e-02 8.92857164e-02 4.01785746e-02
      1.16071433e-01 1.20535716e-01</_>
    <_>
      7.98611119e-02 1.47569448e-01 8.50694478e-02 1.21527776e-01
      1.40625000e-01 1.00694448e-01 9.54861119e-02 5.72916679e-02
      7.81250000e-02 9.37500000e-02</_>
    <_>
      1.58545449e-01 7.34545439e-02 3.92727256e-02 8.43636319e-02
      5.59999980e-02 5.30909076e-02 1.70909092e-01 4.07272726e-02
      1.62181810e-01 1.61454543e-01</_>
    <_>
      1.40376255e-01 1.02749638e-01 6.07814752e-02 8.97250324e-02
      1.31693199e-01 5.20984083e-02 1.62083924e-01 2.60492042e-02
      1.05643988e-01 1.28798842e-01</_>
    <_>
      1.37614667e-01 2.29357794e-01 2.75229346e-02 1.28440365e-01
      4.58715558e-02 6.42201826e-02 1.65137604e-01 3.66972461e-02
      1.10091738e-01 5.50458692e-02</_>
    <_>
      9.48905125e-02 8.88077840e-02 6.20437935e-02 1.11922137e-01
      9.24574211e-02 1.21654503e-01 1.04622871e-01 8.51581469e-02
      1.24087587e-01 1.14355229e-01</_>
    <_>
      1.93236712e-02 1.35265693e-01 4.34782617e-02 3.23671490e-01
      3.38164233e-02 2.60869563e-01 2.41545886e-02 2.89855078e-02
      6.28019348e-02 6.76328465e-02</_>
    <_>
      7.72093013e-02 9.67441872e-02 1.28372103e-01 9.95348841e-02
      1.09767444e-01 1.06046513e-01 7.06976727e-02 5.76744191e-02
      1.40465125e-01 1.13488376e-01</_>
    <_>
      1.19047627e-01 2.14285731e-01 1.05158739e-01 9.12698433e-02
      5.55555597e-02 5.35714328e-02 1.03174612e-01 2.97619067e-02
      1.15079373e-01 1.13095246e-01</_>
    <_>
      1.00303955e-01 1.36778116e-01 1.07396156e-01 1.43870324e-01
      1.54002041e-01 7.19351619e-02 1.07396156e-01 4.45795357e-02
      6.28166199e-02 7.09219873e-02</_>
    <_>
      1.40361816e-01 7.86026195e-02 3.24391760e-02 8.48409235e-02
      7.42358044e-02 9.60698649e-02 1.37242660e-01 6.36306927e-02
      1.37242660e-01 1.55333742e-01</_>
    <_>
      1.18198872e-01 1.05065666e-01 9.94371474e-02 9.19324607e-02
      1.03189491e-01 9.19324607e-02 1.05065666e-01 8.44277665e-02
      1.05065666e-01 9.56848040e-02</_>
    <_>
      1.00591719e-01 1.44970417e-01 2.36686394e-02 1.27218932e-01
      5.02958596e-02 1.39053255e-01 1.03550300e-01 1.12426035e-01
      9.76331383e-02 1.00591719e-01</_>
    <_>
      1.04838707e-01 2.09677413e-01 8.87096748e-02 1.20967738e-01
      1.04838707e-01 8.06451589e-03 9.67741907e-02 1.61290318e-02
      1.29032254e-01 1.20967738e-01</_>
    <_>
      1.38528138e-01 6.49350658e-02 3.46320346e-02 7.79220760e-02
      7.35930726e-02 9.95671004e-02 1.21212125e-01 9.09090936e-02
      1.47186145e-01 1.51515156e-01</_>
    <_>
      9.92907733e-02 1.22340418e-01 1.70212761e-01 6.20567352e-02
      8.15602839e-02 1.20567374e-01 9.75177288e-02 4.25531901e-02
      1.11702122e-01 9.21985805e-02</_>
    <_>
      1.21290997e-01 1.04633011e-01 6.45497143e-02 1.20249875e-01
      1.11400314e-01 6.29880279e-02 1.20770440e-01 3.33159827e-02
      1.34825617e-01 1.25976056e-01</_>
    <_>
      8.82825032e-02 1.25200644e-01 4.49438207e-02 1.52487963e-01
      7.22311363e-02 1.09149277e-01 1.07544139e-01 7.70465508e-02
      1.21990368e-01 1.01123594e-01</_>
    <_>
      1.08150467e-01 1.20689653e-01 8.30720961e-02 1.06583066e-01
      1.64576799e-01 7.05329105e-02 1.34796232e-01 7.99373016e-02
      6.58307225e-02 6.58307225e-02</_>
    <_>
      6.86274469e-02 1.03485838e-01 1.06753811e-01 8.60566422e-02
      1.90631807e-01 1.22004353e-01 8.71459693e-02 6.31808266e-02
      9.15032625e-02 8.06100219e-02</_>
    <_>
      9.54653993e-02 1.24105014e-01 9.54653993e-02 6.44391403e-02
      1.05011940e-01 9.06921253e-02 9.54653993e-02 7.63723180e-02
      1.14558473e-01 1.38424829e-01</_>
    <_>
      7.57180154e-02 1.54046997e-01 1.30548298e-01 1.69712797e-01
      1.20104440e-01 9.39947814e-02 5.22193238e-02 7.04960823e-02
      5.74412532e-02 7.57180154e-02</_>
    <_>
      9.11214948e-02 2.10280374e-01 2.33644843e-02 2.24299058e-01
      6.30841106e-02 8.64485949e-02 1.16822429e-01 5.37383147e-02
      7.00934529e-02 6.07476607e-02</_>
    <_>
      1.43564358e-01 9.15841535e-02 9.15841535e-02 1.11386135e-01
      9.40594077e-02 1.18811876e-01 1.01485148e-01 5.94059378e-02
      8.91089067e-02 9.90099013e-02</_>
    <_>
      1.40287772e-01 1.34892091e-01 6.83453232e-02 1.27697840e-01
      7.55395666e-02 5.03597148e-02 1.33093521e-01 3.05755399e-02
      1.15107916e-01 1.24100722e-01</_>
    <_>
      1.25000000e-01 1.34615391e-01 9.13461596e-02 6.73076957e-02
      5.28846160e-02 7.21153840e-02 1.29807696e-01 7.69230798e-02
      1.25000000e-01 1.25000000e-01</_>
    <_>
      1.03953145e-01 1.52269393e-01 5.56368977e-02 1.21522695e-01
      8.63836035e-02 6.88140541e-02 1.05417274e-01 5.85651547e-02
      1.14202052e-01 1.33235723e-01</_>
    <_>
      3.69649790e-02 9.33852121e-02 1.43968865e-01 1.69260696e-01
      1.82879373e-01 9.53307375e-02 6.03112839e-02 1.12840466e-01
      5.44747077e-02 5.05836569e-02</_>
    <_>
      1.44927531e-01 6.88405782e-02 1.81159414e-02 6.52173907e-02
      6.15942031e-02 1.05072469e-01 1.52173921e-01 5.43478280e-02
      1.26811594e-01 2.02898562e-01</_>
    <_>
      1.65181413e-01 2.48249508e-02 6.14258423e-02 1.68682355e-02
      9.83449966e-02 6.58816025e-02 1.75047725e-01 3.15085910e-02
      1.84914052e-01 1.76002532e-01</_>
    <_>
      1.21212125e-01 1.56177163e-01 8.85780901e-02 1.32867143e-01
      1.30536139e-01 3.49650346e-02 1.09557115e-01 5.36130555e-02
      9.09090936e-02 8.15850869e-02</_>
    <_>
      1.01973683e-01 1.41447365e-01 4.27631587e-02 1.77631587e-01
      8.22368413e-02 1.05263159e-01 1.01973683e-01 4.27631587e-02
      1.08552635e-01 9.53947380e-02</_>
    <_>
      7.79220760e-02 3.24675322e-01 1.29870130e-02 1.88311681e-01
      1.29870130e-02 6.49350658e-02 1.03896104e-01 3.89610380e-02
      9.09090936e-02 8.44155848e-02</_>
    <_>
      8.53658468e-02 3.04878026e-01 4.06504050e-03 3.00812989e-01
      2.84552835e-02 4.06504050e-02 1.21951215e-01 1.62601620e-02
      5.28455265e-02 4.47154455e-02</_>
    <_>
      7.69230798e-02 1.68498173e-01 7.69230798e-02 2.12454215e-01
      1.39194146e-01 6.22710623e-02 1.39194146e-01 1.46520147e-02
      5.12820520e-02 5.86080588e-02</_>
    <_>
      1.22727267e-01 1.86363637e-01 2.27272715e-02 1.31818175e-01
      6.36363626e-02 6.81818128e-02 1.04545452e-01 6.81818128e-02
      9.54545438e-02 1.36363626e-01</_>
    <_>
      1.22877933e-01 1.15602262e-01 6.95230365e-02 1.25303149e-01
      9.29668546e-02 1.11560225e-01 1.11560225e-01 5.65885194e-02
      9.78173018e-02 9.62004885e-02</_>
    <_>
      1.30742043e-01 1.37809187e-01 9.18727890e-02 1.20141342e-01
      1.20141342e-01 9.54063609e-02 9.18727890e-02 2.82685515e-02
      8.83392245e-02 9.54063609e-02</_>
    <_>
      1.47353366e-01 1.33047208e-01 1.03004292e-01 9.87124518e-02
      1.15879834e-01 4.57796864e-02 1.24463521e-01 4.72103022e-02
      7.86838382e-02 1.05865523e-01</_>
    <_>
      5.28455265e-02 2.80487806e-01 2.43902430e-02 2.84552842e-01
      4.06504050e-03 8.94308910e-02 6.09756075e-02 7.72357732e-02
      7.31707290e-02 5.28455265e-02</_>
    <_>
      6.53658509e-02 2.38048777e-01 6.92682937e-02 1.66829273e-01
      6.82926849e-02 1.14146344e-01 6.73170760e-02 8.48780498e-02
      6.73170760e-02 5.85365854e-02</_>
    <_>
      1.14790291e-01 1.01545252e-01 4.19426039e-02 1.05960265e-01
      7.28476793e-02 8.83002207e-02 1.47902876e-01 7.50551894e-02
      1.28035322e-01 1.23620309e-01</_>
    <_>
      1.23142257e-01 7.85562694e-02 6.15711287e-02 1.01910830e-01
      7.43099824e-02 1.01910830e-01 1.33757964e-01 8.06794092e-02
      1.14649691e-01 1.29511684e-01</_>
    <_>
      1.33079842e-01 2.31939167e-01 3.80228125e-02 2.77566552e-01
      4.94296588e-02 1.52091254e-02 9.50570330e-02 1.52091254e-02
      6.46387860e-02 7.98479095e-02</_>
    <_>
      1.24271847e-01 1.86407775e-01 9.70873795e-03 2.05825254e-01
      6.21359237e-02 6.01941757e-02 1.14563107e-01 1.94174759e-02
      1.02912627e-01 1.14563107e-01</_>
    <_>
      6.54911846e-02 1.08312339e-01 1.10831231e-01 1.58690169e-01
      1.43576816e-01 7.55667463e-02 8.56423154e-02 6.80100694e-02
      9.19395462e-02 9.19395462e-02</_>
    <_>
      9.95024890e-02 1.09452732e-01 1.04477607e-01 1.06965169e-01
      1.36815920e-01 1.06965169e-01 8.95522386e-02 5.22388034e-02
      9.70149264e-02 9.70149264e-02</_>
    <_>
      6.83060065e-02 9.01639313e-02 5.46448082e-02 9.56284106e-02
      1.33879781e-01 1.33879781e-01 8.46994519e-02 6.28415272e-02
      1.39344260e-01 1.36612013e-01</_>
    <_>
      1.25510201e-01 8.97959173e-02 7.44897947e-02 1.27551019e-01
      5.91836721e-02 9.59183648e-02 1.16326526e-01 5.91836721e-02
      1.21428564e-01 1.30612239e-01</_>
    <_>
      1.13689095e-01 9.04872343e-02 7.88863078e-02 9.04872343e-02
      1.27610207e-01 8.43000710e-02 1.26836807e-01 5.72312437e-02
      1.16009280e-01 1.14462487e-01</_>
    <_>
      1.40035912e-01 7.89946169e-02 4.84739691e-02 7.89946169e-02
      8.25852826e-02 1.05924599e-01 1.23877920e-01 7.18132854e-02
      1.27468586e-01 1.41831249e-01</_>
    <_>
      1.45263150e-01 1.57894731e-01 6.31578937e-02 1.38947368e-01
      6.73684180e-02 5.47368377e-02 1.19999997e-01 5.26315756e-02
      1.11578941e-01 8.84210467e-02</_>
    <_>
      1.30268201e-01 1.37931034e-01 1.30268201e-01 1.11111112e-01
      1.41762450e-01 4.98084277e-02 1.14942528e-01 3.83141749e-02
      7.66283497e-02 6.89655170e-02</_>
    <_>
      1.18131869e-01 1.56593412e-01 8.51648375e-02 1.09890111e-01
      7.41758272e-02 1.04395606e-01 9.34065953e-02 6.59340695e-02
      8.51648375e-02 1.07142858e-01</_>
    <_>
      9.77272689e-02 5.68181798e-02 1.02272727e-01 8.40909034e-02
      1.06818177e-01 3.86363640e-02 9.99999940e-02 1.86363637e-01
      1.06818177e-01 1.20454542e-01</_>
    <_>
      9.45494920e-02 1.19021133e-01 9.56618413e-02 1.06785312e-01
      1.09010004e-01 1.05672963e-01 9.56618413e-02 8.12013298e-02
      1.03448272e-01 8.89877602e-02</_>
    <_>
      8.85885879e-02 7.50750750e-02 2.62762755e-01 6.75675720e-02
      1.54654652e-01 5.55555560e-02 5.85585609e-02 6.75675720e-02
      9.30930972e-02 7.65765756e-02</_>
    <_>
      7.44680837e-02 1.40425533e-01 5.74468076e-02 1.06382973e-01
      9.99999940e-02 1.36170208e-01 9.78723392e-02 7.23404214e-02
      1.04255319e-01 1.10638291e-01</_>
    <_>
      1.17469877e-01 1.80722892e-01 4.21686731e-02 1.89759031e-01
      2.71084327e-02 7.83132464e-02 7.83132464e-02 5.12048155e-02
      9.63855386e-02 1.38554215e-01</_>
    <_>
      8.28924105e-02 1.26984119e-01 6.52557313e-02 1.79894179e-01
      6.87830672e-02 8.64197537e-02 1.00529097e-01 7.76014104e-02
      1.14638448e-01 9.70017612e-02</_>
    <_>
      8.95295888e-02 1.71471924e-01 8.64946917e-02 1.45675272e-01
      7.43550807e-02 1.12291351e-01 8.34597871e-02 3.94537188e-02
      8.80121365e-02 1.09256446e-01</_>
    <_>
      1.29890457e-01 1.01721436e-01 7.19874799e-02 1.81533650e-01
      8.76369327e-02 7.66823143e-02 1.29890457e-01 5.00782467e-02
      9.70266014e-02 7.35524222e-02</_>
    <_>
      1.80371344e-01 1.19363390e-01 3.71352769e-02 1.22015916e-01
      8.48806351e-02 3.71352769e-02 1.85676396e-01 5.57029173e-02
      1.06100798e-01 7.16180354e-02</_>
    <_>
      1.14068441e-01 8.74524713e-02 1.29277572e-01 6.59062117e-02
      1.08998731e-01 1.22940429e-01 7.98479095e-02 7.73130506e-02
      1.07731305e-01 1.06463879e-01</_>
    <_>
      1.14613183e-01 6.30372539e-02 4.87106033e-02 6.01719208e-02
      1.00286536e-01 1.43266484e-01 1.00286536e-01 1.08882524e-01
      1.34670496e-01 1.26074508e-01</_>
    <_>
      9.50520858e-02 1.60156250e-01 6.38020858e-02 1.27604172e-01
      1.02864586e-01 8.98437500e-02 1.01562500e-01 6.77083358e-02
      8.59375000e-02 1.05468750e-01</_>
    <_>
      9.48453620e-02 1.19587630e-01 4.74226810e-02 1.01030931e-01
      1.13402069e-01 1.34020627e-01 1.01030931e-01 6.59793839e-02
      1.15463920e-01 1.07216500e-01</_>
    <_>
      6.53357506e-02 1.74228668e-01 8.80217776e-02 1.66969150e-01
      9.98185128e-02 1.10707805e-01 7.25952834e-02 1.16152450e-01
      4.80943732e-02 5.80762252e-02</_>
    <_>
      8.52272734e-02 9.46969688e-02 9.28030312e-02 6.62878826e-02
      8.90151560e-02 1.64772734e-01 8.33333358e-02 5.87121248e-02
      1.23106062e-01 1.42045453e-01</_>
    <_>
      1.13669060e-01 1.38129503e-01 1.84172660e-01 7.05035999e-02
      1.64028779e-01 4.89208624e-02 1.02158271e-01 3.88489217e-02
      6.90647513e-02 7.05035999e-02</_>
    <_>
      1.16099067e-01 1.11455105e-01 8.51393193e-02 1.37770891e-01
      1.19195044e-01 7.12074265e-02 1.11455105e-01 4.79876138e-02
      1.03715166e-01 9.59752277e-02</_>
    <_>
      8.39778930e-02 7.73480609e-02 1.76795572e-01 8.95027593e-02
      1.54696122e-01 9.06077325e-02 7.95580074e-02 9.61325914e-02
      6.96132556e-02 8.17679539e-02</_>
    <_>
      1.03789121e-01 5.84843494e-02 3.54200974e-02 5.35420105e-02
      5.76606244e-02 1.26029655e-01 9.47281718e-02 2.29818776e-01
      1.22734755e-01 1.17792420e-01</_>
    <_>
      1.12688556e-01 9.31677073e-02 5.41259982e-02 1.71251118e-01
      1.09139308e-01 1.02928132e-01 1.09139308e-01 7.63087869e-02
      8.60692114e-02 8.51818994e-02</_>
    <_>
      1.22950815e-01 1.99453548e-01 4.09836061e-02 1.53005466e-01
      5.46448082e-02 8.46994519e-02 9.01639313e-02 4.37158458e-02
      1.12021856e-01 9.83606502e-02</_>
    <_>
      1.39618143e-01 5.66825792e-02 6.02625310e-02 4.83293571e-02
      8.89021531e-02 1.08591892e-01 1.62887841e-01 5.36992848e-02
      1.44391418e-01 1.36634856e-01</_>
    <_>
      8.25082511e-02 1.36963695e-01 2.97029708e-02 1.53465346e-01
      5.94059415e-02 1.45214528e-01 9.57095772e-02 8.25082511e-02
      1.13861389e-01 1.00660071e-01</_>
    <_>
      4.05904055e-02 1.34071335e-01 3.07503063e-02 8.24108198e-02
      3.56703550e-02 1.19311191e-01 4.18204181e-02 2.58302577e-02
      2.43542433e-01 2.46002451e-01</_>
    <_>
      9.27487388e-02 1.41652614e-01 4.72175404e-02 1.13827996e-01
      9.02192220e-02 1.22259699e-01 1.15514338e-01 7.75716677e-02
      9.35919061e-02 1.05396293e-01</_>
    <_>
      6.98689967e-02 1.16448328e-01 9.60698724e-02 9.46142673e-02
      1.55749634e-01 1.35371178e-01 8.29694346e-02 7.56914169e-02
      7.56914169e-02 9.75254774e-02</_>
    <_>
      1.03666246e-01 9.48166922e-02 3.41340080e-02 9.86093581e-02
      4.42477874e-02 9.86093581e-02 9.98735800e-02 2.57901400e-01
      9.73451361e-02 7.07964599e-02</_>
    <_>
      1.53664306e-01 1.39479905e-01 3.30969281e-02 1.18203312e-01
      9.21985805e-02 7.32860491e-02 1.86761230e-01 1.65484641e-02
      9.45626497e-02 9.21985805e-02</_>
    <_>
      9.76744145e-02 1.93023250e-01 5.11627905e-02 1.69767439e-01
      6.51162788e-02 8.83720964e-02 1.00000001e-01 4.65116277e-02
      1.04651161e-01 8.37209299e-02</_>
    <_>
      1.25000000e-01 9.05172378e-02 5.89080453e-02 8.47701132e-02
      8.90804604e-02 1.23563215e-01 1.09195404e-01 7.75862038e-02
      1.12068966e-01 1.29310340e-01</_>
    <_>
      2.67379671e-01 8.02139044e-02 2.85204984e-02 4.99108732e-02
      4.81283404e-02 7.84313679e-02 2.67379671e-01 6.77361861e-02
      5.16934022e-02 6.06060587e-02</_>
    <_>
      8.80361199e-02 1.80586904e-01 3.38600464e-02 2.23476306e-01
      6.32054210e-02 1.08352147e-01 6.77200928e-02 4.28893901e-02
      1.01580136e-01 9.02934521e-02</_>
    <_>
      1.42351910e-01 1.25552610e-01 5.74712642e-02 1.16710879e-01
      7.16180354e-02 4.77453582e-02 1.38815209e-01 4.59770113e-02
      1.23784266e-01 1.29973471e-01</_>
    <_>
      1.01519749e-01 1.37386009e-01 7.96352550e-02 1.06990874e-01
      9.96960476e-02 1.00911848e-01 1.02735557e-01 8.32826719e-02
      9.90881398e-02 8.87537971e-02</_>
    <_>
      1.24236256e-01 1.04887992e-01 5.49898185e-02 1.17107950e-01
      6.31364584e-02 1.38492882e-01 9.06313658e-02 7.12831020e-02
      1.22199595e-01 1.13034628e-01</_>
    <_>
      8.16326514e-02 2.34693870e-01 3.57142836e-02 1.17346935e-01
      1.17346935e-01 1.02040812e-01 9.69387740e-02 5.61224483e-02
      7.65306130e-02 8.16326514e-02</_>
    <_>
      1.62162170e-01 1.35135144e-01 2.70270277e-02 8.10810849e-02
      2.70270277e-02 8.10810849e-02 1.89189196e-01 1.08108111e-01
      1.62162170e-01 2.70270277e-02</_>
    <_>
      1.16071433e-01 5.35714328e-02 4.46428582e-02 1.78571433e-01
      7.14285746e-02 1.25000000e-01 1.07142866e-01 5.35714328e-02
      1.25000000e-01 1.25000000e-01</_>
    <_>
      6.06653616e-02 8.70841444e-02 2.01565564e-01 1.36986300e-01
      1.58512712e-01 5.96868880e-02 8.02348331e-02 4.79452051e-02
      7.43639916e-02 9.29549932e-02</_>
    <_>
      1.05895199e-01 7.96943232e-02 5.34934513e-02 8.84279460e-02
      1.06986903e-01 1.47379920e-01 1.27729267e-01 6.65938854e-02
      1.16812229e-01 1.06986903e-01</_>
    <_>
      5.18018045e-02 1.89189196e-01 5.18018045e-02 2.45495498e-01
      5.85585609e-02 6.30630627e-02 7.20720738e-02 1.01351351e-01
      8.78378376e-02 7.88288340e-02</_>
    <_>
      9.30232555e-02 2.09302321e-01 5.98006621e-02 1.81063116e-01
      8.13953504e-02 8.47176090e-02 9.46843848e-02 8.80398676e-02
      6.31229207e-02 4.48504984e-02</_>
    <_>
      1.89999998e-01 7.00000003e-02 1.49999991e-01 9.99999978e-03
      9.99999940e-02 1.99999996e-02 1.29999995e-01 9.99999978e-03
      1.70000002e-01 1.49999991e-01</_>
    <_>
      1.19496852e-01 1.00628927e-01 5.66037707e-02 1.32075474e-01
      3.14465389e-02 7.54716992e-02 1.25786155e-01 1.00628927e-01
      1.25786155e-01 1.32075474e-01</_>
    <_>
      1.27272725e-01 7.63636380e-02 6.36363626e-02 6.63636401e-02
      1.05454549e-01 1.23636365e-01 1.33636370e-01 1.30909085e-01
      9.18181837e-02 8.09090883e-02</_>
    <_>
      9.59349573e-02 9.99999940e-02 7.80487806e-02 9.34959352e-02
      1.32520318e-01 1.13008127e-01 9.99999940e-02 7.31707290e-02
      9.91869867e-02 1.14634141e-01</_>
    <_>
      1.81818187e-01 1.36363640e-01 2.27272734e-01 1.36363640e-01 0. 0.
      1.36363640e-01 0. 1.36363640e-01 4.54545468e-02</_>
    <_>
      1.34680137e-01 8.75420868e-02 5.55555560e-02 7.32323229e-02
      7.49158263e-02 1.06060602e-01 1.27104372e-01 6.81818202e-02
      1.29629627e-01 1.43097639e-01</_>
    <_>
      1.21951222e-01 7.69230798e-02 2.06378996e-02 6.37898669e-02
      5.06566614e-02 1.20075047e-01 9.56848040e-02 4.50281426e-02
      2.23264545e-01 1.81988746e-01</_>
    <_>
      6.77540749e-02 1.98243409e-01 1.49309903e-01 1.90715179e-01
      8.90840665e-02 7.02634901e-02 6.39899597e-02 6.52446672e-02
      5.39523214e-02 5.14429100e-02</_>
    <_>
      1.50870413e-01 1.45067707e-01 6.76982626e-02 8.51063877e-02
      8.51063877e-02 4.83558998e-02 1.27659574e-01 5.41586094e-02
      1.29593819e-01 1.06382981e-01</_>
    <_>
      1.52647972e-01 4.67289686e-02 7.16510862e-02 9.34579372e-02
      8.09968859e-02 9.03426781e-02 1.18380055e-01 6.85358196e-02
      1.33956388e-01 1.43302172e-01</_>
    <_>
      1.27093598e-01 1.29064038e-01 4.82758619e-02 8.96551758e-02
      6.69950768e-02 1.10344827e-01 1.22167490e-01 5.81280813e-02
      1.23152710e-01 1.25123158e-01</_>
    <_>
      1.42378554e-01 9.54773873e-02 4.18760478e-02 1.70854270e-01
      9.21273008e-02 6.03015050e-02 1.18927971e-01 4.02010046e-02
      1.10552765e-01 1.27303183e-01</_>
    <_>
      1.10481583e-01 9.44287032e-02 5.19357882e-02 9.91501436e-02
      1.06704436e-01 7.08215311e-02 1.20868742e-01 5.66572249e-02
      1.47308782e-01 1.41643062e-01</_>
    <_>
      8.72210935e-02 1.62271798e-01 6.08519241e-02 1.54158205e-01
      1.15618661e-01 6.89655170e-02 1.05476670e-01 7.50507116e-02
      9.33062881e-02 7.70791024e-02</_>
    <_>
      9.76702496e-02 1.08422942e-01 1.20967738e-01 9.94623676e-02
      1.35304660e-01 9.58781391e-02 9.58781391e-02 7.88530484e-02
      8.87096748e-02 7.88530484e-02</_>
    <_>
      4.49827015e-02 1.21107273e-01 5.53633235e-02 1.55709341e-01
      8.99654031e-02 1.66089967e-01 7.26643652e-02 1.31487891e-01
      1.14186853e-01 4.84429076e-02</_>
    <_>
      1.19182751e-01 6.46992102e-02 1.13507383e-01 5.22133969e-02
      1.38479009e-01 1.16912603e-01 1.16912603e-01 7.03745782e-02
      1.08967088e-01 9.87514257e-02</_>
    <_>
      8.38150233e-02 2.25433528e-01 8.23699385e-02 1.97976872e-01
      6.50288984e-02 5.78034669e-02 8.09248537e-02 4.19075117e-02
      8.81502852e-02 7.65895918e-02</_>
    <_>
      1.45009413e-01 1.09227873e-01 6.77966103e-02 8.09792802e-02
      1.82674199e-01 3.76647823e-02 1.52542368e-01 1.12994350e-02
      1.09227873e-01 1.03578150e-01</_>
    <_>
      1.50485441e-01 1.69902921e-01 7.44336620e-02 9.87055078e-02
      1.19741105e-01 6.14886768e-02 1.40776709e-01 3.23624611e-02
      8.25242773e-02 6.95792884e-02</_>
    <_>
      1.38528138e-01 9.95671004e-02 4.76190485e-02 9.52380970e-02
      4.32900414e-02 1.16883114e-01 1.51515156e-01 7.35930726e-02
      1.34199128e-01 9.95671004e-02</_>
    <_>
      1.57894731e-01 2.10526317e-01 2.63157897e-02 1.75438598e-01
      8.77192989e-03 7.01754391e-02 1.31578952e-01 5.26315793e-02
      1.05263159e-01 6.14035092e-02</_>
    <_>
      1.30597010e-01 1.41791046e-01 2.61194017e-02 1.56716421e-01
      4.85074632e-02 8.95522386e-02 1.19402982e-01 2.98507456e-02
      1.15671642e-01 1.41791046e-01</_>
    <_>
      1.38025597e-01 9.23217610e-02 5.94149940e-02 7.12979883e-02
      1.11517370e-01 1.03290677e-01 1.36197448e-01 7.31261447e-02
      1.11517370e-01 1.03290677e-01</_>
    <_>
      1.51271746e-01 1.04417667e-01 2.67737620e-02 9.10307914e-02
      5.62248975e-02 4.01606411e-02 1.52610436e-01 3.48058902e-02
      1.61981255e-01 1.80722892e-01</_>
    <_>
      1.41958669e-01 7.09793344e-02 4.76190485e-02 1.06918238e-01
      9.88319889e-02 7.45732263e-02 1.41958669e-01 6.46900311e-02
      1.17699914e-01 1.34770885e-01</_>
    <_>
      8.92494917e-02 1.92697763e-01 6.89655170e-02 1.44016221e-01
      8.31642970e-02 9.12778899e-02 6.69371188e-02 5.88235296e-02
      1.03448272e-01 1.01419874e-01</_>
    <_>
      1.06518283e-01 1.46263912e-01 7.15421289e-02 1.54213041e-01
      7.47217834e-02 7.31319562e-02 1.17647059e-01 1.00158982e-01
      6.51828274e-02 9.06200334e-02</_>
    <_>
      1.92886472e-01 6.63474724e-02 3.41997296e-02 7.31874183e-02
      5.47195636e-02 8.96032900e-02 2.04514369e-01 7.18194321e-02
      1.14227094e-01 9.84952152e-02</_>
    <_>
      1.04651161e-01 1.74418598e-01 6.64451793e-02 1.32890359e-01
      8.13953504e-02 6.64451793e-02 1.29568100e-01 4.15282398e-02
      9.96677727e-02 1.02990031e-01</_>
    <_>
      1.83962271e-01 4.71698120e-02 2.35849060e-02 5.18867932e-02
      1.27358496e-01 6.13207556e-02 1.32075474e-01 9.43396240e-02
      1.50943398e-01 1.27358496e-01</_>
    <_>
      1.36574075e-01 1.33101851e-01 4.86111119e-02 1.36574075e-01
      1.00694448e-01 9.25925970e-02 1.19212963e-01 5.20833321e-02
      8.68055597e-02 9.37500000e-02</_>
    <_>
      7.11297020e-02 3.09623420e-01 4.60251048e-02 3.22175711e-01
      5.02092019e-02 2.09205020e-02 5.43933026e-02 4.18410031e-03
      5.02092019e-02 7.11297020e-02</_>
    <_>
      1.18712269e-01 6.03621714e-02 7.64587522e-02 6.23742417e-02
      7.84708187e-02 1.30784705e-01 1.12676054e-01 1.08651906e-01
      1.40845060e-01 1.10663980e-01</_>
    <_>
      8.72274116e-02 9.96884704e-02 8.09968859e-02 1.02803737e-01
      1.15264796e-01 9.96884704e-02 9.96884704e-02 5.91900274e-02
      1.30841121e-01 1.24610588e-01</_>
    <_>
      1.04501605e-01 2.29903534e-01 5.14469445e-02 1.81672022e-01
      7.71704167e-02 6.75241128e-02 8.68167207e-02 5.62700965e-02
      7.55627006e-02 6.91318288e-02</_>
    <_>
      1.01412073e-01 8.21566135e-02 1.03979461e-01 9.11424905e-02
      1.38639286e-01 1.33504495e-01 8.34403113e-02 9.62772816e-02
      8.34403113e-02 8.60077068e-02</_>
    <_>
      1.36729226e-01 1.15281507e-01 6.16622008e-02 1.26005366e-01
      8.84718522e-02 7.50670284e-02 1.47453085e-01 5.89812361e-02
      8.84718522e-02 1.01876676e-01</_>
    <_>
      9.56873298e-02 1.19946092e-01 7.14285672e-02 1.61725059e-01
      8.35579485e-02 9.70350355e-02 1.10512130e-01 7.41239861e-02
      9.97304544e-02 8.62533674e-02</_>
    <_>
      9.18032825e-02 1.93442628e-01 1.14754096e-01 9.18032825e-02
      9.18032825e-02 8.52458999e-02 9.18032825e-02 6.55737668e-02
      7.21311495e-02 1.01639345e-01</_>
    <_>
      4.83539067e-02 1.46090537e-01 1.69753075e-01 1.04938269e-01
      2.11934149e-01 8.33333284e-02 6.48148134e-02 4.52674888e-02
      7.09876493e-02 5.45267463e-02</_>
    <_>
      1.11111112e-01 1.72413796e-01 3.83141749e-02 1.37931034e-01
      8.42911825e-02 6.51341006e-02 1.07279688e-01 1.07279688e-01
      9.57854390e-02 8.04597661e-02</_>
    <_>
      8.93550888e-02 1.85703188e-01 8.93550888e-02 7.53690749e-02
      1.25874132e-01 8.31390843e-02 1.08003110e-01 4.19580415e-02
      9.71250981e-02 1.04118109e-01</_>
    <_>
      7.26495758e-02 1.00854702e-01 7.00854734e-02 1.40170947e-01
      8.11965838e-02 1.87179491e-01 6.75213709e-02 1.63247868e-01
      6.92307726e-02 4.78632487e-02</_>
    <_>
      1.32142857e-01 1.10714287e-01 3.92857157e-02 1.07142858e-01
      6.78571463e-02 9.64285731e-02 1.17857143e-01 6.07142858e-02
      1.35714293e-01 1.32142857e-01</_>
    <_>
      1.49281710e-01 4.05996256e-02 4.87195514e-02 7.80762061e-02
      9.61898863e-02 9.11930054e-02 1.47407874e-01 4.80949432e-02
      1.53029367e-01 1.47407874e-01</_>
    <_>
      1.34575576e-01 1.51138723e-01 4.96894419e-02 1.78053826e-01
      6.62525892e-02 6.41821921e-02 9.31677073e-02 5.79710156e-02
      1.03519671e-01 1.01449281e-01</_>
    <_>
      1.54094130e-01 8.38168859e-02 5.22243679e-02 5.35138622e-02
      9.09090862e-02 7.54351988e-02 1.48936167e-01 3.67504805e-02
      1.61186323e-01 1.43133461e-01</_>
    <_>
      1.34479269e-01 1.00101113e-01 6.67340755e-02 9.50454995e-02
      9.20121372e-02 9.40343812e-02 1.26390293e-01 4.95449975e-02
      1.13245703e-01 1.28412545e-01</_>
    <_>
      1.10294119e-01 1.67279407e-01 6.61764741e-02 1.17647059e-01
      7.53676444e-02 5.33088222e-02 1.12132356e-01 6.98529407e-02
      1.30514711e-01 9.74264741e-02</_>
    <_>
      1.28603101e-01 9.83000696e-02 7.98226148e-02 6.06060587e-02
      1.23429418e-01 6.13451600e-02 1.27124906e-01 4.21286039e-02
      1.42645970e-01 1.35994092e-01</_>
    <_>
      7.96460211e-02 1.10619470e-01 4.64601777e-02 1.30530968e-01
      6.41592890e-02 1.88053101e-01 6.41592890e-02 1.46017700e-01
      7.96460211e-02 9.07079652e-02</_>
    <_>
      1.57575756e-01 9.69696939e-02 5.45454547e-02 8.48484784e-02
      9.69696939e-02 7.27272704e-02 9.69696939e-02 3.63636352e-02
      1.45454541e-01 1.57575756e-01</_>
    <_>
      1.11111119e-01 2.22222239e-01 5.55555597e-02 1.66666672e-01
      9.52381045e-02 5.55555597e-02 7.93650821e-02 6.34920672e-02
      8.73015895e-02 6.34920672e-02</_>
    <_>
      8.55539963e-02 1.15007013e-01 5.89060299e-02 1.92145854e-01
      7.29312748e-02 9.53716710e-02 1.03786819e-01 9.53716710e-02
      9.95792449e-02 8.13464224e-02</_>
    <_>
      7.69230798e-02 1.89010993e-01 6.15384653e-02 2.15384632e-01
      5.05494513e-02 8.35164860e-02 7.47252777e-02 4.83516492e-02
      1.16483524e-01 8.35164860e-02</_>
    <_>
      1.36231884e-01 7.82608688e-02 4.92753647e-02 6.08695671e-02
      1.13043480e-01 1.01449281e-01 1.47826090e-01 7.82608688e-02
      1.24637686e-01 1.10144928e-01</_>
    <_>
      6.73575103e-02 3.26424867e-01 3.10880821e-02 2.17616573e-01
      6.21761642e-02 8.29015523e-02 5.69948182e-02 5.69948182e-02
      4.14507762e-02 5.69948182e-02</_>
    <_>
      1.81271747e-01 2.91047134e-02 3.44827585e-02 4.30243574e-02
      8.25688094e-02 7.02309385e-02 1.79373622e-01 4.71369810e-02
      1.62290409e-01 1.70515656e-01</_>
    <_>
      1.00628935e-01 1.77897573e-01 5.84007204e-02 1.43755615e-01
      8.98472592e-02 8.80503133e-02 8.17610100e-02 7.90655911e-02
      8.44564289e-02 9.61365700e-02</_>
    <_>
      1.18457302e-01 8.33333358e-02 6.12947680e-02 7.50688687e-02
      1.21212125e-01 8.81542712e-02 1.15702480e-01 5.30303046e-02
      1.43939391e-01 1.39807165e-01</_>
    <_>
      8.25335905e-02 9.11708251e-02 7.58157372e-02 7.29366615e-02
      1.38195768e-01 2.09213048e-01 9.59692895e-02 7.19769672e-02
      7.77351260e-02 8.44529718e-02</_>
    <_>
      1.15620218e-01 1.49310872e-01 1.01837672e-01 4.82388996e-02
      1.17917307e-01 6.66156188e-02 1.19448699e-01 4.13476266e-02
      1.23277187e-01 1.16385914e-01</_>
    <_>
      1.07959025e-01 1.29235625e-01 5.51615432e-02 1.22143418e-01
      1.00078799e-01 1.12687156e-01 8.98345187e-02 8.66824239e-02
      1.01654850e-01 9.45626497e-02</_>
    <_>
      1.84313729e-01 6.27451017e-02 8.82352963e-02 9.21568647e-02
      9.41176564e-02 6.27451017e-02 1.88235313e-01 3.52941193e-02
      9.60784405e-02 9.60784405e-02</_>
    <_>
      1.38666660e-01 1.40000001e-01 3.46666649e-02 1.87999994e-01
      1.59999989e-02 7.59999976e-02 1.54666662e-01 4.53333333e-02
      1.06666669e-01 1.00000001e-01</_>
    <_>
      1.44161776e-01 4.30528373e-02 7.17547312e-02 2.47879978e-02
      1.03718199e-01 8.67579952e-02 1.56555772e-01 3.71819958e-02
      1.65688202e-01 1.66340515e-01</_>
    <_>
      1.24392614e-01 6.60835728e-02 1.45772593e-02 1.10787168e-01
      4.08163257e-02 1.34110793e-01 1.25364438e-01 9.52380970e-02
      1.35082603e-01 1.53547138e-01</_>
    <_>
      1.34426236e-01 3.93442623e-02 6.55737668e-02 8.52458999e-02
      1.04918033e-01 8.52458999e-02 1.57377049e-01 7.86885247e-02
      1.27868846e-01 1.21311478e-01</_>
    <_>
      9.78260860e-02 2.50000000e-01 3.80434804e-02 2.44565219e-01
      8.15217420e-02 3.80434804e-02 4.34782617e-02 2.71739140e-02
      1.03260875e-01 7.60869607e-02</_>
    <_>
      1.07816711e-01 1.11859836e-01 4.44743931e-02 1.38814017e-01
      6.73854426e-02 1.44204855e-01 1.49595678e-01 6.73854426e-02
      8.49056616e-02 8.35579485e-02</_>
    <_>
      7.27272704e-02 1.31818175e-01 3.18181813e-02 1.88636363e-01
      6.13636337e-02 1.02272727e-01 8.18181783e-02 1.56818181e-01
      9.77272689e-02 7.49999955e-02</_>
    <_>
      1.03926100e-01 1.27020791e-01 1.24711312e-01 8.54503438e-02
      1.59353346e-01 6.46651238e-02 9.46882218e-02 6.00461885e-02
      9.69976932e-02 8.31408799e-02</_>
    <_>
      1.50812060e-01 7.65661225e-02 7.65661225e-02 5.80046400e-02
      1.32250577e-01 7.42459372e-02 1.53132245e-01 5.80046400e-02
      1.16009280e-01 1.04408346e-01</_>
    <_>
      1.04199067e-01 1.75738722e-01 5.28771393e-02 1.44634530e-01
      6.68740273e-02 8.24261308e-02 1.07309490e-01 6.84292391e-02
      9.33125988e-02 1.04199067e-01</_>
    <_>
      8.18253383e-02 1.53422505e-01 1.03068449e-01 1.38473645e-01
      1.10149488e-01 9.36270654e-02 8.18253383e-02 8.65460262e-02
      7.86782056e-02 7.23839477e-02</_>
    <_>
      9.87654328e-02 2.28395060e-01 4.62962985e-02 1.14197530e-01
      5.86419776e-02 7.71604925e-02 1.38888896e-01 4.62962985e-02
      1.08024694e-01 8.33333358e-02</_>
    <_>
      9.77917984e-02 1.38801262e-01 2.83911675e-02 1.38801262e-01
      5.67823350e-02 1.19873822e-01 1.04100950e-01 7.57097825e-02
      1.38801262e-01 1.00946374e-01</_>
    <_>
      8.15217420e-02 2.01086953e-01 3.80434804e-02 2.55434781e-01
      2.17391308e-02 6.52173907e-02 6.52173907e-02 9.23913047e-02
      9.23913047e-02 8.69565234e-02</_>
    <_>
      7.76942372e-02 1.87969923e-01 6.01503775e-02 2.10526317e-01
      4.51127812e-02 7.51879662e-02 7.51879662e-02 1.15288220e-01
      7.01754391e-02 8.27067643e-02</_>
    <_>
      9.17197466e-02 9.29936320e-02 6.49681538e-02 8.40764344e-02
      1.33757964e-01 1.24840766e-01 1.14649683e-01 1.05732486e-01
      9.93630588e-02 8.78980905e-02</_>
    <_>
      1.05555557e-01 1.29629627e-01 7.59259239e-02 1.18518516e-01
      9.62962955e-02 5.74074052e-02 9.62962955e-02 3.33333313e-02
      1.49999991e-01 1.37037039e-01</_>
    <_>
      1.62995592e-01 9.47136506e-02 3.74449342e-02 7.04845786e-02
      1.21145368e-01 6.60792887e-02 1.69603512e-01 1.76211447e-02
      1.45374447e-01 1.14537440e-01</_>
    <_>
      1.12546124e-01 1.52214020e-01 7.19557181e-02 1.32841334e-01
      1.02398522e-01 8.85608867e-02 1.30073801e-01 6.08856082e-02
      7.74907768e-02 7.10332096e-02</_>
    <_>
      9.37781781e-02 6.22182153e-02 8.74661878e-02 7.57439137e-02
      1.58701539e-01 9.37781781e-02 9.19747502e-02 8.20559040e-02
      1.28043279e-01 1.26239851e-01</_>
    <_>
      1.33016631e-01 6.80918470e-02 7.68012628e-02 9.10530463e-02
      9.97624695e-02 6.96753785e-02 1.47268414e-01 2.85035633e-02
      1.44101351e-01 1.41726047e-01</_>
    <_>
      9.32038873e-02 6.79611638e-02 8.93203914e-02 4.27184477e-02
      8.73786435e-02 9.32038873e-02 1.20388351e-01 8.34951475e-02
      1.61165059e-01 1.61165059e-01</_>
    <_>
      1.06611572e-01 8.18181783e-02 8.26446265e-02 6.44628108e-02
      1.74380168e-01 1.04132235e-01 1.40495867e-01 6.61156997e-02
      1.01652890e-01 7.76859522e-02</_>
    <_>
      1.55805245e-01 9.21348333e-02 3.89513113e-02 9.73782763e-02
      5.16853929e-02 1.12359554e-01 1.71535581e-01 7.49063641e-02
      9.58801508e-02 1.09363295e-01</_>
    <_>
      1.43915340e-01 7.93650821e-02 3.49206366e-02 8.88888910e-02
      5.92592582e-02 9.31216925e-02 1.54497355e-01 4.65608463e-02
      1.46031752e-01 1.53439149e-01</_>
    <_>
      2.17877090e-01 5.86592145e-02 1.25698317e-02 1.06145248e-01
      6.00558631e-02 5.16759753e-02 2.34636858e-01 5.16759753e-02
      1.18715078e-01 8.79888237e-02</_>
    <_>
      1.39931738e-01 5.85080460e-02 5.50950766e-02 7.80107230e-02
      8.77620652e-02 7.89858624e-02 1.37981474e-01 4.43686023e-02
      1.71136037e-01 1.48220375e-01</_>
    <_>
      1.38888896e-01 1.38888896e-01 7.05128238e-02 1.34615391e-01
      8.76068398e-02 6.41025677e-02 1.28205135e-01 4.48717959e-02
      1.00427352e-01 9.18803439e-02</_>
    <_>
      1.01214580e-01 1.51821867e-01 4.55465615e-02 1.25506073e-01
      5.76923080e-02 1.24493927e-01 9.81781408e-02 7.99595192e-02
      9.51417014e-02 1.20445348e-01</_>
    <_>
      8.33333358e-02 1.86507940e-01 5.15873060e-02 2.36111119e-01
      1.01190485e-01 4.96031791e-02 6.74603209e-02 7.34127015e-02
      6.94444478e-02 8.13492090e-02</_>
    <_>
      1.41924962e-01 1.82707995e-01 4.40456793e-02 1.64763466e-01
      9.13539976e-02 4.56769988e-02 1.20717779e-01 4.73083183e-02
      8.15660655e-02 7.99347460e-02</_>
    <_>
      1.27659574e-01 9.64538977e-02 1.04255319e-01 7.58865252e-02
      7.16312006e-02 6.45390078e-02 1.06382973e-01 2.83687934e-02
      1.53191477e-01 1.71631202e-01</_>
    <_>
      1.18870728e-01 5.37890047e-02 1.15898959e-01 5.11144139e-02
      1.34621099e-01 6.77563176e-02 1.26894504e-01 2.82317977e-02
      1.44725114e-01 1.58098072e-01</_>
    <_>
      8.77742916e-02 1.25391841e-01 7.83699006e-02 9.40438882e-02
      1.19122252e-01 5.64263314e-02 1.06583066e-01 4.07523513e-02
      1.50470212e-01 1.41065821e-01</_>
    <_>
      1.44097224e-01 1.31944448e-01 5.72916679e-02 7.11805597e-02
      1.09375000e-01 5.38194440e-02 1.64930552e-01 1.90972220e-02
      1.30208328e-01 1.18055560e-01</_>
    <_>
      1.27857149e-01 7.28571415e-02 5.21428548e-02 9.64285731e-02
      1.13571428e-01 8.92857164e-02 1.33571431e-01 3.57142836e-02
      1.39285713e-01 1.39285713e-01</_>
    <_>
      9.68421027e-02 1.22105256e-01 8.63157883e-02 1.70526311e-01
      9.68421027e-02 8.63157883e-02 7.78947324e-02 5.89473657e-02
      1.01052627e-01 1.03157893e-01</_>
    <_>
      1.18644066e-01 1.35593221e-01 3.38983051e-02 1.35593221e-01
      4.23728824e-02 7.62711838e-02 1.61016956e-01 8.47457647e-02
      8.47457647e-02 1.27118647e-01</_>
    <_>
      4.63576168e-02 2.71523178e-01 4.63576168e-02 1.85430467e-01
      4.63576168e-02 7.28476793e-02 6.62251636e-02 7.94702023e-02
      7.94702023e-02 1.05960265e-01</_>
    <_>
      1.47506565e-01 7.87401572e-02 6.19422570e-02 4.09448817e-02
      9.13385823e-02 8.66141766e-02 1.53280839e-01 4.61942255e-02
      1.45931751e-01 1.47506565e-01</_>
    <_>
      7.83410147e-02 2.00460836e-01 5.76036870e-02 2.14285716e-01
      5.52995391e-02 7.37327188e-02 9.21659023e-02 7.60368630e-02
      7.83410147e-02 7.37327188e-02</_>
    <_>
      8.07248726e-02 1.30148262e-01 4.11861613e-02 1.66392088e-01
      5.10708392e-02 1.18616141e-01 1.05436571e-01 1.03789121e-01
      9.55518931e-02 1.07084021e-01</_>
    <_>
      1.20168656e-01 1.89037248e-01 5.69219962e-02 1.05411105e-01
      7.87069574e-02 7.44905099e-02 1.18060432e-01 5.05973287e-02
      1.11735769e-01 9.48699936e-02</_>
    <_>
      1.39416978e-01 6.84410632e-02 6.97084889e-02 9.88593176e-02
      6.97084889e-02 9.88593176e-02 1.40684411e-01 4.68948036e-02
      1.31812423e-01 1.35614708e-01</_>
    <_>
      1.73267320e-01 1.78217813e-01 4.95049506e-02 1.13861382e-01
      3.46534662e-02 3.96039598e-02 1.28712863e-01 7.92079195e-02
      1.08910888e-01 9.40594077e-02</_>
    <_>
      1.01562500e-01 1.58203125e-01 4.49218750e-02 1.69921875e-01
      7.61718750e-02 9.17968750e-02 8.00781250e-02 6.05468750e-02
      1.13281250e-01 1.03515625e-01</_>
    <_>
      8.16993415e-02 1.22004353e-01 3.70370373e-02 1.45969495e-01
      1.12200432e-01 1.16557732e-01 1.06753811e-01 6.86274469e-02
      1.11111112e-01 9.80392098e-02</_>
    <_>
      9.64083225e-02 1.73913047e-01 9.07372385e-02 1.02079399e-01
      1.11531191e-01 1.32325143e-01 9.64083225e-02 3.40264663e-02
      6.61625713e-02 9.64083225e-02</_>
    <_>
      1.18343197e-01 7.69230798e-02 4.14201170e-02 1.18343197e-01
      7.10059181e-02 1.18343197e-01 1.47928998e-01 7.10059181e-02
      1.36094674e-01 1.00591719e-01</_>
    <_>
      7.20188916e-02 6.84769750e-02 1.05076738e-01 7.31995255e-02
      1.33412033e-01 1.86540723e-01 5.66705987e-02 1.27508849e-01
      9.32703614e-02 8.38252604e-02</_>
    <_>
      1.13532104e-01 1.21559627e-01 5.50458692e-02 1.63990825e-01
      8.25688019e-02 7.22477064e-02 1.11238524e-01 6.53669685e-02
      1.13532104e-01 1.00917429e-01</_>
    <_>
      1.17994100e-01 1.94690257e-01 1.03244841e-01 1.00294985e-01
      1.50442481e-01 3.83480825e-02 1.17994100e-01 2.06489675e-02
      8.25958699e-02 7.37463087e-02</_>
    <_>
      1.23456784e-01 1.81069955e-01 3.70370373e-02 1.15226336e-01
      8.23045224e-02 1.23456784e-01 1.15226336e-01 2.05761306e-02
      1.15226336e-01 8.64197537e-02</_>
    <_>
      7.39957690e-02 2.68498927e-01 7.39957690e-02 2.02959836e-01
      6.34249449e-02 6.76532760e-02 7.18816072e-02 3.17124724e-02
      7.18816072e-02 7.39957690e-02</_>
    <_>
      1.08884439e-01 7.94923231e-02 1.04876421e-01 6.14562482e-02
      1.84368744e-01 8.21643323e-02 1.23580500e-01 4.40881774e-02
      1.00868411e-01 1.10220447e-01</_>
    <_>
      8.86075944e-02 1.72995776e-01 7.31364265e-02 2.25035161e-01
      7.59493634e-02 7.59493634e-02 8.01687762e-02 7.31364265e-02
      6.75105453e-02 6.75105453e-02</_>
    <_>
      6.68789819e-02 1.49681538e-01 3.82165611e-02 2.32484072e-01
      9.55414027e-02 1.08280256e-01 7.00636953e-02 2.86624208e-02
      1.08280256e-01 1.01910830e-01</_>
    <_>
      1.64383560e-01 1.55251130e-01 2.73972601e-02 8.21917802e-02
      7.76255652e-02 4.56620976e-02 1.78082183e-01 4.56620976e-02
      1.14155248e-01 1.09589040e-01</_>
    <_>
      8.04953575e-02 1.88854486e-01 1.76470578e-01 1.85758501e-01
      8.04953575e-02 6.19195029e-02 6.81114495e-02 7.73993805e-02
      4.33436520e-02 3.71517017e-02</_>
    <_>
      5.02793267e-02 3.15642446e-01 5.86592145e-02 1.64804459e-01
      3.63128483e-02 1.39664799e-01 6.42458051e-02 6.98323995e-02
      5.86592145e-02 4.18994389e-02</_>
    <_>
      1.36986300e-01 1.29375950e-01 5.78386597e-02 1.36986300e-01
      1.05022833e-01 4.41400297e-02 1.62861496e-01 2.43531205e-02
      1.06544904e-01 9.58904102e-02</_>
    <_>
      8.86075944e-02 1.66666657e-01 6.96202517e-02 1.35021091e-01
      8.01687688e-02 7.59493634e-02 1.11814342e-01 6.32911325e-02
      1.20253161e-01 8.86075944e-02</_>
    <_>
      1.52388170e-01 1.11448072e-01 2.88097039e-02 1.05382867e-01
      4.39727083e-02 6.52009100e-02 1.45564824e-01 3.86656560e-02
      1.46322981e-01 1.62244126e-01</_>
    <_>
      7.98816606e-02 6.50887564e-02 1.81952670e-01 5.42406328e-02
      1.11932941e-01 1.42998025e-01 7.00197220e-02 1.23274162e-01
      8.13609511e-02 8.92504975e-02</_>
    <_>
      1.07611552e-01 1.66229218e-01 8.39895010e-02 1.28608927e-01
      9.71128643e-02 1.04111984e-01 9.79877561e-02 5.86176738e-02
      8.31146091e-02 7.26159215e-02</_>
    <_>
      6.42722100e-02 1.87145561e-01 1.34215504e-01 1.62570894e-01
      2.23062381e-01 4.53686193e-02 6.99432939e-02 1.51228737e-02
      4.15879041e-02 5.67107759e-02</_>
    <_>
      6.05468750e-02 2.46093750e-01 8.39843750e-02 2.53906250e-01
      8.20312500e-02 2.73437500e-02 4.88281250e-02 6.64062500e-02
      6.64062500e-02 6.44531250e-02</_>
    <_>
      8.96057338e-02 1.31421745e-01 9.67741907e-02 1.02747902e-01
      1.09916367e-01 1.06332138e-01 1.11111104e-01 5.37634380e-02
      1.11111104e-01 8.72162431e-02</_>
    <_>
      1.29496410e-01 2.30215833e-01 5.03597148e-02 1.22302160e-01
      5.75539581e-02 1.15107916e-01 1.22302160e-01 2.87769791e-02
      9.35251787e-02 5.03597148e-02</_>
    <_>
      5.38922176e-02 2.42514983e-01 8.68263543e-02 2.90419161e-01
      6.88622743e-02 5.38922176e-02 4.79041934e-02 4.79041934e-02
      4.79041934e-02 5.98802418e-02</_>
    <_>
      9.32642445e-02 1.45077720e-01 5.18134683e-02 2.12435231e-01
      6.73575103e-02 1.13989636e-01 6.21761642e-02 6.21761642e-02
      1.08808286e-01 8.29015523e-02</_>
    <_>
      9.68801305e-02 1.88834161e-01 3.11986860e-02 2.34811172e-01
      4.59770113e-02 7.06075504e-02 9.19540226e-02 6.23973720e-02
      9.03119892e-02 8.70279148e-02</_>
    <_>
      8.51160660e-02 5.73509336e-02 1.97542101e-01 8.46609026e-02
      1.80700958e-01 8.55712295e-02 8.92125592e-02 3.91442850e-02
      9.55848843e-02 8.51160660e-02</_>
    <_>
      1.33587793e-01 1.17048346e-01 5.85241728e-02 7.50636160e-02
      7.88804069e-02 6.55216277e-02 1.22137405e-01 3.75318080e-02
      1.55852422e-01 1.55852422e-01</_>
    <_>
      8.61538500e-02 1.56923071e-01 3.99999991e-02 2.21538454e-01
      7.07692280e-02 7.07692280e-02 1.01538464e-01 4.92307693e-02
      8.92307684e-02 1.13846153e-01</_>
    <_>
      1.02362201e-01 8.01717937e-02 7.15819597e-02 8.94774497e-02
      1.20257691e-01 1.04509659e-01 1.13099493e-01 9.16249081e-02
      1.16678596e-01 1.10236220e-01</_>
    <_>
      8.76795202e-02 8.01209360e-02 2.12396070e-01 5.36659099e-02
      1.67044595e-01 6.50037825e-02 8.46560895e-02 6.27362058e-02
      9.37263817e-02 9.29705203e-02</_>
    <_>
      7.99256489e-02 1.50557622e-01 2.41635684e-02 1.87732339e-01
      2.60223038e-02 1.44981414e-01 7.80669153e-02 7.99256489e-02
      1.26394048e-01 1.02230482e-01</_>
    <_>
      1.00297913e-01 1.25124127e-01 1.12214498e-01 1.03277057e-01
      1.43992051e-01 6.25620633e-02 1.14200592e-01 4.46871892e-02
      1.02284014e-01 9.13604796e-02</_>
    <_>
      8.51063877e-02 1.58756137e-01 6.87397718e-02 1.22749589e-01
      6.21931255e-02 5.56464829e-02 1.40752867e-01 2.61865798e-02
      1.35842890e-01 1.44026190e-01</_>
    <_>
      6.64451793e-02 2.72425234e-01 1.66112948e-02 2.52491683e-01
      5.98006621e-02 9.63455141e-02 6.97674379e-02 5.31561449e-02
      4.65116277e-02 6.64451793e-02</_>
    <_>
      8.18584040e-02 1.19469024e-01 1.41592920e-01 5.53097352e-02
      1.79203540e-01 7.30088502e-02 1.08407080e-01 3.31858397e-02
      1.12831861e-01 9.51327458e-02</_>
    <_>
      1.46283686e-01 4.79715727e-02 6.95883930e-02 4.32336405e-02
      9.59431455e-02 1.12822033e-01 1.26739711e-01 7.40302056e-02
      1.38880670e-01 1.44506961e-01</_>
    <_>
      1.08988762e-01 1.08988762e-01 1.32584274e-01 6.85393289e-02
      1.00000001e-01 4.60674167e-02 1.12359554e-01 2.02247202e-02
      1.58426970e-01 1.43820226e-01</_>
    <_>
      1.05908588e-01 1.69453740e-01 4.12486084e-02 1.46042362e-01
      4.68227454e-02 8.47268701e-02 1.10367894e-01 4.68227454e-02
      1.10367894e-01 1.38238579e-01</_>
    <_>
      1.29545450e-01 8.52272734e-02 7.38636330e-02 8.52272734e-02
      7.61363581e-02 1.02272727e-01 1.43181816e-01 7.15909079e-02
      1.06818177e-01 1.26136363e-01</_>
    <_>
      6.13496900e-02 1.25766873e-01 2.76073609e-02 1.62576690e-01
      5.21472394e-02 1.38036802e-01 7.05521479e-02 8.89570564e-02
      1.31901830e-01 1.41104296e-01</_>
    <_>
      1.01156071e-01 1.35838151e-01 1.01156071e-01 7.22543299e-02
      1.27167627e-01 1.09826587e-01 1.09826587e-01 6.06936403e-02
      1.18497103e-01 6.35838136e-02</_>
    <_>
      9.58549231e-02 1.83937818e-01 2.59067342e-02 2.27979273e-01
      3.88601013e-02 7.77202025e-02 8.54922235e-02 3.62694301e-02
      1.06217615e-01 1.21761657e-01</_>
    <_>
      8.93300250e-02 2.55583137e-01 3.47394533e-02 2.43176177e-01
      3.47394533e-02 8.93300250e-02 6.45161271e-02 3.72208431e-02
      8.93300250e-02 6.20347373e-02</_>
    <_>
      1.15755625e-01 1.06109321e-01 6.10932484e-02 1.73633441e-01
      1.25401929e-01 6.43086806e-02 1.06109321e-01 2.25080382e-02
      1.02893889e-01 1.22186497e-01</_>
    <_>
      1.18654817e-01 8.50253776e-02 6.91624358e-02 8.56598988e-02
      8.62944126e-02 9.51776654e-02 1.37055829e-01 5.01269028e-02
      1.33883253e-01 1.38959393e-01</_>
    <_>
      1.02836877e-01 1.25295505e-01 1.05200946e-01 1.20567374e-01
      5.79196215e-02 9.57446843e-02 1.17021278e-01 9.33806151e-02
      8.86524841e-02 9.33806151e-02</_>
    <_>
      1.06933020e-01 1.38660401e-01 7.16803744e-02 1.48061097e-01
      8.57814327e-02 8.10810775e-02 1.18683897e-01 3.40775549e-02
      1.17508814e-01 9.75323096e-02</_>
    <_>
      1.17808215e-01 1.03196345e-01 4.29223739e-02 1.29680365e-01
      9.31506827e-02 9.31506827e-02 1.20547943e-01 5.66210039e-02
      1.19634703e-01 1.23287670e-01</_>
    <_>
      1.05960265e-01 1.36423841e-01 5.82781471e-02 9.66887400e-02
      6.09271526e-02 1.04635760e-01 1.07284769e-01 6.22516572e-02
      1.32450327e-01 1.35099337e-01</_>
    <_>
      1.32066041e-01 5.85292652e-02 7.10355192e-02 5.55277653e-02
      1.03551783e-01 8.25412720e-02 1.40570283e-01 4.95247655e-02
      1.54077038e-01 1.52576298e-01</_>
    <_>
      8.54700878e-02 1.05413102e-01 5.41310534e-02 1.11111112e-01
      5.12820520e-02 2.22222224e-01 7.97720775e-02 9.97150987e-02
      1.19658120e-01 7.12250695e-02</_>
    <_>
      8.59788358e-02 1.37566134e-01 9.92063433e-02 1.46825388e-01
      1.00529097e-01 6.87830672e-02 9.92063433e-02 3.96825373e-02
      1.16402112e-01 1.05820104e-01</_>
    <_>
      9.77620780e-02 1.66077748e-01 8.83392245e-02 1.38987049e-01
      1.03651360e-01 7.18492344e-02 1.15429923e-01 4.47585396e-02
      8.95170793e-02 8.36277977e-02</_>
    <_>
      1.09665424e-01 1.72862455e-01 7.62081742e-02 1.67286247e-01
      7.80669153e-02 6.31970242e-02 1.22676581e-01 5.01858741e-02
      7.24907070e-02 8.73605907e-02</_>
    <_>
      1.05555557e-01 1.40740737e-01 6.29629642e-02 1.51851848e-01
      1.05555557e-01 1.11111112e-01 9.44444463e-02 7.03703687e-02
      7.77777731e-02 7.96296299e-02</_>
    <_>
      8.71559605e-02 2.20183477e-01 2.29357779e-02 1.51376143e-01
      3.66972461e-02 5.04587144e-02 1.00917429e-01 1.10091738e-01
      1.10091738e-01 1.10091738e-01</_>
    <_>
      8.51221308e-02 1.07327901e-01 5.03330864e-02 1.32494450e-01
      6.21761642e-02 1.06587708e-01 1.20651364e-01 1.49518862e-01
      9.10436660e-02 9.47446302e-02</_>
    <_>
      9.93566886e-02 1.32952109e-01 5.14653325e-02 1.18656188e-01
      9.14939269e-02 1.00071482e-01 9.86418873e-02 9.72122997e-02
      1.05789855e-01 1.04360260e-01</_>
    <_>
      6.66666701e-02 1.02083340e-01 4.37500030e-02 1.39583334e-01
      5.20833358e-02 1.58333346e-01 9.79166701e-02 1.95833340e-01
      7.50000030e-02 6.87500015e-02</_>
    <_>
      1.50452495e-01 8.25791880e-02 5.42986467e-02 7.91855231e-02
      1.47058830e-01 6.67420849e-02 1.39140278e-01 3.73303182e-02
      1.34615391e-01 1.08597293e-01</_>
    <_>
      1.12142302e-01 1.50812060e-01 8.43000710e-02 1.09048717e-01
      7.50193298e-02 1.05955139e-01 1.09048717e-01 9.35808197e-02
      8.04331005e-02 7.96597004e-02</_>
    <_>
      1.44297913e-01 7.29247481e-02 5.85725382e-02 6.86578751e-02
      7.91311115e-02 9.58107039e-02 1.45073697e-01 6.24515116e-02
      1.41970515e-01 1.31109387e-01</_>
    <_>
      9.17186141e-02 1.38023153e-01 6.58949241e-02 9.52804983e-02
      6.05520941e-02 1.23775601e-01 9.26090851e-02 1.54051647e-01
      8.99376720e-02 8.81567225e-02</_>
    <_>
      9.33098570e-02 1.46126762e-01 1.10915489e-01 1.21478871e-01
      1.53169006e-01 5.45774624e-02 9.50704217e-02 6.51408434e-02
      7.74647892e-02 8.27464759e-02</_>
    <_>
      8.01603198e-02 2.40480959e-01 5.41082174e-02 1.70340687e-01
      4.00801599e-02 1.06212430e-01 7.01402798e-02 1.04208417e-01
      6.61322623e-02 6.81362748e-02</_>
    <_>
      1.41643062e-01 1.04107648e-01 2.83286124e-02 1.32436261e-01
      1.39518410e-01 6.16147295e-02 1.32436261e-01 3.89518403e-02
      1.24645889e-01 9.63172764e-02</_>
    <_>
      1.54691458e-01 6.84699938e-02 6.76246807e-02 7.56551102e-02
      1.01859681e-01 6.84699938e-02 1.55114114e-01 4.48013507e-02
      1.34826705e-01 1.28486902e-01</_>
    <_>
      1.03990331e-01 1.53567120e-01 6.77146316e-02 1.29383311e-01
      1.07617900e-01 6.28778711e-02 9.67351943e-02 8.46432894e-02
      8.82708579e-02 1.05199523e-01</_>
    <_>
      1.13172546e-01 1.78107604e-01 9.46196690e-02 1.24304265e-01
      1.02040820e-01 6.12244904e-02 9.46196690e-02 4.63821888e-02
      9.64749530e-02 8.90538022e-02</_>
    <_>
      9.99999940e-02 1.32954538e-01 3.63636352e-02 2.14772716e-01
      6.13636337e-02 1.17045447e-01 9.20454487e-02 8.86363611e-02
      7.95454532e-02 7.72727281e-02</_>
    <_>
      1.01156071e-01 2.16763005e-01 5.20231202e-02 1.58959538e-01
      5.49132936e-02 7.22543299e-02 8.09248537e-02 5.20231202e-02
      1.06936410e-01 1.04046240e-01</_>
    <_>
      8.97832811e-02 1.33126929e-01 7.12074265e-02 1.85758501e-01
      1.14551082e-01 6.81114495e-02 1.05263159e-01 4.33436520e-02
      9.28792506e-02 9.59752277e-02</_>
    <_>
      1.27403855e-01 2.30769247e-01 5.28846160e-02 1.99519232e-01
      1.03365391e-01 4.32692319e-02 1.20192312e-01 1.44230779e-02
      5.76923117e-02 5.04807718e-02</_>
    <_>
      1.37440771e-01 1.06635079e-01 3.55450250e-02 9.00473967e-02
      9.00473967e-02 1.61137447e-01 1.20853081e-01 4.26540300e-02
      1.20853081e-01 9.47867334e-02</_>
    <_>
      1.61559880e-01 1.61559880e-01 1.94986071e-02 1.36490256e-01
      3.62116992e-02 5.57103045e-02 1.89415038e-01 3.62116992e-02
      1.00278549e-01 1.03064068e-01</_>
    <_>
      9.67741907e-02 1.65322572e-01 1.41129032e-01 9.67741907e-02
      1.25000000e-01 4.83870953e-02 9.67741907e-02 5.64516112e-02
      8.06451589e-02 9.27419364e-02</_>
    <_>
      1.26621380e-01 7.90611506e-02 5.49722053e-02 9.57381129e-02
      9.20321196e-02 9.14144516e-02 1.25386044e-01 5.55898696e-02
      1.47004321e-01 1.32180363e-01</_>
    <_>
      9.23423469e-02 1.14864871e-01 7.88288340e-02 1.57657668e-01
      6.75675720e-02 8.78378376e-02 1.14864871e-01 9.23423469e-02
      1.05855860e-01 8.78378376e-02</_>
    <_>
      4.23928387e-02 6.26471937e-02 2.27508247e-01 5.69948182e-02
      2.74140358e-01 9.27932188e-02 5.84079139e-02 5.08714095e-02
      5.79368807e-02 7.63071105e-02</_>
    <_>
      1.48222476e-01 5.47591709e-02 6.36467859e-02 2.89564207e-02
      6.10665120e-02 1.39621556e-01 1.43922016e-01 1.20986231e-01
      1.22993112e-01 1.15825683e-01</_>
    <_>
      1.16322704e-01 1.66979358e-01 5.06566614e-02 1.40712947e-01
      4.69043143e-02 6.37898669e-02 1.20075047e-01 4.50281426e-02
      1.25703558e-01 1.23827390e-01</_>
    <_>
      1.36752144e-01 5.55555597e-02 1.70940179e-02 1.15384623e-01
      5.98290637e-02 1.23931631e-01 1.45299152e-01 8.54700878e-02
      1.41025648e-01 1.19658127e-01</_>
    <_>
      1.46484375e-01 1.38671875e-01 5.53385429e-02 1.13932297e-01
      7.16145858e-02 7.94270858e-02 1.06119797e-01 4.81770858e-02
      1.23046875e-01 1.17187500e-01</_>
    <_>
      1.15473434e-01 9.46882218e-02 5.00384904e-02 9.39183980e-02
      9.46882218e-02 1.00846805e-01 1.19322553e-01 6.54349476e-02
      1.48575827e-01 1.17013082e-01</_>
    <_>
      1.10526323e-01 1.28947377e-01 1.05263159e-01 1.05263159e-01
      1.10526323e-01 3.68421078e-02 1.31578952e-01 5.52631617e-02
      8.15789476e-02 1.34210527e-01</_>
    <_>
      1.16294794e-01 2.12305605e-01 5.74712642e-02 9.39824209e-02
      6.55848533e-02 7.43745789e-02 1.15618661e-01 5.13860695e-02
      1.17647059e-01 9.53346863e-02</_>
    <_>
      6.13207556e-02 9.90566015e-02 2.44339630e-01 5.66037744e-02
      1.21698111e-01 9.81132090e-02 4.71698120e-02 3.67924534e-02
      1.19811326e-01 1.15094341e-01</_>
    <_>
      1.29554659e-01 3.64372469e-02 8.50202441e-02 3.64372469e-02
      9.71659943e-02 1.01214580e-01 1.53846160e-01 8.09716582e-02
      1.29554659e-01 1.49797574e-01</_>
    <_>
      1.88405797e-01 5.07246405e-02 3.98550741e-02 7.97101483e-02
      1.12318844e-01 6.52173907e-02 1.59420297e-01 2.53623202e-02
      1.77536234e-01 1.01449281e-01</_>
    <_>
      1.24375001e-01 1.06874995e-01 5.49999997e-02 1.37500003e-01
      6.68749958e-02 8.68749991e-02 1.25624999e-01 5.99999987e-02
      1.19374998e-01 1.17500000e-01</_>
    <_>
      8.12064931e-02 1.87935024e-01 8.70069563e-02 1.35730848e-01
      7.88863078e-02 8.00464004e-02 8.58468637e-02 5.22041731e-02
      1.12529002e-01 9.86078829e-02</_>
    <_>
      8.99224803e-02 1.75193802e-01 8.37209299e-02 1.22480616e-01
      8.37209299e-02 1.00775197e-01 1.03875965e-01 6.51162788e-02
      8.99224803e-02 8.52713138e-02</_>
    <_>
      8.62068981e-02 1.63793102e-01 1.72413792e-02 2.06896544e-01
      6.89655170e-02 1.03448272e-01 9.48275849e-02 1.72413792e-02
      9.48275849e-02 1.46551728e-01</_>
    <_>
      1.00000001e-01 2.19444454e-01 7.22222254e-02 1.47222221e-01
      6.94444478e-02 7.22222254e-02 1.08333334e-01 2.22222228e-02
      8.33333358e-02 1.05555557e-01</_>
    <_>
      9.85545292e-02 1.37976348e-01 2.62812078e-02 1.76084101e-01
      5.78186586e-02 1.34034157e-01 1.01182655e-01 4.59921136e-02
      1.11695133e-01 1.10381074e-01</_>
    <_>
      1.24610588e-01 1.58878505e-01 6.23052940e-02 1.40186906e-01
      1.18380055e-01 1.05919003e-01 1.21495321e-01 5.29595017e-02
      5.60747646e-02 5.91900274e-02</_>
    <_>
      8.94039720e-02 6.95364252e-02 8.60927179e-02 6.87086061e-02
      1.40728474e-01 1.03476822e-01 1.10099338e-01 4.55298014e-02
      1.44039735e-01 1.42384112e-01</_>
    <_>
      8.31683204e-02 1.02970302e-01 3.76237631e-02 1.54455453e-01
      3.16831693e-02 1.80198029e-01 9.50495079e-02 8.91089141e-02
      1.08910896e-01 1.16831690e-01</_>
    <_>
      9.12280753e-02 1.89473689e-01 8.07017535e-02 2.14035094e-01
      5.26315793e-02 4.91228066e-02 9.47368443e-02 5.96491247e-02
      7.71929845e-02 9.12280753e-02</_>
    <_>
      1.32876709e-01 8.90410990e-02 4.38356176e-02 7.94520602e-02
      6.91780820e-02 8.21917802e-02 1.47260278e-01 5.06849326e-02
      1.55479461e-01 1.50000006e-01</_>
    <_>
      1.23341523e-01 7.96068758e-02 5.40540516e-02 4.37346436e-02
      8.40294808e-02 7.51842707e-02 1.39066339e-01 2.30958220e-02
      1.89189181e-01 1.88697785e-01</_>
    <_>
      6.52173907e-02 2.82608688e-01 3.47826071e-02 2.65217394e-01
      3.04347817e-02 6.08695634e-02 6.95652142e-02 3.47826071e-02
      9.13043469e-02 6.52173907e-02</_>
    <_>
      5.65370992e-02 1.82114691e-02 2.02772483e-01 2.44631693e-02
      2.69094855e-01 9.78526771e-02 6.38760477e-02 6.84968755e-02
      1.07094318e-01 9.16009769e-02</_>
    <_>
      7.03999996e-02 1.37599990e-01 1.18400000e-01 1.69599995e-01
      6.56000003e-02 8.63999948e-02 6.87999949e-02 1.00800000e-01
      8.79999995e-02 9.43999961e-02</_>
    <_>
      3.98230106e-02 5.57522103e-02 3.09734512e-02 8.31858367e-02
      9.02654827e-02 2.23008841e-01 4.95575219e-02 3.32743347e-01
      5.13274334e-02 4.33628336e-02</_>
    <_>
      1.01265818e-01 2.36286908e-01 3.79746817e-02 1.98312223e-01
      5.90717271e-02 6.32911325e-02 9.70464051e-02 3.37552726e-02
      8.86075944e-02 8.43881816e-02</_>
    <_>
      1.18012428e-01 1.11801244e-01 1.07660457e-01 9.52380970e-02
      1.07660457e-01 8.28157365e-02 1.18012428e-01 5.38302287e-02
      1.05590060e-01 9.93788838e-02</_>
    <_>
      1.57407403e-01 9.25925970e-02 2.31481493e-02 4.16666679e-02
      6.01851866e-02 7.40740746e-02 1.71296299e-01 3.24074067e-02
      1.80555552e-01 1.66666672e-01</_>
    <_>
      1.40417457e-01 1.13851994e-01 2.65654642e-02 1.42314985e-01
      4.93358634e-02 1.34724855e-01 1.44212529e-01 8.34914595e-02
      7.77988583e-02 8.72865245e-02</_>
    <_>
      1.42241374e-01 5.60344830e-02 3.87931019e-02 3.87931019e-02
      8.62068981e-02 8.18965510e-02 2.06896544e-01 5.17241359e-02
      1.59482762e-01 1.37931034e-01</_>
    <_>
      8.42293873e-02 2.09677413e-01 4.12186384e-02 2.32974917e-01
      4.30107526e-02 1.00358427e-01 6.81003556e-02 6.45161271e-02
      8.42293873e-02 7.16845840e-02</_>
    <_>
      1.32383600e-01 3.09242550e-02 9.24253017e-02 2.60597654e-02
      1.44197360e-01 7.47046620e-02 1.50799170e-01 3.30090337e-02
      1.61917999e-01 1.53578877e-01</_>
    <_>
      1.11702122e-01 1.93262398e-01 4.25531901e-02 1.73758864e-01
      4.60992903e-02 7.09219873e-02 1.06382973e-01 5.85106350e-02
      9.04255286e-02 1.06382973e-01</_>
    <_>
      7.50605389e-02 2.44552076e-01 6.53753057e-02 1.74334154e-01
      7.02179223e-02 7.99031481e-02 7.74818435e-02 6.29540011e-02
      6.53753057e-02 8.47457647e-02</_>
    <_>
      1.37931034e-01 6.89655170e-02 2.88692862e-02 6.97674453e-02
      5.53327985e-02 1.21090621e-01 1.45950288e-01 7.29751438e-02
      1.55573368e-01 1.43544510e-01</_>
    <_>
      8.24294984e-02 1.84381783e-01 3.68763581e-02 1.84381783e-01
      7.37527162e-02 9.76138860e-02 8.89370963e-02 1.04121476e-01
      7.15835169e-02 7.59219080e-02</_>
    <_>
      1.13207541e-01 1.22641504e-01 6.76100627e-02 8.64779875e-02
      7.86163509e-02 9.27672908e-02 1.30503133e-01 4.40251566e-02
      1.36792451e-01 1.27358481e-01</_>
    <_>
      1.09333329e-01 2.61333317e-01 3.73333320e-02 1.92000002e-01
      4.80000004e-02 6.39999956e-02 8.79999995e-02 3.19999978e-02
      8.79999995e-02 7.99999982e-02</_>
    <_>
      9.16666687e-02 1.50000006e-01 7.50000030e-02 1.83333337e-01
      4.16666679e-02 6.66666701e-02 1.25000000e-01 2.50000022e-02
      1.25000000e-01 1.16666675e-01</_>
    <_>
      1.11957356e-01 1.43945172e-01 5.48362546e-02 1.05102822e-01
      9.44402143e-02 6.01675585e-02 1.27189651e-01 3.04645859e-02
      1.40898705e-01 1.30997717e-01</_>
    <_>
      1.05263151e-01 2.00956926e-01 6.33971244e-02 1.80621997e-01
      8.49282295e-02 6.10047840e-02 9.56937745e-02 4.66507152e-02
      8.49282295e-02 7.65550211e-02</_>
    <_>
      1.03389829e-01 1.45762712e-01 5.59322014e-02 8.98305103e-02
      4.91525419e-02 1.40677959e-01 1.13559321e-01 1.01694912e-01
      7.62711838e-02 1.23728812e-01</_>
    <_>
      1.11894846e-01 5.29015735e-02 1.16062842e-01 3.49471010e-02
      1.51971787e-01 7.95126706e-02 1.11253612e-01 3.75120230e-02
      1.46521330e-01 1.57422259e-01</_>
    <_>
      1.11015491e-01 1.03270225e-01 5.67986220e-02 9.98278856e-02
      8.00344199e-02 9.55249593e-02 1.30808949e-01 7.40103275e-02
      1.14457831e-01 1.34251297e-01</_>
    <_>
      1.12024672e-01 7.19424486e-02 8.01644400e-02 1.12538546e-01
      6.62898272e-02 1.23329915e-01 1.01747178e-01 1.07913673e-01
      1.03288800e-01 1.20760538e-01</_>
    <_>
      1.00533806e-01 1.58362985e-01 5.16014248e-02 1.45017788e-01
      6.67259768e-02 9.34163705e-02 1.09430604e-01 8.27402100e-02
      9.87544507e-02 9.34163705e-02</_>
    <_>
      7.31707290e-02 9.95934904e-02 1.46341458e-01 5.89430854e-02
      2.49999985e-01 1.01626009e-01 6.30081296e-02 3.25203240e-02
      8.13008100e-02 9.34959352e-02</_>
    <_>
      1.23711340e-01 8.98379982e-02 7.95287192e-02 7.36377016e-02
      1.34020612e-01 9.72017646e-02 1.19293079e-01 7.95287192e-02
      1.19293079e-01 8.39469805e-02</_>
    <_>
      1.46788985e-01 9.54128429e-02 5.59633039e-02 9.35779810e-02
      1.27522931e-01 1.06422022e-01 1.20183490e-01 4.67889905e-02
      1.08256884e-01 9.90825668e-02</_>
    <_>
      9.23737958e-02 1.95488721e-01 4.94092405e-02 1.96562842e-01
      6.12244904e-02 9.77443606e-02 9.23737958e-02 4.61868979e-02
      8.59291106e-02 8.27067718e-02</_>
    <_>
      9.77130979e-02 1.03950106e-01 1.01871103e-01 1.12266116e-01
      1.47609144e-01 8.73180851e-02 8.73180851e-02 4.36590426e-02
      1.01871103e-01 1.16424114e-01</_>
    <_>
      1.55555561e-01 1.00793652e-01 4.92063500e-02 1.14285715e-01
      9.20634940e-02 6.26984164e-02 1.69841275e-01 5.63492067e-02
      1.06349207e-01 9.28571448e-02</_>
    <_>
      1.30362123e-01 1.89415049e-02 5.73816188e-02 1.89415049e-02
      1.82172701e-01 8.41225684e-02 1.29247919e-01 1.44289702e-01
      1.17548749e-01 1.16991647e-01</_>
    <_>
      1.13678373e-01 8.31792951e-02 4.15896475e-02 1.30314231e-01
      8.50277245e-02 1.12754159e-01 1.21996306e-01 7.48613700e-02
      1.19223662e-01 1.17375232e-01</_>
    <_>
      1.08974367e-01 1.20726503e-01 4.59401719e-02 1.74145311e-01
      6.83760718e-02 8.54700878e-02 1.14316247e-01 5.34188077e-02
      1.04700863e-01 1.23931631e-01</_>
    <_>
      1.09131403e-01 1.26948774e-01 3.34075727e-02 1.67037860e-01
      1.00222722e-01 1.46993324e-01 1.00222722e-01 4.89977747e-02
      9.13140327e-02 7.57238343e-02</_>
    <_>
      1.26673535e-01 1.87435642e-01 6.07621036e-02 1.31822869e-01
      8.65087584e-02 6.59114346e-02 1.12255409e-01 4.63439785e-02
      8.65087584e-02 9.57775563e-02</_>
    <_>
      1.12382941e-01 9.26118642e-02 5.61914705e-02 9.78147835e-02
      1.34235173e-01 9.46930349e-02 1.03017695e-01 1.14464104e-01
      1.05098858e-01 8.94901156e-02</_>
    <_>
      7.67857134e-02 2.55357146e-01 6.96428567e-02 1.98214293e-01
      4.28571440e-02 1.07142858e-01 6.42857179e-02 5.89285716e-02
      6.96428567e-02 5.71428575e-02</_>
    <_>
      9.88372117e-02 1.66666672e-01 3.48837227e-02 2.13178292e-01
      8.13953504e-02 6.78294599e-02 9.30232555e-02 5.62015511e-02
      9.30232555e-02 9.49612409e-02</_>
    <_>
      1.23356931e-01 1.35490403e-01 7.38119334e-02 1.18301317e-01
      1.19312443e-01 7.28008077e-02 1.19312443e-01 4.55005057e-02
      1.11223459e-01 8.08897913e-02</_>
    <_>
      1.44340083e-01 6.82155192e-02 7.11814091e-02 7.26643577e-02
      1.18141368e-01 5.48690036e-02 1.57686591e-01 4.05338593e-02
      1.40385553e-01 1.31982192e-01</_>
    <_>
      9.69827548e-02 1.59482762e-01 2.58620679e-02 1.96120694e-01
      3.01724132e-02 7.54310340e-02 9.48275849e-02 1.14224136e-01
      9.05172378e-02 1.16379313e-01</_>
    <_>
      1.39240503e-01 1.12115733e-01 5.96745051e-02 6.32911399e-02
      7.41410479e-02 7.23327324e-02 1.60940334e-01 4.15913202e-02
      1.35623872e-01 1.41048834e-01</_>
    <_>
      1.61764711e-01 1.61764711e-01 1.10294120e-02 1.61764711e-01
      5.88235296e-02 4.41176482e-02 8.82352963e-02 7.35294148e-02
      1.21323533e-01 1.17647059e-01</_>
    <_>
      1.05920695e-01 8.74524713e-02 5.26887588e-02 1.24388918e-01
      7.93047249e-02 1.52634442e-01 1.01575233e-01 1.15154810e-01
      9.23411176e-02 8.85388404e-02</_>
    <_>
      1.21535182e-01 9.80810225e-02 1.23667382e-01 8.52878466e-02
      8.10234547e-02 5.54371029e-02 9.59488302e-02 9.38166305e-02
      1.13006398e-01 1.32196158e-01</_>
    <_>
      9.53307375e-02 7.78210089e-02 6.22568093e-02 9.92217883e-02
      1.07003890e-01 1.73151746e-01 8.56031105e-02 9.33852121e-02
      9.72762629e-02 1.08949415e-01</_>
    <_>
      1.09615386e-01 1.73076928e-01 4.80769239e-02 1.98076919e-01
      7.30769262e-02 1.07692309e-01 8.65384638e-02 5.19230776e-02
      8.46153870e-02 6.73076957e-02</_>
    <_>
      1.79523140e-01 1.00981764e-01 8.97615701e-02 5.18934093e-02
      9.25666168e-02 2.38429178e-02 1.79523140e-01 3.08555402e-02
      1.33239836e-01 1.17812060e-01</_>
    <_>
      1.14416473e-01 1.99084654e-01 4.11899313e-02 1.60183057e-01
      5.03432453e-02 1.05263151e-01 9.83981639e-02 8.23798627e-02
      6.86498806e-02 8.00915286e-02</_>
    <_>
      1.00782782e-01 8.21917802e-02 9.78473574e-02 8.02348331e-02
      1.36986300e-01 1.08610570e-01 9.98043045e-02 6.36007786e-02
      1.16438359e-01 1.13502935e-01</_>
    <_>
      1.18279569e-01 1.89964160e-01 7.88530484e-02 1.21863797e-01
      1.14695340e-01 3.22580636e-02 1.14695340e-01 3.94265242e-02
      1.00358427e-01 8.96057338e-02</_>
    <_>
      8.71670768e-02 1.86440691e-01 5.56900762e-02 2.34866843e-01
      3.14770006e-02 1.25908002e-01 7.26392269e-02 9.20096859e-02
      6.77966103e-02 4.60048430e-02</_>
    <_>
      1.30877733e-01 1.16771154e-01 4.31034490e-02 5.56426309e-02
      5.79937287e-02 6.97492138e-02 1.37147337e-01 3.21316607e-02
      1.78683385e-01 1.77899688e-01</_>
    <_>
      1.20496891e-01 6.70807436e-02 6.58385083e-02 5.34161478e-02
      1.03105590e-01 1.32919252e-01 1.21739127e-01 6.08695634e-02
      1.60248443e-01 1.14285715e-01</_>
    <_>
      1.10638291e-01 1.13829784e-01 7.76595697e-02 1.21276595e-01
      9.57446769e-02 8.93616974e-02 1.06382973e-01 4.14893590e-02
      1.36170208e-01 1.07446805e-01</_>
    <_>
      1.20665744e-01 1.49791956e-01 2.49653272e-02 1.33148402e-01
      4.85436916e-02 6.38002828e-02 1.27600566e-01 3.88349518e-02
      1.37309298e-01 1.55339807e-01</_>
    <_>
      8.34312588e-02 1.41010568e-01 8.69565234e-02 1.53936535e-01
      8.57814327e-02 6.93302006e-02 9.51821357e-02 7.99059942e-02
      9.63572264e-02 1.08108103e-01</_>
    <_>
      9.64749530e-02 2.20779225e-01 2.04081628e-02 2.04081640e-01
      2.96846014e-02 1.11317255e-01 8.90538022e-02 6.86456412e-02
      7.42115006e-02 8.53432268e-02</_>
    <_>
      1.38199851e-01 1.38908580e-01 5.24450727e-02 1.11977316e-01
      8.00850466e-02 6.37845472e-02 1.37491137e-01 3.18922736e-02
      1.20481923e-01 1.24734230e-01</_>
    <_>
      1.07692309e-01 6.92307726e-02 3.84615399e-02 1.53846160e-01
      8.46153870e-02 1.15384616e-01 7.69230798e-02 1.46153852e-01
      1.46153852e-01 6.15384616e-02</_>
    <_>
      9.53984335e-02 1.24579132e-01 4.93827164e-02 1.34680137e-01
      6.50954023e-02 1.45903483e-01 9.53984335e-02 8.30527544e-02
      9.53984335e-02 1.11111119e-01</_>
    <_>
      1.12244897e-01 2.04081625e-01 6.63265288e-02 2.11734682e-01
      7.65306130e-02 3.31632644e-02 1.02040812e-01 2.04081628e-02
      1.02040812e-01 7.14285672e-02</_>
    <_>
      1.08108111e-01 7.56756812e-02 5.94594628e-02 1.09909914e-01
      8.10810849e-02 1.65765762e-01 1.20720722e-01 1.18918926e-01
      7.74774775e-02 8.28828812e-02</_>
    <_>
      1.16970278e-01 1.48609787e-01 5.65675944e-02 1.13135189e-01
      7.47842789e-02 1.10258870e-01 1.10258870e-01 7.86193684e-02
      9.39597338e-02 9.68360528e-02</_>
    <_>
      1.28646225e-01 1.15183249e-01 4.33807038e-02 1.66791335e-01
      8.45175758e-02 7.18025416e-02 1.32385939e-01 6.05833977e-02
      1.00972332e-01 9.57367271e-02</_>
    <_>
      8.60585198e-02 1.92771077e-01 9.63855386e-02 1.53184161e-01
      7.57314935e-02 6.54044747e-02 7.22891539e-02 4.81927693e-02
      1.18760757e-01 9.12220329e-02</_>
    <_>
      1.03921577e-01 1.37254909e-01 8.62745121e-02 1.33333340e-01
      1.27450988e-01 1.07843146e-01 9.60784405e-02 5.68627492e-02
      8.82352963e-02 6.27451017e-02</_>
    <_>
      9.93589759e-02 9.61538479e-02 5.76923080e-02 1.53846160e-01
      9.29487199e-02 1.21794872e-01 1.12179488e-01 5.44871800e-02
      1.05769232e-01 1.05769232e-01</_>
    <_>
      1.26157403e-01 1.06481485e-01 5.55555560e-02 8.44907388e-02
      9.37500000e-02 7.87037015e-02 1.53935179e-01 2.89351847e-02
      1.41203701e-01 1.30787045e-01</_>
    <_>
      9.33014303e-02 1.69856459e-01 9.09090862e-02 1.62679419e-01
      1.14832535e-01 5.98086119e-02 7.65550211e-02 3.82775106e-02
      1.00478463e-01 9.33014303e-02</_>
    <_>
      1.17889531e-01 1.28606766e-01 5.02885431e-02 1.19538337e-01
      7.66694173e-02 6.76009879e-02 1.30255565e-01 5.27617484e-02
      1.30255565e-01 1.26133561e-01</_>
    <_>
      8.78906250e-02 1.56250000e-01 5.27343750e-02 1.48437500e-01
      9.17968750e-02 7.42187500e-02 1.05468750e-01 5.85937500e-02
      1.05468750e-01 1.19140625e-01</_>
    <_>
      7.89980739e-02 1.90751448e-01 6.74373806e-02 1.67630062e-01
      1.36801541e-01 6.93641603e-02 8.86319876e-02 5.39499037e-02
      7.12909475e-02 7.51445070e-02</_>
    <_>
      1.19891003e-01 1.17166214e-01 6.53950945e-02 1.74386919e-01
      7.90190697e-02 7.90190697e-02 1.03542231e-01 5.99455014e-02
      1.11716621e-01 8.99182558e-02</_>
    <_>
      1.35135144e-01 1.75675675e-01 6.75675720e-02 1.08108111e-01
      5.40540554e-02 2.70270277e-02 1.35135144e-01 5.40540554e-02
      1.08108111e-01 1.35135144e-01</_>
    <_>
      1.31926119e-01 1.01143360e-01 5.62884770e-02 1.30167097e-01
      1.08179420e-01 7.21196085e-02 1.31046608e-01 5.27704470e-02
      1.14335969e-01 1.02022864e-01</_>
    <_>
      1.58925012e-01 4.41274047e-02 5.37491702e-02 4.77770418e-02
      9.78765786e-02 9.82083604e-02 1.49966821e-01 6.83477148e-02
      1.42667547e-01 1.38354346e-01</_>
    <_>
      1.47591397e-01 5.02220728e-02 3.68978493e-02 5.77383004e-02
      7.92620480e-02 7.72121623e-02 1.51007861e-01 5.94465360e-02
      1.71165019e-01 1.69456795e-01</_>
    <_>
      1.03260867e-01 8.42391253e-02 6.73912987e-02 8.20652172e-02
      9.13043469e-02 9.78260860e-02 1.14130430e-01 6.03260845e-02
      1.52717382e-01 1.46739125e-01</_>
    <_>
      6.39504939e-02 9.28313583e-02 2.00618878e-01 8.09695721e-02
      1.35121197e-01 1.29448175e-01 6.70448691e-02 1.04693145e-01
      6.08561113e-02 6.44662231e-02</_>
    <_>
      1.08061753e-01 1.83533460e-01 4.11663800e-02 1.42367065e-01
      5.31732440e-02 1.04631223e-01 1.01200692e-01 1.21783882e-01
      8.06174949e-02 6.34648353e-02</_>
    <_>
      9.69479382e-02 1.68761224e-01 6.82226196e-02 1.05924599e-01
      1.05924599e-01 1.05924599e-01 7.54039511e-02 1.05924599e-01
      8.97666067e-02 7.71992803e-02</_>
    <_>
      8.52575526e-02 1.50976911e-01 1.24333929e-02 2.23801076e-01
      4.26287763e-02 1.17229134e-01 7.63765574e-02 8.88099521e-02
      9.59147438e-02 1.06571935e-01</_>
    <_>
      9.28143710e-02 1.49700612e-01 8.98203626e-02 1.34730548e-01
      7.48503059e-02 7.18562901e-02 7.78443143e-02 5.08982055e-02
      1.25748515e-01 1.31736532e-01</_>
    <_>
      9.84455943e-02 1.10103622e-01 1.20466322e-01 1.23056993e-01
      9.19689089e-02 1.10103622e-01 1.08808286e-01 4.92227972e-02
      1.01036265e-01 8.67875591e-02</_>
    <_>
      9.05432552e-02 1.73038229e-01 6.43863156e-02 2.19315886e-01
      9.85915437e-02 9.65794772e-02 8.04828927e-02 5.83500974e-02
      5.83500974e-02 6.03621714e-02</_>
    <_>
      1.38613865e-01 1.68316826e-01 1.98019799e-02 1.48514852e-01
      5.94059378e-02 4.95049506e-02 7.92079195e-02 3.96039598e-02
      1.58415839e-01 1.38613865e-01</_>
    <_>
      1.33689836e-01 2.24598929e-01 5.88235296e-02 1.55080214e-01
      6.41711205e-02 6.95187151e-02 1.06951877e-01 5.88235296e-02
      8.02139044e-02 4.81283441e-02</_>
    <_>
      1.55187443e-01 7.41063654e-02 5.05666956e-02 4.53356579e-02
      7.41063654e-02 6.88753277e-02 1.69136882e-01 2.00523101e-02
      1.66521356e-01 1.76111594e-01</_>
    <_>
      1.15718417e-01 1.89971074e-01 6.84667304e-02 1.37897775e-01
      8.29315335e-02 5.68948872e-02 1.16682738e-01 3.76084857e-02
      1.07039534e-01 8.67888108e-02</_></support_vectors>
  <decision_functions>
    <_>
      <sv_count>523</sv_count>
      <rho>-2.2798973415582626e+00</rho>
      <alpha>
        6.2500000000000000e+01 6.2500000000000000e+01
        6.2500000000000000e+01 6.2500000000000000e+01
        6.2500000000000000e+01 6.2500000000000000e+01
        6.2500000000000000e+01 6.2500000000000000e+01
        6.2500000000000000e+01 6.2500000000000000e+01
        6.2500000000000000e+01 5.9895199102145817e+01
        6.2500000000000000e+01 6.2500000000000000e+01
        6.2500000000000000e+01 6.2500000000000000e+01
        6.2500000000000000e+01 6.2500000000000000e+01
        6.2500000000000000e+01 6.2500000000000000e+01
        6.2500000000000000e+01 6.2500000000000000e+01
        4.5606577071132577e+01 6.2500000000000000e+01
        6.2500000000000000e+01 6.2500000000000000e+01
        6.2500000000000000e+01 6.2500000000000000e+01
        6.2500000000000000e+01 6.2500000000000000e+01
        6.2500000000000000e+01 6.2500000000000000e+01
        6.2500000000000000e+01 6.2500000000000000e+01
        6.2500000000000000e+01 6.2500000000000000e+01
        6.2500000000000000e+01 6.2500000000000000e+01
        6.2500000000000000e+01 6.2500000000000000e+01
        6.2500000000000000e+01 6.2500000000000000e+01
        6.2500000000000000e+01 6.2500000000000000e+01
        6.2500000000000000e+01 6.2500000000000000e+01
        6.2500000000000000e+01 6.2500000000000000e+01
        6.2500000000000000e+01 6.2500000000000000e+01
        6.2500000000000000e+01 6.2500000000000000e+01
        6.2500000000000000e+01 6.2500000000000000e+01
        6.2500000000000000e+01 6.2500000000000000e+01
        6.2500000000000000e+01 6.2500000000000000e+01
        6.2500000000000000e+01 6.2500000000000000e+01
        6.2500000000000000e+01 6.2500000000000000e+01
        6.2500000000000000e+01 6.2500000000000000e+01
        6.2500000000000000e+01 6.2500000000000000e+01
        6.2500000000000000e+01 6.2500000000000000e+01
        6.2500000000000000e+01 6.2500000000000000e+01
        6.2500000000000000e+01 6.2500000000000000e+01
        6.2500000000000000e+01 6.2500000000000000e+01
        6.2500000000000000e+01 6.2500000000000000e+01
        6.2500000000000000e+01 6.2500000000000000e+01
        6.2500000000000000e+01 6.2500000000000000e+01
        6.2500000000000000e+01 6.2500000000000000e+01
        6.2500000000000000e+01 6.2500000000000000e+01
        6.2500000000000000e+01 6.2500000000000000e+01
        6.2500000000000000e+01 6.2500000000000000e+01
        6.2500000000000000e+01 6.2500000000000000e+01
        6.2500000000000000e+01 6.2500000000000000e+01
        6.2500000000000000e+01 6.2500000000000000e+01
        6.2500000000000000e+01 6.2500000000000000e+01
        6.2500000000000000e+01 6.2500000000000000e+01
        6.2500000000000000e+01 6.2500000000000000e+01
        6.2500000000000000e+01 4.9122373802483786e+01
        6.2500000000000000e+01 6.2500000000000000e+01
        6.2500000000000000e+01 6.2500000000000000e+01
        6.2500000000000000e+01 6.2500000000000000e+01
        6.2500000000000000e+01 2.6097049659327933e+01
        6.2500000000000000e+01 6.2500000000000000e+01
        6.2500000000000000e+01 6.2500000000000000e+01
        6.2500000000000000e+01 6.2500000000000000e+01
        6.2500000000000000e+01 6.2500000000000000e+01
        6.2500000000000000e+01 6.2500000000000000e+01
        6.2500000000000000e+01 6.2500000000000000e+01
        6.2500000000000000e+01 6.2500000000000000e+01
        6.2500000000000000e+01 6.2500000000000000e+01
        6.2500000000000000e+01 6.2500000000000000e+01
        6.2500000000000000e+01 5.8905309363367671e+01
        6.2500000000000000e+01 6.2500000000000000e+01
        6.2500000000000000e+01 6.2500000000000000e+01
        6.2500000000000000e+01 6.2500000000000000e+01
        6.2500000000000000e+01 6.2500000000000000e+01
        6.2500000000000000e+01 6.2500000000000000e+01
        6.2500000000000000e+01 6.2500000000000000e+01
        6.2500000000000000e+01 6.2500000000000000e+01
        6.2500000000000000e+01 6.2500000000000000e+01
        6.2500000000000000e+01 6.2500000000000000e+01
        6.2500000000000000e+01 6.2500000000000000e+01
        6.2500000000000000e+01 6.2500000000000000e+01
        6.2500000000000000e+01 6.2500000000000000e+01
        6.2500000000000000e+01 6.2500000000000000e+01
        6.2500000000000000e+01 6.2500000000000000e+01
        6.2500000000000000e+01 6.2500000000000000e+01
        6.2500000000000000e+01 6.2500000000000000e+01
        6.2500000000000000e+01 6.2500000000000000e+01
        6.2500000000000000e+01 6.2500000000000000e+01
        6.2500000000000000e+01 6.2500000000000000e+01
        6.2500000000000000e+01 6.2500000000000000e+01
        6.2500000000000000e+01 6.2500000000000000e+01
        6.2500000000000000e+01 6.2500000000000000e+01
        6.2500000000000000e+01 6.2500000000000000e+01
        6.2500000000000000e+01 6.2500000000000000e+01
        6.2500000000000000e+01 6.2500000000000000e+01
        6.2500000000000000e+01 6.2500000000000000e+01
        6.2500000000000000e+01 6.2500000000000000e+01
        6.2500000000000000e+01 6.2500000000000000e+01
        6.2500000000000000e+01 6.2500000000000000e+01
        6.2500000000000000e+01 6.2500000000000000e+01
        6.2500000000000000e+01 6.2500000000000000e+01
