<?xml version="1.0"?>
<opencv_storage>
<opencv_ml_boost>
  <format>3</format>
  <is_classifier>1</is_classifier>
  <var_all>301</var_all>
  <var_count>300</var_count>
  <ord_var_count>300</ord_var_count>
  <cat_var_count>1</cat_var_count>
  <training_params>
    <boosting_type>RealAdaboost</boosting_type>
    <use_surrogates>0</use_surrogates>
    <max_categories>10</max_categories>
    <regression_accuracy>9.9999997764825821e-03</regression_accuracy>
    <max_depth>1</max_depth>
    <min_sample_count>10</min_sample_count>
    <cross_validation_folds>0</cross_validation_folds>
    <weight_trimming_rate>9.4999999999999996e-01</weight_trimming_rate></training_params>
  <global_var_idx>1</global_var_idx>
  <var_idx>
    0 1 2 3 4 5 6 7 8 9 10 11 12 13 14 15 16 17 18 19 20 21 22 23 24 25
    26 27 28 29 30 31 32 33 34 35 36 37 38 39 40 41 42 43 44 45 46 47 48
    49 50 51 52 53 54 55 56 57 58 59 60 61 62 63 64 65 66 67 68 69 70 71
    72 73 74 75 76 77 78 79 80 81 82 83 84 85 86 87 88 89 90 91 92 93 94
    95 96 97 98 99 100 101 102 103 104 105 106 107 108 109 110 111 112
    113 114 115 116 117 118 119 120 121 122 123 124 125 126 127 128 129
    130 131 132 133 134 135 136 137 138 139 140 141 142 143 144 145 146
    147 148 149 150 151 152 153 154 155 156 157 158 159 160 161 162 163
    164 165 166 167 168 169 170 171 172 173 174 175 176 177 178 179 180
    181 182 183 184 185 186 187 188 189 190 191 192 193 194 195 196 197
    198 199 200 201 202 203 204 205 206 207 208 209 210 211 212 213 214
    215 216 217 218 219 220 221 222 223 224 225 226 227 228 229 230 231
    232 233 234 235 236 237 238 239 240 241 242 243 244 245 246 247 248
    249 250 251 252 253 254 255 256 257 258 259 260 261 262 263 264 265
    266 267 268 269 270 271 272 273 274 275 276 277 278 279 280 281 282
    283 284 285 286 287 288 289 290 291 292 293 294 295 296 297 298 299</var_idx>
  <var_type>
    0 0 0 0 0 0 0 0 0 0 0 0 0 0 0 0 0 0 0 0 0 0 0 0 0 0 0 0 0 0 0 0 0 0
    0 0 0 0 0 0 0 0 0 0 0 0 0 0 0 0 0 0 0 0 0 0 0 0 0 0 0 0 0 0 0 0 0 0
    0 0 0 0 0 0 0 0 0 0 0 0 0 0 0 0 0 0 0 0 0 0 0 0 0 0 0 0 0 0 0 0 0 0
    0 0 0 0 0 0 0 0 0 0 0 0 0 0 0 0 0 0 0 0 0 0 0 0 0 0 0 0 0 0 0 0 0 0
    0 0 0 0 0 0 0 0 0 0 0 0 0 0 0 0 0 0 0 0 0 0 0 0 0 0 0 0 0 0 0 0 0 0
    0 0 0 0 0 0 0 0 0 0 0 0 0 0 0 0 0 0 0 0 0 0 0 0 0 0 0 0 0 0 0 0 0 0
    0 0 0 0 0 0 0 0 0 0 0 0 0 0 0 0 0 0 0 0 0 0 0 0 0 0 0 0 0 0 0 0 0 0
    0 0 0 0 0 0 0 0 0 0 0 0 0 0 0 0 0 0 0 0 0 0 0 0 0 0 0 0 0 0 0 0 0 0
    0 0 0 0 0 0 0 0 0 0 0 0 0 0 0 0 0 0 0 0 0 0 0 0 0 0 0 0 1</var_type>
  <cat_ofs>
    0 0 0 0 0 0 0 0 0 0 0 0 0 0 0 0 0 0 0 0 0 0 0 0 0 0 0 0 0 0 0 0 0 0
    0 0 0 0 0 0 0 0 0 0 0 0 0 0 0 0 0 0 0 0 0 0 0 0 0 0 0 0 0 0 0 0 0 0
    0 0 0 0 0 0 0 0 0 0 0 0 0 0 0 0 0 0 0 0 0 0 0 0 0 0 0 0 0 0 0 0 0 0
    0 0 0 0 0 0 0 0 0 0 0 0 0 0 0 0 0 0 0 0 0 0 0 0 0 0 0 0 0 0 0 0 0 0
    0 0 0 0 0 0 0 0 0 0 0 0 0 0 0 0 0 0 0 0 0 0 0 0 0 0 0 0 0 0 0 0 0 0
    0 0 0 0 0 0 0 0 0 0 0 0 0 0 0 0 0 0 0 0 0 0 0 0 0 0 0 0 0 0 0 0 0 0
    0 0 0 0 0 0 0 0 0 0 0 0 0 0 0 0 0 0 0 0 0 0 0 0 0 0 0 0 0 0 0 0 0 0
    0 0 0 0 0 0 0 0 0 0 0 0 0 0 0 0 0 0 0 0 0 0 0 0 0 0 0 0 0 0 0 0 0 0
    0 0 0 0 0 0 0 0 0 0 0 0 0 0 0 0 0 0 0 0 0 0 0 0 0 0 0 0 0 0 0 0 0 0
    0 0 0 0 0 0 0 0 0 0 0 0 0 0 0 0 0 0 0 0 0 0 0 0 0 0 0 0 0 0 0 0 0 0
    0 0 0 0 0 0 0 0 0 0 0 0 0 0 0 0 0 0 0 0 0 0 0 0 0 0 0 0 0 0 0 0 0 0
    0 0 0 0 0 0 0 0 0 0 0 0 0 0 0 0 0 0 0 0 0 0 0 0 0 0 0 0 0 0 0 0 0 0
    0 0 0 0 0 0 0 0 0 0 0 0 0 0 0 0 0 0 0 0 0 0 0 0 0 0 0 0 0 0 0 0 0 0
    0 0 0 0 0 0 0 0 0 0 0 0 0 0 0 0 0 0 0 0 0 0 0 0 0 0 0 0 0 0 0 0 0 0
    0 0 0 0 0 0 0 0 0 0 0 0 0 0 0 0 0 0 0 0 0 0 0 0 0 0 0 0 0 0 0 0 0 0
    0 0 0 0 0 0 0 0 0 0 0 0 0 0 0 0 0 0 0 0 0 0 0 0 0 0 0 0 0 0 0 0 0 0
    0 0 0 0 0 0 0 0 0 0 0 0 0 0 0 0 0 0 0 0 0 0 0 0 0 0 0 0 0 0 0 0 0 0
    0 0 0 0 0 0 0 0 0 0 0 0 0 0 0 0 0 0 0 0 0 0</cat_ofs>
  <class_labels>
    0 1</class_labels>
  <missing_subst>
    0. 0. 0. 0. 0. 0. 0. 0. 0. 0. 0. 0. 0. 0. 0. 0. 0. 0. 0. 0. 0. 0. 0.
    0. 0. 0. 0. 0. 0. 0. 0. 0. 0. 0. 0. 0. 0. 0. 0. 0. 0. 0. 0. 0. 0. 0.
    0. 0. 0. 0. 0. 0. 0. 0. 0. 0. 0. 0. 0. 0. 0. 0. 0. 0. 0. 0. 0. 0. 0.
    0. 0. 0. 0. 0. 0. 0. 0. 0. 0. 0. 0. 0. 0. 0. 0. 0. 0. 0. 0. 0. 0. 0.
    0. 0. 0. 0. 0. 0. 0. 0. 0. 0. 0. 0. 0. 0. 0. 0. 0. 0. 0. 0. 0. 0. 0.
    0. 0. 0. 0. 0. 0. 0. 0. 0. 0. 0. 0. 0. 0. 0. 0. 0. 0. 0. 0. 0. 0. 0.
    0. 0. 0. 0. 0. 0. 0. 0. 0. 0. 0. 0. 0. 0. 0. 0. 0. 0. 0. 0. 0. 0. 0.
    0. 0. 0. 0. 0. 0. 0. 0. 0. 0. 0. 0. 0. 0. 0. 0. 0. 0. 0. 0. 0. 0. 0.
    0. 0. 0. 0. 0. 0. 0. 0. 0. 0. 0. 0. 0. 0. 0. 0. 0. 0. 0. 0. 0. 0. 0.
    0. 0. 0. 0. 0. 0. 0. 0. 0. 0. 0. 0. 0. 0. 0. 0. 0. 0. 0. 0. 0. 0. 0.
    0. 0. 0. 0. 0. 0. 0. 0. 0. 0. 0. 0. 0. 0. 0. 0. 0. 0. 0. 0. 0. 0. 0.
    0. 0. 0. 0. 0. 0. 0. 0. 0. 0. 0. 0. 0. 0. 0. 0. 0. 0. 0. 0. 0. 0. 0.
    0. 0. 0. 0. 0. 0. 0. 0. 0. 0. 0. 0. 0. 0. 0. 0. 0. 0. 0. 0. 0. 0. 0.
    0. 0.</missing_subst>
  <ntrees>100</ntrees>
  <trees>
    <_>
      <nodes>
        <_>
          <depth>0</depth>
          <value>0.</value>
          <splits>
            <_><var>3</var>
              <quality>4.7099247574806213e-02</quality>
              <le>2.8561321087181568e-03</le></_></splits></_>
        <_>
          <depth>1</depth>
          <value>1.4321564527506886e-01</value></_>
        <_>
          <depth>1</depth>
          <value>-3.4407981952445305e-01</value></_></nodes></_>
    <_>
      <nodes>
        <_>
          <depth>0</depth>
          <value>3.5707903173369040e-09</value>
          <splits>
            <_><var>65</var>
              <quality>3.2172501087188721e-02</quality>
              <le>3.4796429099515080e-04</le></_></splits></_>
        <_>
          <depth>1</depth>
          <value>-3.3423238805039346e-01</value></_>
        <_>
          <depth>1</depth>
          <value>1.0014931999368744e-01</value></_></nodes></_>
    <_>
      <nodes>
        <_>
          <depth>0</depth>
          <value>2.7158040146086984e-02</value>
          <splits>
            <_><var>247</var>
              <quality>2.8187321498990059e-02</quality>
              <le>4.8115509562194347e-03</le></_></splits></_>
        <_>
          <depth>1</depth>
          <value>1.3105066476401583e-01</value></_>
        <_>
          <depth>1</depth>
          <value>-2.5155048787852374e-01</value></_></nodes></_>
    <_>
      <nodes>
        <_>
          <depth>0</depth>
          <value>4.6858736671123965e-09</value>
          <splits>
            <_><var>192</var>
              <quality>2.3462956771254539e-02</quality>
              <le>4.4469162821769714e-03</le></_></splits></_>
        <_>
          <depth>1</depth>
          <value>8.7205550309755173e-02</value></_>
        <_>
          <depth>1</depth>
          <value>-2.8480497842621494e-01</value></_></nodes></_>
    <_>
      <nodes>
        <_>
          <depth>0</depth>
          <value>-3.2572918735948699e-03</value>
          <splits>
            <_><var>191</var>
              <quality>2.6610421016812325e-02</quality>
              <le>1.1829674243927002e-02</le></_></splits></_>
        <_>
          <depth>1</depth>
          <value>3.2073417562430769e-02</value></_>
        <_>
          <depth>1</depth>
          <value>-1.0341307625453242e+00</value></_></nodes></_>
    <_>
      <nodes>
        <_>
          <depth>0</depth>
          <value>1.4237803351622251e-02</value>
          <splits>
            <_><var>282</var>
              <quality>2.1723562851548195e-02</quality>
              <le>3.6264762748032808e-03</le></_></splits></_>
        <_>
          <depth>1</depth>
          <value>1.4223470207855604e-01</value></_>
        <_>
          <depth>1</depth>
          <value>-1.6355525167819673e-01</value></_></nodes></_>
    <_>
      <nodes>
        <_>
          <depth>0</depth>
          <value>-1.4483161092966988e-02</value>
          <splits>
            <_><var>266</var>
              <quality>2.1447379142045975e-02</quality>
              <le>7.0159113965928555e-04</le></_></splits></_>
        <_>
          <depth>1</depth>
          <value>-3.2821238503763966e-01</value></_>
        <_>
          <depth>1</depth>
          <value>5.7793092136726384e-02</value></_></nodes></_>
    <_>
      <nodes>
        <_>
          <depth>0</depth>
          <value>4.2959922836105346e-03</value>
          <splits>
            <_><var>27</var>
              <quality>1.8179235979914665e-02</quality>
              <le>3.4686385188251734e-03</le></_></splits></_>
        <_>
          <depth>1</depth>
          <value>-1.0718417800276911e-01</value></_>
        <_>
          <depth>1</depth>
          <value>1.7483309014335249e-01</value></_></nodes></_>
    <_>
      <nodes>
        <_>
          <depth>0</depth>
          <value>-1.0550166371744394e-02</value>
          <splits>
            <_><var>232</var>
              <quality>1.8054082989692688e-02</quality>
              <le>3.5949684679508209e-03</le></_></splits></_>
        <_>
          <depth>1</depth>
          <value>1.2002044689708054e-01</value></_>
        <_>
          <depth>1</depth>
          <value>-1.5263494076741421e-01</value></_></nodes></_>
    <_>
      <nodes>
        <_>
          <depth>0</depth>
          <value>-1.2805645825800347e-02</value>
          <splits>
            <_><var>34</var>
              <quality>1.8374299630522728e-02</quality>
              <le>5.8651529252529144e-03</le></_></splits></_>
        <_>
          <depth>1</depth>
          <value>2.9829205224941622e-02</value></_>
        <_>
          <depth>1</depth>
          <value>-5.0049826401633690e-01</value></_></nodes></_>
    <_>
      <nodes>
        <_>
          <depth>0</depth>
          <value>4.1636484871133920e-03</value>
          <splits>
            <_><var>180</var>
              <quality>1.5769183635711670e-02</quality>
              <le>2.9607713222503662e-03</le></_></splits></_>
        <_>
          <depth>1</depth>
          <value>-1.2443510756099870e-01</value></_>
        <_>
          <depth>1</depth>
          <value>1.3438585850439330e-01</value></_></nodes></_>
    <_>
      <nodes>
        <_>
          <depth>0</depth>
          <value>-1.0326136647765700e-02</value>
          <splits>
            <_><var>90</var>
              <quality>1.4365168288350105e-02</quality>
              <le>5.6777885183691978e-03</le></_></splits></_>
        <_>
          <depth>1</depth>
          <value>-8.3843432213737148e-02</value></_>
        <_>
          <depth>1</depth>
          <value>1.9697542975441759e-01</value></_></nodes></_>
    <_>
      <nodes>
        <_>
          <depth>0</depth>
          <value>1.6132245188501634e-02</value>
          <splits>
            <_><var>117</var>
              <quality>1.6227239742875099e-02</quality>
              <le>1.9990010187029839e-03</le></_></splits></_>
        <_>
          <depth>1</depth>
          <value>-8.2167007924129926e-02</value></_>
        <_>
          <depth>1</depth>
          <value>1.8927717974137334e-01</value></_></nodes></_>
    <_>
      <nodes>
        <_>
          <depth>0</depth>
          <value>-2.3224715876197614e-02</value>
          <splits>
            <_><var>237</var>
              <quality>1.3242228887975216e-02</quality>
              <le>4.0140501223504543e-03</le></_></splits></_>
        <_>
          <depth>1</depth>
          <value>5.3374806849389507e-02</value></_>
        <_>
          <depth>1</depth>
          <value>-2.0094955098352002e-01</value></_></nodes></_>
    <_>
      <nodes>
        <_>
          <depth>0</depth>
          <value>1.1596671908942813e-02</value>
          <splits>
            <_><var>190</var>
              <quality>1.4125774614512920e-02</quality>
              <le>4.0227966383099556e-03</le></_></splits></_>
        <_>
          <depth>1</depth>
          <value>1.1675159388931404e-01</value></_>
        <_>
          <depth>1</depth>
          <value>-1.2997482967383600e-01</value></_></nodes></_>
    <_>
      <nodes>
        <_>
          <depth>0</depth>
          <value>1.1777450962093667e-03</value>
          <splits>
            <_><var>101</var>
              <quality>1.1957869865000248e-02</quality>
              <le>3.2590990886092186e-03</le></_></splits></_>
        <_>
          <depth>1</depth>
          <value>-1.2921546353977922e-01</value></_>
        <_>
          <depth>1</depth>
          <value>9.8557687788645473e-02</value></_></nodes></_>
    <_>
      <nodes>
        <_>
          <depth>0</depth>
          <value>-6.6103168318838073e-03</value>
          <splits>
            <_><var>6</var>
              <quality>1.4623102732002735e-02</quality>
              <le>1.4776507159695029e-03</le></_></splits></_>
        <_>
          <depth>1</depth>
          <value>-1.8477745943746224e-01</value></_>
        <_>
          <depth>1</depth>
          <value>8.0709622628990368e-02</value></_></nodes></_>
    <_>
      <nodes>
        <_>
          <depth>0</depth>
          <value>2.3040573317561816e-04</value>
          <splits>
            <_><var>231</var>
              <quality>1.1321325786411762e-02</quality>
              <le>2.4321042001247406e-03</le></_></splits></_>
        <_>
          <depth>1</depth>
          <value>1.4363738798311421e-01</value></_>
        <_>
          <depth>1</depth>
          <value>-8.3652279370090524e-02</value></_></nodes></_>
    <_>
      <nodes>
        <_>
          <depth>0</depth>
          <value>1.0845700824336098e-03</value>
          <splits>
            <_><var>52</var>
              <quality>1.2470946647226810e-02</quality>
              <le>4.2120045982301235e-03</le></_></splits></_>
        <_>
          <depth>1</depth>
          <value>-6.9093456550706256e-02</value></_>
        <_>
          <depth>1</depth>
          <value>1.9061977939303995e-01</value></_></nodes></_>
    <_>
      <nodes>
        <_>
          <depth>0</depth>
          <value>-2.5872440929548238e-04</value>
          <splits>
            <_><var>60</var>
              <quality>1.1390537954866886e-02</quality>
              <le>2.0844195969402790e-03</le></_></splits></_>
        <_>
          <depth>1</depth>
          <value>1.2903412639099368e-01</value></_>
        <_>
          <depth>1</depth>
          <value>-9.3800116710178738e-02</value></_></nodes></_>
    <_>
      <nodes>
        <_>
          <depth>0</depth>
          <value>-4.0022961689902816e-03</value>
          <splits>
            <_><var>143</var>
              <quality>1.4721224084496498e-02</quality>
              <le>1.7263706540688872e-03</le></_></splits></_>
        <_>
          <depth>1</depth>
          <value>-1.3738370614691039e-01</value></_>
        <_>
          <depth>1</depth>
          <value>1.1331474786285863e-01</value></_></nodes></_>
    <_>
      <nodes>
        <_>
          <depth>0</depth>
          <value>3.7449170268656780e-03</value>
          <splits>
            <_><var>281</var>
              <quality>1.1634439229965210e-02</quality>
              <le>5.8105774223804474e-03</le></_></splits></_>
        <_>
          <depth>1</depth>
          <value>-3.9251728137442918e-02</value></_>
        <_>
          <depth>1</depth>
          <value>2.9686430876017295e-01</value></_></nodes></_>
    <_>
      <nodes>
        <_>
          <depth>0</depth>
          <value>-9.2085059604472448e-03</value>
          <splits>
            <_><var>103</var>
              <quality>1.1257347650825977e-02</quality>
              <le>2.5537349283695221e-03</le></_></splits></_>
        <_>
          <depth>1</depth>
          <value>9.2727075117500293e-02</value></_>
        <_>
          <depth>1</depth>
          <value>-1.2559793439878678e-01</value></_></nodes></_>
    <_>
      <nodes>
        <_>
          <depth>0</depth>
          <value>9.6372928636943214e-03</value>
          <splits>
            <_><var>103</var>
              <quality>1.2521939352154732e-02</quality>
              <le>1.0935604572296143e-02</le></_></splits></_>
        <_>
          <depth>1</depth>
          <value>-1.2022317389005685e-02</value></_>
        <_>
          <depth>1</depth>
          <value>7.1524872943030660e-01</value></_></nodes></_>
    <_>
      <nodes>
        <_>
          <depth>0</depth>
          <value>-3.1200813744531250e-03</value>
          <splits>
            <_><var>259</var>
              <quality>1.3041039928793907e-02</quality>
              <le>9.6142161637544632e-03</le></_></splits></_>
        <_>
          <depth>1</depth>
          <value>1.6072323884893519e-02</value></_>
        <_>
          <depth>1</depth>
          <value>-9.0364555567718052e-01</value></_></nodes></_>
    <_>
      <nodes>
        <_>
          <depth>0</depth>
          <value>2.7881137058422675e-03</value>
          <splits>
            <_><var>41</var>
              <quality>1.0958388447761536e-02</quality>
              <le>9.7363097593188286e-03</le></_></splits></_>
        <_>
          <depth>1</depth>
          <value>2.4592689258288874e-02</value></_>
        <_>
          <depth>1</depth>
          <value>-5.8464092172156579e-01</value></_></nodes></_>
    <_>
      <nodes>
        <_>
          <depth>0</depth>
          <value>1.3291566412735416e-03</value>
          <splits>
            <_><var>163</var>
              <quality>1.0500594042241573e-02</quality>
              <le>6.9492738693952560e-03</le></_></splits></_>
        <_>
          <depth>1</depth>
          <value>2.6323070589150219e-02</value></_>
        <_>
          <depth>1</depth>
          <value>-4.7318618913307009e-01</value></_></nodes></_>
    <_>
      <nodes>
        <_>
          <depth>0</depth>
          <value>8.6171236789750949e-04</value>
          <splits>
            <_><var>95</var>
              <quality>1.1369983665645123e-02</quality>
              <le>3.3388992305845022e-03</le></_></splits></_>
        <_>
          <depth>1</depth>
          <value>-6.9336795246455557e-02</value></_>
        <_>
          <depth>1</depth>
          <value>1.7336492606917503e-01</value></_></nodes></_>
    <_>
      <nodes>
        <_>
          <depth>0</depth>
          <value>-2.6722446227043736e-03</value>
          <splits>
            <_><var>235</var>
              <quality>1.1147146113216877e-02</quality>
              <le>3.8436916656792164e-03</le></_></splits></_>
        <_>
          <depth>1</depth>
          <value>6.9094246473092591e-02</value></_>
        <_>
          <depth>1</depth>
          <value>-1.6790689021040184e-01</value></_></nodes></_>
    <_>
      <nodes>
        <_>
          <depth>0</depth>
          <value>2.1115980385604926e-03</value>
          <splits>
            <_><var>101</var>
              <quality>1.1341617442667484e-02</quality>
              <le>9.1813374310731888e-03</le></_></splits></_>
        <_>
          <depth>1</depth>
          <value>-5.1602225632540862e-02</value></_>
        <_>
          <depth>1</depth>
          <value>2.2840464485958722e-01</value></_></nodes></_>
    <_>
      <nodes>
        <_>
          <depth>0</depth>
          <value>-1.7234998000603676e-03</value>
          <splits>
            <_><var>79</var>
              <quality>1.0908128693699837e-02</quality>
              <le>1.8170140683650970e-02</le></_></splits></_>
        <_>
          <depth>1</depth>
          <value>5.3010801975774430e-02</value></_>
        <_>
          <depth>1</depth>
          <value>-2.1493446146390735e-01</value></_></nodes></_>
    <_>
      <nodes>
        <_>
          <depth>0</depth>
          <value>2.1184549415727240e-03</value>
          <splits>
            <_><var>138</var>
              <quality>1.1018675751984119e-02</quality>
              <le>1.4870094135403633e-02</le></_></splits></_>
        <_>
          <depth>1</depth>
          <value>-2.6376738343471137e-02</value></_>
        <_>
          <depth>1</depth>
          <value>4.3454764786382394e-01</value></_></nodes></_>
    <_>
      <nodes>
        <_>
          <depth>0</depth>
          <value>-1.7688004070038905e-04</value>
          <splits>
            <_><var>77</var>
              <quality>9.3980832025408745e-03</quality>
              <le>2.0356238819658756e-03</le></_></splits></_>
        <_>
          <depth>1</depth>
          <value>-1.0997071434461220e-01</value></_>
        <_>
          <depth>1</depth>
          <value>9.0538652719961060e-02</value></_></nodes></_>
    <_>
      <nodes>
        <_>
          <depth>0</depth>
          <value>-2.1074716779557888e-03</value>
          <splits>
            <_><var>5</var>
              <quality>9.5959799364209175e-03</quality>
              <le>1.7652374226599932e-03</le></_></splits></_>
        <_>
          <depth>1</depth>
          <value>-9.5534175150398387e-02</value></_>
        <_>
          <depth>1</depth>
          <value>1.0670392344016852e-01</value></_></nodes></_>
    <_>
      <nodes>
        <_>
          <depth>0</depth>
          <value>3.5724362428655803e-04</value>
          <splits>
            <_><var>71</var>
              <quality>1.0133975185453892e-02</quality>
              <le>4.0913745760917664e-03</le></_></splits></_>
        <_>
          <depth>1</depth>
          <value>-8.2428320436153585e-02</value></_>
        <_>
          <depth>1</depth>
          <value>1.3025792578613457e-01</value></_></nodes></_>
    <_>
      <nodes>
        <_>
          <depth>0</depth>
          <value>4.8073762274782224e-04</value>
          <splits>
            <_><var>3</var>
              <quality>1.0127737186849117e-02</quality>
              <le>3.9580821990966797e-02</le></_></splits></_>
        <_>
          <depth>1</depth>
          <value>-1.3881474122406305e-02</value></_>
        <_>
          <depth>1</depth>
          <value>9.5695891183852011e-01</value></_></nodes></_>
    <_>
      <nodes>
        <_>
          <depth>0</depth>
          <value>-8.1029386361023849e-05</value>
          <splits>
            <_><var>65</var>
              <quality>1.0018398985266685e-02</quality>
              <le>1.4347467571496964e-02</le></_></splits></_>
        <_>
          <depth>1</depth>
          <value>-1.2743174146204277e-02</value></_>
        <_>
          <depth>1</depth>
          <value>1.1975287227743365e+00</value></_></nodes></_>
    <_>
      <nodes>
        <_>
          <depth>0</depth>
          <value>-1.2736073566058167e-03</value>
          <splits>
            <_><var>11</var>
              <quality>1.0620610788464546e-02</quality>
              <le>1.5105775091797113e-03</le></_></splits></_>
        <_>
          <depth>1</depth>
          <value>-1.1355227494413279e-01</value></_>
        <_>
          <depth>1</depth>
          <value>9.9042245889751648e-02</value></_></nodes></_>
    <_>
      <nodes>
        <_>
          <depth>0</depth>
          <value>-3.3543880676385356e-03</value>
          <splits>
            <_><var>28</var>
              <quality>1.1042753234505653e-02</quality>
              <le>1.2854850850999355e-02</le></_></splits></_>
        <_>
          <depth>1</depth>
          <value>-1.9320799918955741e-02</value></_>
        <_>
          <depth>1</depth>
          <value>9.1629534637253029e-01</value></_></nodes></_>
    <_>
      <nodes>
        <_>
          <depth>0</depth>
          <value>3.5150259517919228e-03</value>
          <splits>
            <_><var>214</var>
              <quality>1.0121482424438000e-02</quality>
              <le>6.3241142779588699e-03</le></_></splits></_>
        <_>
          <depth>1</depth>
          <value>6.2960306650277242e-02</value></_>
        <_>
          <depth>1</depth>
          <value>-1.7763785859210299e-01</value></_></nodes></_>
    <_>
      <nodes>
        <_>
          <depth>0</depth>
          <value>-5.0612707996878226e-03</value>
          <splits>
            <_><var>127</var>
              <quality>1.1426497250795364e-02</quality>
              <le>4.3811663053929806e-03</le></_></splits></_>
        <_>
          <depth>1</depth>
          <value>-1.2347635375515383e-01</value></_>
        <_>
          <depth>1</depth>
          <value>9.7142196576975717e-02</value></_></nodes></_>
    <_>
      <nodes>
        <_>
          <depth>0</depth>
          <value>6.4777271369203023e-03</value>
          <splits>
            <_><var>164</var>
              <quality>1.0820033028721809e-02</quality>
              <le>1.7513188067823648e-03</le></_></splits></_>
        <_>
          <depth>1</depth>
          <value>-9.8932666100396999e-02</value></_>
        <_>
          <depth>1</depth>
          <value>1.1498123423318535e-01</value></_></nodes></_>
    <_>
      <nodes>
        <_>
          <depth>0</depth>
          <value>-1.6284700430776553e-03</value>
          <splits>
            <_><var>46</var>
              <quality>1.0199422016739845e-02</quality>
              <le>3.0919432174414396e-04</le></_></splits></_>
        <_>
          <depth>1</depth>
          <value>2.7393200700632775e-01</value></_>
        <_>
          <depth>1</depth>
          <value>-4.1573625467245058e-02</value></_></nodes></_>
    <_>
      <nodes>
        <_>
          <depth>0</depth>
          <value>1.1575497560148819e-03</value>
          <splits>
            <_><var>287</var>
              <quality>1.0655581951141357e-02</quality>
              <le>1.0875864885747433e-02</le></_></splits></_>
        <_>
          <depth>1</depth>
          <value>1.9280918619517477e-02</value></_>
        <_>
          <depth>1</depth>
          <value>-7.2142647803358873e-01</value></_></nodes></_>
    <_>
      <nodes>
        <_>
          <depth>0</depth>
          <value>-2.6071463409792087e-04</value>
          <splits>
            <_><var>246</var>
              <quality>1.0428029112517834e-02</quality>
              <le>1.9782567396759987e-03</le></_></splits></_>
        <_>
          <depth>1</depth>
          <value>9.9032960449998264e-02</value></_>
        <_>
          <depth>1</depth>
          <value>-1.1164217262026679e-01</value></_></nodes></_>
    <_>
      <nodes>
        <_>
          <depth>0</depth>
          <value>1.6916599121225009e-03</value>
          <splits>
            <_><var>92</var>
              <quality>1.1781915090978146e-02</quality>
              <le>4.6421671286225319e-03</le></_></splits></_>
        <_>
          <depth>1</depth>
          <value>8.6328920891983629e-02</value></_>
        <_>
          <depth>1</depth>
          <value>-1.4623908809046859e-01</value></_></nodes></_>
    <_>
      <nodes>
        <_>
          <depth>0</depth>
          <value>-3.0862128529703992e-03</value>
          <splits>
            <_><var>296</var>
              <quality>1.1397991329431534e-02</quality>
              <le>9.1208349913358688e-03</le></_></splits></_>
        <_>
          <depth>1</depth>
          <value>4.1971389864148237e-02</value></_>
        <_>
          <depth>1</depth>
          <value>-2.7615458071947707e-01</value></_></nodes></_>
    <_>
      <nodes>
        <_>
          <depth>0</depth>
          <value>2.4615624697774409e-03</value>
          <splits>
            <_><var>264</var>
              <quality>1.0947066359221935e-02</quality>
              <le>5.3670955821871758e-03</le></_></splits></_>
        <_>
          <depth>1</depth>
          <value>5.0763743255839155e-02</value></_>
        <_>
          <depth>1</depth>
          <value>-2.4076822044872517e-01</value></_></nodes></_>
    <_>
      <nodes>
        <_>
          <depth>0</depth>
          <value>-2.0905715188529370e-03</value>
          <splits>
            <_><var>258</var>
              <quality>9.5377648249268532e-03</quality>
              <le>1.4858841313980520e-04</le></_></splits></_>
        <_>
          <depth>1</depth>
          <value>-1.4657645039896905e-01</value></_>
        <_>
          <depth>1</depth>
          <value>6.7985231793812412e-02</value></_></nodes></_>
    <_>
      <nodes>
        <_>
          <depth>0</depth>
          <value>8.6106291215605675e-04</value>
          <splits>
            <_><var>208</var>
              <quality>9.0308049693703651e-03</quality>
              <le>1.3477700995281339e-03</le></_></splits></_>
        <_>
          <depth>1</depth>
          <value>1.5056462443782259e-01</value></_>
        <_>
          <depth>1</depth>
          <value>-6.3208543495395397e-02</value></_></nodes></_>
    <_>
      <nodes>
        <_>
          <depth>0</depth>
          <value>-1.3544907571067741e-03</value>
          <splits>
            <_><var>9</var>
              <quality>1.0374505072832108e-02</quality>
              <le>6.5430831164121628e-03</le></_></splits></_>
        <_>
          <depth>1</depth>
          <value>2.1138760244914848e-02</value></_>
        <_>
          <depth>1</depth>
          <value>-5.3191907756324430e-01</value></_></nodes></_>
    <_>
      <nodes>
        <_>
          <depth>0</depth>
          <value>1.1899605434320967e-03</value>
          <splits>
            <_><var>68</var>
              <quality>9.1072143986821175e-03</quality>
              <le>1.3204433955252171e-02</le></_></splits></_>
        <_>
          <depth>1</depth>
          <value>-2.1871083673498992e-02</value></_>
        <_>
          <depth>1</depth>
          <value>4.4393899724943009e-01</value></_></nodes></_>
    <_>
      <nodes>
        <_>
          <depth>0</depth>
          <value>-9.9928982774515193e-04</value>
          <splits>
            <_><var>274</var>
              <quality>9.4592859968543053e-03</quality>
              <le>2.5201942771673203e-02</le></_></splits></_>
        <_>
          <depth>1</depth>
          <value>2.0515617356772174e-02</value></_>
        <_>
          <depth>1</depth>
          <value>-5.0221300176498618e-01</value></_></nodes></_>
    <_>
      <nodes>
        <_>
          <depth>0</depth>
          <value>1.4694979970697288e-03</value>
          <splits>
            <_><var>220</var>
              <quality>9.3543762341141701e-03</quality>
              <le>3.3506187610328197e-03</le></_></splits></_>
        <_>
          <depth>1</depth>
          <value>9.3458049635460713e-02</value></_>
        <_>
          <depth>1</depth>
          <value>-1.0628432729615882e-01</value></_></nodes></_>
    <_>
      <nodes>
        <_>
          <depth>0</depth>
          <value>2.2910074587342589e-04</value>
          <splits>
            <_><var>36</var>
              <quality>1.1816024780273438e-02</quality>
              <le>5.3932596929371357e-03</le></_></splits></_>
        <_>
          <depth>1</depth>
          <value>8.5807604778881844e-02</value></_>
        <_>
          <depth>1</depth>
          <value>-1.4652111681263380e-01</value></_></nodes></_>
    <_>
      <nodes>
        <_>
          <depth>0</depth>
          <value>5.7081869359535211e-04</value>
          <splits>
            <_><var>268</var>
              <quality>8.2007478922605515e-03</quality>
              <le>7.2689158841967583e-03</le></_></splits></_>
        <_>
          <depth>1</depth>
          <value>2.5465365057058542e-02</value></_>
        <_>
          <depth>1</depth>
          <value>-3.6123026335548997e-01</value></_></nodes></_>
    <_>
      <nodes>
        <_>
          <depth>0</depth>
          <value>-1.0779941220372211e-03</value>
          <splits>
            <_><var>82</var>
              <quality>1.1697277426719666e-02</quality>
              <le>7.7394396066665649e-03</le></_></splits></_>
        <_>
          <depth>1</depth>
          <value>-3.1159083889990578e-02</value></_>
        <_>
          <depth>1</depth>
          <value>4.3362994451564779e-01</value></_></nodes></_>
    <_>
      <nodes>
        <_>
          <depth>0</depth>
          <value>-9.7434133113195149e-04</value>
          <splits>
            <_><var>7</var>
              <quality>9.0222517028450966e-03</quality>
              <le>3.9600087329745293e-03</le></_></splits></_>
        <_>
          <depth>1</depth>
          <value>5.0083799760600393e-02</value></_>
        <_>
          <depth>1</depth>
          <value>-1.8936581249757692e-01</value></_></nodes></_>
    <_>
      <nodes>
        <_>
          <depth>0</depth>
          <value>2.2137235671192846e-03</value>
          <splits>
            <_><var>99</var>
              <quality>9.2864530161023140e-03</quality>
              <le>3.0309171415865421e-03</le></_></splits></_>
        <_>
          <depth>1</depth>
          <value>-1.2154383385471274e-01</value></_>
        <_>
          <depth>1</depth>
          <value>8.1738981031442032e-02</value></_></nodes></_>
    <_>
      <nodes>
        <_>
          <depth>0</depth>
          <value>6.9424126604388306e-04</value>
          <splits>
            <_><var>276</var>
              <quality>8.6956601589918137e-03</quality>
              <le>1.3248737901449203e-02</le></_></splits></_>
        <_>
          <depth>1</depth>
          <value>-1.1253217398959750e-02</value></_>
        <_>
          <depth>1</depth>
          <value>1.0126247623696802e+00</value></_></nodes></_>
    <_>
      <nodes>
        <_>
          <depth>0</depth>
          <value>2.5014787794444120e-04</value>
          <splits>
            <_><var>58</var>
              <quality>9.2976409941911697e-03</quality>
              <le>4.9658613279461861e-03</le></_></splits></_>
        <_>
          <depth>1</depth>
          <value>-4.4240770843158958e-02</value></_>
        <_>
          <depth>1</depth>
          <value>2.2407896220239901e-01</value></_></nodes></_>
    <_>
      <nodes>
        <_>
          <depth>0</depth>
          <value>-9.1281806482000204e-04</value>
          <splits>
            <_><var>194</var>
              <quality>1.0836380533874035e-02</quality>
              <le>2.0141005516052246e-03</le></_></splits></_>
        <_>
          <depth>1</depth>
          <value>-1.9909963265804298e-01</value></_>
        <_>
          <depth>1</depth>
          <value>5.7467283882233607e-02</value></_></nodes></_>
    <_>
      <nodes>
        <_>
          <depth>0</depth>
          <value>-1.7484425344474594e-03</value>
          <splits>
            <_><var>217</var>
              <quality>8.2563608884811401e-03</quality>
              <le>1.0532387532293797e-02</le></_></splits></_>
        <_>
          <depth>1</depth>
          <value>-2.0562304668961934e-02</value></_>
        <_>
          <depth>1</depth>
          <value>4.9747498978839144e-01</value></_></nodes></_>
    <_>
      <nodes>
        <_>
          <depth>0</depth>
          <value>5.9327318716399216e-04</value>
          <splits>
            <_><var>173</var>
              <quality>9.7204009070992470e-03</quality>
              <le>3.0728016281500459e-04</le></_></splits></_>
        <_>
          <depth>1</depth>
          <value>-1.7302823727200045e-01</value></_>
        <_>
          <depth>1</depth>
          <value>6.0188883579018498e-02</value></_></nodes></_>
    <_>
      <nodes>
        <_>
          <depth>0</depth>
          <value>4.8458366240660349e-04</value>
          <splits>
            <_><var>256</var>
              <quality>8.6684944108128548e-03</quality>
              <le>4.9948235973715782e-03</le></_></splits></_>
        <_>
          <depth>1</depth>
          <value>-3.2654739130993295e-02</value></_>
        <_>
          <depth>1</depth>
          <value>2.8331897970282505e-01</value></_></nodes></_>
    <_>
      <nodes>
        <_>
          <depth>0</depth>
          <value>1.0344897312117214e-03</value>
          <splits>
            <_><var>181</var>
              <quality>7.7928919345140457e-03</quality>
              <le>6.6152228973805904e-03</le></_></splits></_>
        <_>
          <depth>1</depth>
          <value>-4.8322673731990722e-02</value></_>
        <_>
          <depth>1</depth>
          <value>1.6895316051880396e-01</value></_></nodes></_>
    <_>
      <nodes>
        <_>
          <depth>0</depth>
          <value>3.6405897936032055e-04</value>
          <splits>
            <_><var>262</var>
              <quality>9.4160493463277817e-03</quality>
              <le>1.0889328084886074e-02</le></_></splits></_>
        <_>
          <depth>1</depth>
          <value>4.9580804676733731e-02</value></_>
        <_>
          <depth>1</depth>
          <value>-2.0397723802405002e-01</value></_></nodes></_>
    <_>
      <nodes>
        <_>
          <depth>0</depth>
          <value>5.5182563832692575e-04</value>
          <splits>
            <_><var>162</var>
              <quality>8.3661209791898727e-03</quality>
              <le>1.8148880917578936e-03</le></_></splits></_>
        <_>
          <depth>1</depth>
          <value>1.1160781848212190e-01</value></_>
        <_>
          <depth>1</depth>
          <value>-7.9253164938353118e-02</value></_></nodes></_>
    <_>
      <nodes>
        <_>
          <depth>0</depth>
          <value>-1.5511722041439584e-03</value>
          <splits>
            <_><var>56</var>
              <quality>7.9946871846914291e-03</quality>
              <le>1.1039568111300468e-02</le></_></splits></_>
        <_>
          <depth>1</depth>
          <value>1.1113844827492768e-02</value></_>
        <_>
          <depth>1</depth>
          <value>-8.0344424888417076e-01</value></_></nodes></_>
    <_>
      <nodes>
        <_>
          <depth>0</depth>
          <value>2.3011078253452915e-04</value>
          <splits>
            <_><var>154</var>
              <quality>8.8189383968710899e-03</quality>
              <le>9.5211416482925415e-03</le></_></splits></_>
        <_>
          <depth>1</depth>
          <value>-1.5374093648278379e-02</value></_>
        <_>
          <depth>1</depth>
          <value>6.8570770052989183e-01</value></_></nodes></_>
    <_>
      <nodes>
        <_>
          <depth>0</depth>
          <value>-9.6925597856228028e-04</value>
          <splits>
            <_><var>0</var>
              <quality>8.3228759467601776e-03</quality>
              <le>1.7286097863689065e-03</le></_></splits></_>
        <_>
          <depth>1</depth>
          <value>1.0410855447590954e-01</value></_>
        <_>
          <depth>1</depth>
          <value>-8.4848565448221017e-02</value></_></nodes></_>
    <_>
      <nodes>
        <_>
          <depth>0</depth>
          <value>1.0615859895257344e-03</value>
          <splits>
            <_><var>244</var>
              <quality>8.7279696017503738e-03</quality>
              <le>1.3793759047985077e-02</le></_></splits></_>
        <_>
          <depth>1</depth>
          <value>1.1931020171253106e-02</value></_>
        <_>
          <depth>1</depth>
          <value>-1.2359227309231116e+00</value></_></nodes></_>
    <_>
      <nodes>
        <_>
          <depth>0</depth>
          <value>-1.3212327197721131e-03</value>
          <splits>
            <_><var>106</var>
              <quality>8.9344801381230354e-03</quality>
              <le>2.2984582930803299e-02</le></_></splits></_>
        <_>
          <depth>1</depth>
          <value>1.2993295739463683e-02</value></_>
        <_>
          <depth>1</depth>
          <value>-7.8976362122413579e-01</value></_></nodes></_>
    <_>
      <nodes>
        <_>
          <depth>0</depth>
          <value>8.2993634486450726e-04</value>
          <splits>
            <_><var>231</var>
              <quality>8.1991171464323997e-03</quality>
              <le>1.0899263434112072e-02</le></_></splits></_>
        <_>
          <depth>1</depth>
          <value>2.4146585143827722e-02</value></_>
        <_>
          <depth>1</depth>
          <value>-3.8772193071519001e-01</value></_></nodes></_>
    <_>
      <nodes>
        <_>
          <depth>0</depth>
          <value>-2.7330704564560522e-04</value>
          <splits>
            <_><var>130</var>
              <quality>8.3375303074717522e-03</quality>
              <le>1.3362368568778038e-02</le></_></splits></_>
        <_>
          <depth>1</depth>
          <value>-1.1117117795939923e-02</value></_>
        <_>
          <depth>1</depth>
          <value>1.1246496130158690e+00</value></_></nodes></_>
    <_>
      <nodes>
        <_>
          <depth>0</depth>
          <value>-3.4533269900850701e-04</value>
          <splits>
            <_><var>63</var>
              <quality>8.6737582460045815e-03</quality>
              <le>2.7149717789143324e-03</le></_></splits></_>
        <_>
          <depth>1</depth>
          <value>7.7880506841502758e-02</value></_>
        <_>
          <depth>1</depth>
          <value>-1.1785767323483499e-01</value></_></nodes></_>
    <_>
      <nodes>
        <_>
          <depth>0</depth>
          <value>1.2154042337781765e-03</value>
          <splits>
            <_><var>221</var>
              <quality>7.5857327319681644e-03</quality>
              <le>5.9553366154432297e-03</le></_></splits></_>
        <_>
          <depth>1</depth>
          <value>3.2056413668908025e-02</value></_>
        <_>
          <depth>1</depth>
          <value>-2.6372910687093243e-01</value></_></nodes></_>
    <_>
      <nodes>
        <_>
          <depth>0</depth>
          <value>-4.1336783360068939e-04</value>
          <splits>
            <_><var>196</var>
              <quality>7.4244048446416855e-03</quality>
              <le>1.2808418832719326e-02</le></_></splits></_>
        <_>
          <depth>1</depth>
          <value>-1.6178526476692965e-02</value></_>
        <_>
          <depth>1</depth>
          <value>5.4312177152855967e-01</value></_></nodes></_>
    <_>
      <nodes>
        <_>
          <depth>0</depth>
          <value>-2.4387806223509278e-04</value>
          <splits>
            <_><var>293</var>
              <quality>7.4550039134919643e-03</quality>
              <le>1.7196917906403542e-03</le></_></splits></_>
        <_>
          <depth>1</depth>
          <value>-9.5684295511643563e-02</value></_>
        <_>
          <depth>1</depth>
          <value>8.2422863194342402e-02</value></_></nodes></_>
    <_>
      <nodes>
        <_>
          <depth>0</depth>
          <value>4.2986315814251558e-04</value>
          <splits>
            <_><var>298</var>
              <quality>9.0947244316339493e-03</quality>
              <le>1.2774139642715454e-02</le></_></splits></_>
        <_>
          <depth>1</depth>
          <value>-2.2131378259924280e-02</value></_>
        <_>
          <depth>1</depth>
          <value>4.5364735253618388e-01</value></_></nodes></_>
    <_>
      <nodes>
        <_>
          <depth>0</depth>
          <value>-2.7461175179434396e-03</value>
          <splits>
            <_><var>206</var>
              <quality>8.3125000819563866e-03</quality>
              <le>8.6213313043117523e-03</le></_></splits></_>
        <_>
          <depth>1</depth>
          <value>1.4150904588643765e-02</value></_>
        <_>
          <depth>1</depth>
          <value>-5.7664534976874526e-01</value></_></nodes></_>
    <_>
      <nodes>
        <_>
          <depth>0</depth>
          <value>7.4811281151895620e-04</value>
          <splits>
            <_><var>39</var>
              <quality>9.2766592279076576e-03</quality>
              <le>1.0462082922458649e-02</le></_></splits></_>
        <_>
          <depth>1</depth>
          <value>-2.3514690743006109e-02</value></_>
        <_>
          <depth>1</depth>
          <value>4.2754915108244368e-01</value></_></nodes></_>
    <_>
      <nodes>
        <_>
          <depth>0</depth>
          <value>8.4362639444789881e-04</value>
          <splits>
            <_><var>239</var>
              <quality>8.1624845042824745e-03</quality>
              <le>1.1523989960551262e-02</le></_></splits></_>
        <_>
          <depth>1</depth>
          <value>1.8275162131405755e-02</value></_>
        <_>
          <depth>1</depth>
          <value>-5.3883897560232286e-01</value></_></nodes></_>
    <_>
      <nodes>
        <_>
          <depth>0</depth>
          <value>1.5567451410134427e-03</value>
          <splits>
            <_><var>212</var>
              <quality>8.4861237555742264e-03</quality>
              <le>8.6300801485776901e-03</le></_></splits></_>
        <_>
          <depth>1</depth>
          <value>-1.3687380324177465e-02</value></_>
        <_>
          <depth>1</depth>
          <value>6.7382300695914532e-01</value></_></nodes></_>
    <_>
      <nodes>
        <_>
          <depth>0</depth>
          <value>1.1627181437288564e-03</value>
          <splits>
            <_><var>72</var>
              <quality>9.2140929773449898e-03</quality>
              <le>9.5923813059926033e-03</le></_></splits></_>
        <_>
          <depth>1</depth>
          <value>1.5205862882558114e-02</value></_>
        <_>
          <depth>1</depth>
          <value>-8.4692879106216701e-01</value></_></nodes></_>
    <_>
      <nodes>
        <_>
          <depth>0</depth>
          <value>-4.7992745548816655e-04</value>
          <splits>
            <_><var>50</var>
              <quality>8.2129435613751411e-03</quality>
              <le>1.5345368534326553e-02</le></_></splits></_>
        <_>
          <depth>1</depth>
          <value>-1.5730100358704858e-02</value></_>
        <_>
          <depth>1</depth>
          <value>6.4233160226913710e-01</value></_></nodes></_>
    <_>
      <nodes>
        <_>
          <depth>0</depth>
          <value>1.5118279905951910e-04</value>
          <splits>
            <_><var>14</var>
              <quality>8.6994906887412071e-03</quality>
              <le>1.5408357605338097e-02</le></_></splits></_>
        <_>
          <depth>1</depth>
          <value>1.1193468219434436e-02</value></_>
        <_>
          <depth>1</depth>
          <value>-1.1858982122283974e+00</value></_></nodes></_>
    <_>
      <nodes>
        <_>
          <depth>0</depth>
          <value>-2.6398659819367522e-04</value>
          <splits>
            <_><var>29</var>
              <quality>7.3618805035948753e-03</quality>
              <le>4.2826747521758080e-03</le></_></splits></_>
        <_>
          <depth>1</depth>
          <value>7.3337805786080443e-02</value></_>
        <_>
          <depth>1</depth>
          <value>-1.0613544515133462e-01</value></_></nodes></_>
    <_>
      <nodes>
        <_>
          <depth>0</depth>
          <value>-2.4690814920660738e-03</value>
          <splits>
            <_><var>96</var>
              <quality>8.5971942171454430e-03</quality>
              <le>6.1999484896659851e-03</le></_></splits></_>
        <_>
          <depth>1</depth>
          <value>-4.1402986609110563e-02</value></_>
        <_>
          <depth>1</depth>
          <value>2.3414144855331087e-01</value></_></nodes></_>
    <_>
      <nodes>
        <_>
          <depth>0</depth>
          <value>-9.6627146561429039e-04</value>
          <splits>
            <_><var>115</var>
              <quality>8.0583449453115463e-03</quality>
              <le>1.1577447876334190e-02</le></_></splits></_>
        <_>
          <depth>1</depth>
          <value>1.8176789466539254e-02</value></_>
        <_>
          <depth>1</depth>
          <value>-4.7737079981969549e-01</value></_></nodes></_>
    <_>
      <nodes>
        <_>
          <depth>0</depth>
          <value>-1.2314414537950879e-03</value>
          <splits>
            <_><var>227</var>
              <quality>8.5770655423402786e-03</quality>
              <le>9.4733219593763351e-03</le></_></splits></_>
        <_>
          <depth>1</depth>
          <value>-1.5020579916444508e-02</value></_>
        <_>
          <depth>1</depth>
          <value>7.8132833864052853e-01</value></_></nodes></_>
    <_>
      <nodes>
        <_>
          <depth>0</depth>
          <value>-1.6242175602358564e-04</value>
          <splits>
            <_><var>272</var>
              <quality>8.0756545066833496e-03</quality>
              <le>2.6229519862681627e-03</le></_></splits></_>
        <_>
          <depth>1</depth>
          <value>-6.9786469328722983e-02</value></_>
        <_>
          <depth>1</depth>
          <value>1.2275942872684524e-01</value></_></nodes></_>
    <_>
      <nodes>
        <_>
          <depth>0</depth>
          <value>-6.0039232429828413e-04</value>
          <splits>
            <_><var>81</var>
              <quality>9.4839623197913170e-03</quality>
              <le>9.1428682208061218e-03</le></_></splits></_>
        <_>
          <depth>1</depth>
          <value>-6.4645569151461954e-02</value></_>
        <_>
          <depth>1</depth>
          <value>1.5678430241340663e-01</value></_></nodes></_>
    <_>
      <nodes>
        <_>
          <depth>0</depth>
          <value>5.6494364724823433e-04</value>
          <splits>
            <_><var>277</var>
              <quality>8.6698578670620918e-03</quality>
              <le>8.8660493493080139e-03</le></_></splits></_>
        <_>
          <depth>1</depth>
          <value>2.0348310242877428e-02</value></_>
        <_>
          <depth>1</depth>
          <value>-4.9841450731305881e-01</value></_></nodes></_>
    <_>
      <nodes>
        <_>
          <depth>0</depth>
          <value>4.2923857487427121e-04</value>
          <splits>
            <_><var>79</var>
              <quality>7.7964072115719318e-03</quality>
              <le>3.1031975522637367e-03</le></_></splits></_>
        <_>
          <depth>1</depth>
          <value>1.4818616272721616e-01</value></_>
        <_>
          <depth>1</depth>
          <value>-5.5585526488715682e-02</value></_></nodes></_>
    <_>
      <nodes>
        <_>
          <depth>0</depth>
          <value>8.5773483514853602e-04</value>
          <splits>
            <_><var>291</var>
              <quality>9.2625617980957031e-03</quality>
              <le>1.9267895258963108e-03</le></_></splits></_>
        <_>
          <depth>1</depth>
          <value>-1.5544806716867551e-01</value></_>
        <_>
          <depth>1</depth>
          <value>6.3818115932158234e-02</value></_></nodes></_>
    <_>
      <nodes>
        <_>
          <depth>0</depth>
          <value>-6.1603947996409969e-05</value>
          <splits>
            <_><var>66</var>
              <quality>8.3549460396170616e-03</quality>
              <le>6.4061526209115982e-03</le></_></splits></_>
        <_>
          <depth>1</depth>
          <value>-2.3652843607268291e-02</value></_>
        <_>
          <depth>1</depth>
          <value>3.9175491684604730e-01</value></_></nodes></_>
    <_>
      <nodes>
        <_>
          <depth>0</depth>
          <value>-7.7844429945708290e-05</value>
          <splits>
            <_><var>254</var>
              <quality>9.0133408084511757e-03</quality>
              <le>1.0563722811639309e-02</le></_></splits></_>
        <_>
          <depth>1</depth>
          <value>1.1099365456245939e-02</value></_>
        <_>
          <depth>1</depth>
          <value>-1.2524593759329041e+00</value></_></nodes></_>
    <_>
      <nodes>
        <_>
          <depth>0</depth>
          <value>-3.6621435871084804e-04</value>
          <splits>
            <_><var>242</var>
              <quality>1.0183623060584068e-02</quality>
              <le>3.2985168509185314e-03</le></_></splits></_>
        <_>
          <depth>1</depth>
          <value>6.4441663880655586e-02</value></_>
        <_>
          <depth>1</depth>
          <value>-1.6755576703653571e-01</value></_></nodes></_>
    <_>
      <nodes>
        <_>
          <depth>0</depth>
          <value>1.8059406100851513e-03</value>
          <splits>
            <_><var>216</var>
              <quality>7.8941248357295990e-03</quality>
              <le>9.9604185670614243e-03</le></_></splits></_>
        <_>
          <depth>1</depth>
          <value>1.4548689688176429e-02</value></_>
        <_>
          <depth>1</depth>
          <value>-7.7555382568179709e-01</value></_></nodes></_></trees></opencv_ml_boost>
</opencv_storage>
