<?xml version="1.0"?>
<opencv_storage>
<opencv_ml_boost>
  <format>3</format>
  <is_classifier>1</is_classifier>
  <var_all>201</var_all>
  <var_count>200</var_count>
  <ord_var_count>200</ord_var_count>
  <cat_var_count>1</cat_var_count>
  <training_params>
    <boosting_type>RealAdaboost</boosting_type>
    <use_surrogates>0</use_surrogates>
    <max_categories>10</max_categories>
    <regression_accuracy>9.9999997764825821e-03</regression_accuracy>
    <max_depth>1</max_depth>
    <min_sample_count>10</min_sample_count>
    <cross_validation_folds>0</cross_validation_folds>
    <weight_trimming_rate>9.4999999999999996e-01</weight_trimming_rate></training_params>
  <global_var_idx>1</global_var_idx>
  <var_idx>
    0 1 2 3 4 5 6 7 8 9 10 11 12 13 14 15 16 17 18 19 20 21 22 23 24 25
    26 27 28 29 30 31 32 33 34 35 36 37 38 39 40 41 42 43 44 45 46 47 48
    49 50 51 52 53 54 55 56 57 58 59 60 61 62 63 64 65 66 67 68 69 70 71
    72 73 74 75 76 77 78 79 80 81 82 83 84 85 86 87 88 89 90 91 92 93 94
    95 96 97 98 99 100 101 102 103 104 105 106 107 108 109 110 111 112
    113 114 115 116 117 118 119 120 121 122 123 124 125 126 127 128 129
    130 131 132 133 134 135 136 137 138 139 140 141 142 143 144 145 146
    147 148 149 150 151 152 153 154 155 156 157 158 159 160 161 162 163
    164 165 166 167 168 169 170 171 172 173 174 175 176 177 178 179 180
    181 182 183 184 185 186 187 188 189 190 191 192 193 194 195 196 197
    198 199</var_idx>
  <var_type>
    0 0 0 0 0 0 0 0 0 0 0 0 0 0 0 0 0 0 0 0 0 0 0 0 0 0 0 0 0 0 0 0 0 0
    0 0 0 0 0 0 0 0 0 0 0 0 0 0 0 0 0 0 0 0 0 0 0 0 0 0 0 0 0 0 0 0 0 0
    0 0 0 0 0 0 0 0 0 0 0 0 0 0 0 0 0 0 0 0 0 0 0 0 0 0 0 0 0 0 0 0 0 0
    0 0 0 0 0 0 0 0 0 0 0 0 0 0 0 0 0 0 0 0 0 0 0 0 0 0 0 0 0 0 0 0 0 0
    0 0 0 0 0 0 0 0 0 0 0 0 0 0 0 0 0 0 0 0 0 0 0 0 0 0 0 0 0 0 0 0 0 0
    0 0 0 0 0 0 0 0 0 0 0 0 0 0 0 0 0 0 0 0 0 0 0 0 0 0 0 0 0 0 1</var_type>
  <cat_ofs>
    0 0 0 0 0 0 0 0 0 0 0 0 0 0 0 0 0 0 0 0 0 0 0 0 0 0 0 0 0 0 0 0 0 0
    0 0 0 0 0 0 0 0 0 0 0 0 0 0 0 0 0 0 0 0 0 0 0 0 0 0 0 0 0 0 0 0 0 0
    0 0 0 0 0 0 0 0 0 0 0 0 0 0 0 0 0 0 0 0 0 0 0 0 0 0 0 0 0 0 0 0 0 0
    0 0 0 0 0 0 0 0 0 0 0 0 0 0 0 0 0 0 0 0 0 0 0 0 0 0 0 0 0 0 0 0 0 0
    0 0 0 0 0 0 0 0 0 0 0 0 0 0 0 0 0 0 0 0 0 0 0 0 0 0 0 0 0 0 0 0 0 0
    0 0 0 0 0 0 0 0 0 0 0 0 0 0 0 0 0 0 0 0 0 0 0 0 0 0 0 0 0 0 0 0 0 0
    0 0 0 0 0 0 0 0 0 0 0 0 0 0 0 0 0 0 0 0 0 0 0 0 0 0 0 0 0 0 0 0 0 0
    0 0 0 0 0 0 0 0 0 0 0 0 0 0 0 0 0 0 0 0 0 0 0 0 0 0 0 0 0 0 0 0 0 0
    0 0 0 0 0 0 0 0 0 0 0 0 0 0 0 0 0 0 0 0 0 0 0 0 0 0 0 0 0 0 0 0 0 0
    0 0 0 0 0 0 0 0 0 0 0 0 0 0 0 0 0 0 0 0 0 0 0 0 0 0 0 0 0 0 0 0 0 0
    0 0 0 0 0 0 0 0 0 0 0 0 0 0 0 0 0 0 0 0 0 0 0 0 0 0 0 0 0 0 0 0 0 0
    0 0 0 0 0 0 0 0 0 0 0 0 0 0 0 0 0 0 0 0 0 0 0 0 0 0</cat_ofs>
  <class_labels>
    0 1</class_labels>
  <missing_subst>
    0. 0. 0. 0. 0. 0. 0. 0. 0. 0. 0. 0. 0. 0. 0. 0. 0. 0. 0. 0. 0. 0. 0.
    0. 0. 0. 0. 0. 0. 0. 0. 0. 0. 0. 0. 0. 0. 0. 0. 0. 0. 0. 0. 0. 0. 0.
    0. 0. 0. 0. 0. 0. 0. 0. 0. 0. 0. 0. 0. 0. 0. 0. 0. 0. 0. 0. 0. 0. 0.
    0. 0. 0. 0. 0. 0. 0. 0. 0. 0. 0. 0. 0. 0. 0. 0. 0. 0. 0. 0. 0. 0. 0.
    0. 0. 0. 0. 0. 0. 0. 0. 0. 0. 0. 0. 0. 0. 0. 0. 0. 0. 0. 0. 0. 0. 0.
    0. 0. 0. 0. 0. 0. 0. 0. 0. 0. 0. 0. 0. 0. 0. 0. 0. 0. 0. 0. 0. 0. 0.
    0. 0. 0. 0. 0. 0. 0. 0. 0. 0. 0. 0. 0. 0. 0. 0. 0. 0. 0. 0. 0. 0. 0.
    0. 0. 0. 0. 0. 0. 0. 0. 0. 0. 0. 0. 0. 0. 0. 0. 0. 0. 0. 0. 0. 0. 0.
    0. 0. 0. 0. 0. 0. 0. 0. 0. 0. 0. 0. 0. 0. 0. 0. 0.</missing_subst>
  <ntrees>100</ntrees>
  <trees>
    <_>
      <nodes>
        <_>
          <depth>0</depth>
          <value>0.</value>
          <splits>
            <_><var>62</var>
              <quality>4.5041188597679138e-02</quality>
              <le>5.0335605628788471e-03</le></_></splits></_>
        <_>
          <depth>1</depth>
          <value>1.2912824508809864e-01</value></_>
        <_>
          <depth>1</depth>
          <value>-3.6629445630562102e-01</value></_></nodes></_>
    <_>
      <nodes>
        <_>
          <depth>0</depth>
          <value>-5.0541464047352786e-09</value>
          <splits>
            <_><var>75</var>
              <quality>3.5486027598381042e-02</quality>
              <le>7.2683254256844521e-03</le></_></splits></_>
        <_>
          <depth>1</depth>
          <value>1.3723694443126677e-01</value></_>
        <_>
          <depth>1</depth>
          <value>-2.6631883641941012e-01</value></_></nodes></_>
    <_>
      <nodes>
        <_>
          <depth>0</depth>
          <value>3.9744475150465912e-02</value>
          <splits>
            <_><var>199</var>
              <quality>3.4800250083208084e-02</quality>
              <le>1.7133424989879131e-03</le></_></splits></_>
        <_>
          <depth>1</depth>
          <value>-4.2184851867443490e-01</value></_>
        <_>
          <depth>1</depth>
          <value>1.1925391743323280e-01</value></_></nodes></_>
    <_>
      <nodes>
        <_>
          <depth>0</depth>
          <value>-2.6180447626310277e-03</value>
          <splits>
            <_><var>44</var>
              <quality>3.3908583223819733e-02</quality>
              <le>7.8020510263741016e-03</le></_></splits></_>
        <_>
          <depth>1</depth>
          <value>-1.0141611425821891e-01</value></_>
        <_>
          <depth>1</depth>
          <value>3.7123500254078040e-01</value></_></nodes></_>
    <_>
      <nodes>
        <_>
          <depth>0</depth>
          <value>-8.0005017153142774e-02</value>
          <splits>
            <_><var>14</var>
              <quality>3.0689127743244171e-02</quality>
              <le>5.4298685863614082e-03</le></_></splits></_>
        <_>
          <depth>1</depth>
          <value>-2.1931888650805342e-01</value></_>
        <_>
          <depth>1</depth>
          <value>1.1021422800526620e-01</value></_></nodes></_>
    <_>
      <nodes>
        <_>
          <depth>0</depth>
          <value>6.3978909434771192e-02</value>
          <splits>
            <_><var>114</var>
              <quality>2.6433166116476059e-02</quality>
              <le>5.5197840556502342e-03</le></_></splits></_>
        <_>
          <depth>1</depth>
          <value>-5.5560190717975508e-02</value></_>
        <_>
          <depth>1</depth>
          <value>2.6811557777601280e-01</value></_></nodes></_>
    <_>
      <nodes>
        <_>
          <depth>0</depth>
          <value>-9.7160945520451542e-03</value>
          <splits>
            <_><var>69</var>
              <quality>2.2366590797901154e-02</quality>
              <le>9.6753109246492386e-03</le></_></splits></_>
        <_>
          <depth>1</depth>
          <value>4.1415827787284351e-02</value></_>
        <_>
          <depth>1</depth>
          <value>-5.0085381347811253e-01</value></_></nodes></_>
    <_>
      <nodes>
        <_>
          <depth>0</depth>
          <value>8.6135355825766834e-03</value>
          <splits>
            <_><var>173</var>
              <quality>2.0622938871383667e-02</quality>
              <le>8.5800103843212128e-03</le></_></splits></_>
        <_>
          <depth>1</depth>
          <value>8.5676154495708201e-02</value></_>
        <_>
          <depth>1</depth>
          <value>-2.7784636709793542e-01</value></_></nodes></_>
    <_>
      <nodes>
        <_>
          <depth>0</depth>
          <value>-1.4097475114679152e-02</value>
          <splits>
            <_><var>28</var>
              <quality>2.0243456587195396e-02</quality>
              <le>9.4044813886284828e-03</le></_></splits></_>
        <_>
          <depth>1</depth>
          <value>2.0874952972774568e-02</value></_>
        <_>
          <depth>1</depth>
          <value>-7.2157781932135179e-01</value></_></nodes></_>
    <_>
      <nodes>
        <_>
          <depth>0</depth>
          <value>1.3663579848849452e-03</value>
          <splits>
            <_><var>39</var>
              <quality>2.1103173494338989e-02</quality>
              <le>5.3130998276174068e-03</le></_></splits></_>
        <_>
          <depth>1</depth>
          <value>1.2050932029033166e-01</value></_>
        <_>
          <depth>1</depth>
          <value>-1.8821677497524691e-01</value></_></nodes></_>
    <_>
      <nodes>
        <_>
          <depth>0</depth>
          <value>-5.6832333520416105e-03</value>
          <splits>
            <_><var>118</var>
              <quality>1.6979131847620010e-02</quality>
              <le>1.7622252926230431e-03</le></_></splits></_>
        <_>
          <depth>1</depth>
          <value>-1.8145594903896192e-01</value></_>
        <_>
          <depth>1</depth>
          <value>9.7100703921705445e-02</value></_></nodes></_>
    <_>
      <nodes>
        <_>
          <depth>0</depth>
          <value>7.9342243409509135e-03</value>
          <splits>
            <_><var>61</var>
              <quality>1.2293973006308079e-02</quality>
              <le>1.8337415531277657e-03</le></_></splits></_>
        <_>
          <depth>1</depth>
          <value>-2.1998924599571537e-01</value></_>
        <_>
          <depth>1</depth>
          <value>6.5418681231048520e-02</value></_></nodes></_>
    <_>
      <nodes>
        <_>
          <depth>0</depth>
          <value>-3.9831934276718869e-03</value>
          <splits>
            <_><var>64</var>
              <quality>1.4107785187661648e-02</quality>
              <le>5.6697404943406582e-03</le></_></splits></_>
        <_>
          <depth>1</depth>
          <value>8.3453588845193008e-02</value></_>
        <_>
          <depth>1</depth>
          <value>-1.7583998344678092e-01</value></_></nodes></_>
    <_>
      <nodes>
        <_>
          <depth>0</depth>
          <value>3.2230349411055893e-03</value>
          <splits>
            <_><var>199</var>
              <quality>1.4952654950320721e-02</quality>
              <le>1.4493873342871666e-02</le></_></splits></_>
        <_>
          <depth>1</depth>
          <value>-4.5252789404447727e-02</value></_>
        <_>
          <depth>1</depth>
          <value>3.4056451025558176e-01</value></_></nodes></_>
    <_>
      <nodes>
        <_>
          <depth>0</depth>
          <value>-1.2421731843861167e-03</value>
          <splits>
            <_><var>170</var>
              <quality>1.3481890782713890e-02</quality>
              <le>1.3947109691798687e-03</le></_></splits></_>
        <_>
          <depth>1</depth>
          <value>-1.8290488343325892e-01</value></_>
        <_>
          <depth>1</depth>
          <value>7.7806555965896002e-02</value></_></nodes></_>
    <_>
      <nodes>
        <_>
          <depth>0</depth>
          <value>1.4590593149432130e-03</value>
          <splits>
            <_><var>108</var>
              <quality>1.2748590670526028e-02</quality>
              <le>9.1358982026576996e-03</le></_></splits></_>
        <_>
          <depth>1</depth>
          <value>-4.3323281857989754e-02</value></_>
        <_>
          <depth>1</depth>
          <value>3.1083069788700529e-01</value></_></nodes></_>
    <_>
      <nodes>
        <_>
          <depth>0</depth>
          <value>-5.9038664971783625e-03</value>
          <splits>
            <_><var>17</var>
              <quality>1.5291573479771614e-02</quality>
              <le>5.2424999885261059e-03</le></_></splits></_>
        <_>
          <depth>1</depth>
          <value>-7.6940803975662650e-02</value></_>
        <_>
          <depth>1</depth>
          <value>2.2431518890321789e-01</value></_></nodes></_>
    <_>
      <nodes>
        <_>
          <depth>0</depth>
          <value>3.0546381220795480e-03</value>
          <splits>
            <_><var>11</var>
              <quality>1.0773804970085621e-02</quality>
              <le>4.4296840205788612e-03</le></_></splits></_>
        <_>
          <depth>1</depth>
          <value>-9.1745917014672718e-02</value></_>
        <_>
          <depth>1</depth>
          <value>1.2355708537205867e-01</value></_></nodes></_>
    <_>
      <nodes>
        <_>
          <depth>0</depth>
          <value>1.9688745387824213e-03</value>
          <splits>
            <_><var>95</var>
              <quality>1.1096877045929432e-02</quality>
              <le>3.6297761835157871e-03</le></_></splits></_>
        <_>
          <depth>1</depth>
          <value>1.3338122237004679e-01</value></_>
        <_>
          <depth>1</depth>
          <value>-8.7635817195624674e-02</value></_></nodes></_>
    <_>
      <nodes>
        <_>
          <depth>0</depth>
          <value>-4.8087039832332545e-03</value>
          <splits>
            <_><var>137</var>
              <quality>1.1096175760030746e-02</quality>
              <le>9.4863809645175934e-03</le></_></splits></_>
        <_>
          <depth>1</depth>
          <value>-4.2424735151079813e-02</value></_>
        <_>
          <depth>1</depth>
          <value>3.1540764312814390e-01</value></_></nodes></_>
    <_>
      <nodes>
        <_>
          <depth>0</depth>
          <value>2.0987559826664364e-03</value>
          <splits>
            <_><var>62</var>
              <quality>1.0738980025053024e-02</quality>
              <le>4.0026642382144928e-02</le></_></splits></_>
        <_>
          <depth>1</depth>
          <value>-1.3109640496268544e-02</value></_>
        <_>
          <depth>1</depth>
          <value>9.6224992109106244e-01</value></_></nodes></_>
    <_>
      <nodes>
        <_>
          <depth>0</depth>
          <value>-1.5262364394882592e-03</value>
          <splits>
            <_><var>151</var>
              <quality>1.0824811644852161e-02</quality>
              <le>6.3567049801349640e-03</le></_></splits></_>
        <_>
          <depth>1</depth>
          <value>-1.1551691908106791e-01</value></_>
        <_>
          <depth>1</depth>
          <value>9.9190214888767211e-02</value></_></nodes></_>
    <_>
      <nodes>
        <_>
          <depth>0</depth>
          <value>5.2778729047043525e-03</value>
          <splits>
            <_><var>194</var>
              <quality>1.2685508467257023e-02</quality>
              <le>1.4695147983729839e-03</le></_></splits></_>
        <_>
          <depth>1</depth>
          <value>-1.7413964601304041e-01</value></_>
        <_>
          <depth>1</depth>
          <value>8.0452595281952116e-02</value></_></nodes></_>
    <_>
      <nodes>
        <_>
          <depth>0</depth>
          <value>-5.7174962428134420e-03</value>
          <splits>
            <_><var>100</var>
              <quality>1.2360935099422932e-02</quality>
              <le>1.6282670199871063e-02</le></_></splits></_>
        <_>
          <depth>1</depth>
          <value>-2.3163000422403324e-02</value></_>
        <_>
          <depth>1</depth>
          <value>9.4712022191402612e-01</value></_></nodes></_>
    <_>
      <nodes>
        <_>
          <depth>0</depth>
          <value>2.1266773838298802e-03</value>
          <splits>
            <_><var>193</var>
              <quality>1.0385503992438316e-02</quality>
              <le>1.9636726938188076e-03</le></_></splits></_>
        <_>
          <depth>1</depth>
          <value>1.1689999595812468e-01</value></_>
        <_>
          <depth>1</depth>
          <value>-9.3812622500051429e-02</value></_></nodes></_>
    <_>
      <nodes>
        <_>
          <depth>0</depth>
          <value>4.8851680661634493e-03</value>
          <splits>
            <_><var>8</var>
              <quality>1.2670983560383320e-02</quality>
              <le>3.2873111194930971e-04</le></_></splits></_>
        <_>
          <depth>1</depth>
          <value>-2.2944672280736084e-01</value></_>
        <_>
          <depth>1</depth>
          <value>6.2759854871922219e-02</value></_></nodes></_>
    <_>
      <nodes>
        <_>
          <depth>0</depth>
          <value>-2.2528948770085193e-03</value>
          <splits>
            <_><var>45</var>
              <quality>1.1024328880012035e-02</quality>
              <le>1.2724442407488823e-02</le></_></splits></_>
        <_>
          <depth>1</depth>
          <value>-2.0958043652393198e-02</value></_>
        <_>
          <depth>1</depth>
          <value>7.2172200005402687e-01</value></_></nodes></_>
    <_>
      <nodes>
        <_>
          <depth>0</depth>
          <value>2.1822739697631363e-03</value>
          <splits>
            <_><var>40</var>
              <quality>1.0880180634558201e-02</quality>
              <le>1.6679313033819199e-02</le></_></splits></_>
        <_>
          <depth>1</depth>
          <value>-1.5289608250377973e-02</value></_>
        <_>
          <depth>1</depth>
          <value>7.8841785478253101e-01</value></_></nodes></_>
    <_>
      <nodes>
        <_>
          <depth>0</depth>
          <value>-2.1196811642761413e-03</value>
          <splits>
            <_><var>154</var>
              <quality>9.6538458019495010e-03</quality>
              <le>2.3386657238006592e-02</le></_></splits></_>
        <_>
          <depth>1</depth>
          <value>-2.3177789298707927e-02</value></_>
        <_>
          <depth>1</depth>
          <value>5.2341159699596829e-01</value></_></nodes></_>
    <_>
      <nodes>
        <_>
          <depth>0</depth>
          <value>-6.8575147134070240e-05</value>
          <splits>
            <_><var>70</var>
              <quality>1.1497806757688522e-02</quality>
              <le>2.1691973961424083e-04</le></_></splits></_>
        <_>
          <depth>1</depth>
          <value>-2.2662815474550818e-01</value></_>
        <_>
          <depth>1</depth>
          <value>5.4322551093283607e-02</value></_></nodes></_>
    <_>
      <nodes>
        <_>
          <depth>0</depth>
          <value>-1.2834525423773776e-03</value>
          <splits>
            <_><var>7</var>
              <quality>1.0242886841297150e-02</quality>
              <le>6.2435031868517399e-03</le></_></splits></_>
        <_>
          <depth>1</depth>
          <value>8.5079061937637229e-02</value></_>
        <_>
          <depth>1</depth>
          <value>-1.2706821021788001e-01</value></_></nodes></_>
    <_>
      <nodes>
        <_>
          <depth>0</depth>
          <value>-1.3611398344033411e-03</value>
          <splits>
            <_><var>97</var>
              <quality>1.0049158707261086e-02</quality>
              <le>1.0003574192523956e-02</le></_></splits></_>
        <_>
          <depth>1</depth>
          <value>-3.5799540414765740e-02</value></_>
        <_>
          <depth>1</depth>
          <value>3.1592815146436193e-01</value></_></nodes></_>
    <_>
      <nodes>
        <_>
          <depth>0</depth>
          <value>-1.2138616988001411e-03</value>
          <splits>
            <_><var>133</var>
              <quality>1.1173095554113388e-02</quality>
              <le>6.8548079580068588e-03</le></_></splits></_>
        <_>
          <depth>1</depth>
          <value>4.4956175666596959e-02</value></_>
        <_>
          <depth>1</depth>
          <value>-2.6195517902741589e-01</value></_></nodes></_>
    <_>
      <nodes>
        <_>
          <depth>0</depth>
          <value>8.7092707676935321e-05</value>
          <splits>
            <_><var>62</var>
              <quality>1.0096843354403973e-02</quality>
              <le>1.3903323560953140e-02</le></_></splits></_>
        <_>
          <depth>1</depth>
          <value>3.0061893946321569e-02</value></_>
        <_>
          <depth>1</depth>
          <value>-3.7076667259978735e-01</value></_></nodes></_>
    <_>
      <nodes>
        <_>
          <depth>0</depth>
          <value>2.8821539214141908e-03</value>
          <splits>
            <_><var>60</var>
              <quality>8.7068919092416763e-03</quality>
              <le>9.0909395366907120e-03</le></_></splits></_>
        <_>
          <depth>1</depth>
          <value>4.7096647854611630e-02</value></_>
        <_>
          <depth>1</depth>
          <value>-2.0731073251232526e-01</value></_></nodes></_>
    <_>
      <nodes>
        <_>
          <depth>0</depth>
          <value>-2.0713271077926745e-03</value>
          <splits>
            <_><var>18</var>
              <quality>1.0671751573681831e-02</quality>
              <le>2.6702317409217358e-03</le></_></splits></_>
        <_>
          <depth>1</depth>
          <value>1.3883963806970773e-01</value></_>
        <_>
          <depth>1</depth>
          <value>-8.2419774624332989e-02</value></_></nodes></_>
    <_>
      <nodes>
        <_>
          <depth>0</depth>
          <value>2.8921073900208135e-03</value>
          <splits>
            <_><var>109</var>
              <quality>1.0163684375584126e-02</quality>
              <le>9.3066564295440912e-04</le></_></splits></_>
        <_>
          <depth>1</depth>
          <value>-1.9222809669895846e-01</value></_>
        <_>
          <depth>1</depth>
          <value>5.8403592376955298e-02</value></_></nodes></_>
    <_>
      <nodes>
        <_>
          <depth>0</depth>
          <value>-1.1257529375916671e-03</value>
          <splits>
            <_><var>67</var>
              <quality>9.5881763845682144e-03</quality>
              <le>8.8360294466838241e-04</le></_></splits></_>
        <_>
          <depth>1</depth>
          <value>9.6484791280904189e-02</value></_>
        <_>
          <depth>1</depth>
          <value>-1.0522278276513004e-01</value></_></nodes></_>
    <_>
      <nodes>
        <_>
          <depth>0</depth>
          <value>-3.9594413595163301e-03</value>
          <splits>
            <_><var>198</var>
              <quality>8.5806977003812790e-03</quality>
              <le>3.9177313446998596e-03</le></_></splits></_>
        <_>
          <depth>1</depth>
          <value>7.0232909327391027e-02</value></_>
        <_>
          <depth>1</depth>
          <value>-1.2636976774172626e-01</value></_></nodes></_>
    <_>
      <nodes>
        <_>
          <depth>0</depth>
          <value>1.7340966690535576e-03</value>
          <splits>
            <_><var>15</var>
              <quality>9.4821164384484291e-03</quality>
              <le>4.1356519795954227e-03</le></_></splits></_>
        <_>
          <depth>1</depth>
          <value>-7.9254255020911046e-02</value></_>
        <_>
          <depth>1</depth>
          <value>1.2587500904232768e-01</value></_></nodes></_>
    <_>
      <nodes>
        <_>
          <depth>0</depth>
          <value>-1.8526233759862422e-03</value>
          <splits>
            <_><var>102</var>
              <quality>8.2221096381545067e-03</quality>
              <le>1.6746796667575836e-02</le></_></splits></_>
        <_>
          <depth>1</depth>
          <value>9.2271423128376627e-03</value></_>
        <_>
          <depth>1</depth>
          <value>-1.0526636194406913e+00</value></_></nodes></_>
    <_>
      <nodes>
        <_>
          <depth>0</depth>
          <value>1.5676063345392546e-03</value>
          <splits>
            <_><var>31</var>
              <quality>8.5776597261428833e-03</quality>
              <le>6.3404878601431847e-03</le></_></splits></_>
        <_>
          <depth>1</depth>
          <value>-5.3442458663808722e-02</value></_>
        <_>
          <depth>1</depth>
          <value>1.6737141633931590e-01</value></_></nodes></_>
    <_>
      <nodes>
        <_>
          <depth>0</depth>
          <value>9.3312412331889285e-05</value>
          <splits>
            <_><var>166</var>
              <quality>9.0183941647410393e-03</quality>
              <le>1.3458403758704662e-02</le></_></splits></_>
        <_>
          <depth>1</depth>
          <value>2.9964285362340741e-02</value></_>
        <_>
          <depth>1</depth>
          <value>-3.2920644055245785e-01</value></_></nodes></_>
    <_>
      <nodes>
        <_>
          <depth>0</depth>
          <value>1.1436307096550804e-04</value>
          <splits>
            <_><var>104</var>
              <quality>1.0750972665846348e-02</quality>
              <le>1.4134848024696112e-03</le></_></splits></_>
        <_>
          <depth>1</depth>
          <value>1.6951912557314830e-01</value></_>
        <_>
          <depth>1</depth>
          <value>-6.7431992331373217e-02</value></_></nodes></_>
    <_>
      <nodes>
        <_>
          <depth>0</depth>
          <value>9.0430051490242118e-04</value>
          <splits>
            <_><var>142</var>
              <quality>7.2605959139764309e-03</quality>
              <le>1.7758592963218689e-02</le></_></splits></_>
        <_>
          <depth>1</depth>
          <value>3.1420484197883375e-02</value></_>
        <_>
          <depth>1</depth>
          <value>-2.5500323613580128e-01</value></_></nodes></_>
    <_>
      <nodes>
        <_>
          <depth>0</depth>
          <value>1.6556585215732523e-04</value>
          <splits>
            <_><var>142</var>
              <quality>1.0084574110805988e-02</quality>
              <le>2.9070014134049416e-03</le></_></splits></_>
        <_>
          <depth>1</depth>
          <value>-1.2432771977892598e-01</value></_>
        <_>
          <depth>1</depth>
          <value>8.6090472872918961e-02</value></_></nodes></_>
    <_>
      <nodes>
        <_>
          <depth>0</depth>
          <value>-1.4571073894883145e-03</value>
          <splits>
            <_><var>113</var>
              <quality>8.4899486973881721e-03</quality>
              <le>7.9297143965959549e-03</le></_></splits></_>
        <_>
          <depth>1</depth>
          <value>-4.3424995623261117e-02</value></_>
        <_>
          <depth>1</depth>
          <value>2.1484239862550644e-01</value></_></nodes></_>
    <_>
      <nodes>
        <_>
          <depth>0</depth>
          <value>1.6777276747736566e-03</value>
          <splits>
            <_><var>191</var>
              <quality>9.3228295445442200e-03</quality>
              <le>4.4609690085053444e-03</le></_></splits></_>
        <_>
          <depth>1</depth>
          <value>1.1475920545063692e-01</value></_>
        <_>
          <depth>1</depth>
          <value>-8.5692955947541172e-02</value></_></nodes></_>
    <_>
      <nodes>
        <_>
          <depth>0</depth>
          <value>-2.0644218019550600e-03</value>
          <splits>
            <_><var>188</var>
              <quality>8.8334130123257637e-03</quality>
              <le>3.7801251746714115e-03</le></_></splits></_>
        <_>
          <depth>1</depth>
          <value>-1.2134345011351165e-01</value></_>
        <_>
          <depth>1</depth>
          <value>7.6394314012804151e-02</value></_></nodes></_>
    <_>
      <nodes>
        <_>
          <depth>0</depth>
          <value>4.7055596833327890e-04</value>
          <splits>
            <_><var>35</var>
              <quality>8.9347874745726585e-03</quality>
              <le>1.4306181110441685e-02</le></_></splits></_>
        <_>
          <depth>1</depth>
          <value>3.6617616027265765e-02</value></_>
        <_>
          <depth>1</depth>
          <value>-2.6598347962338065e-01</value></_></nodes></_>
    <_>
      <nodes>
        <_>
          <depth>0</depth>
          <value>-1.0409573509023637e-03</value>
          <splits>
            <_><var>144</var>
              <quality>7.0888721384108067e-03</quality>
              <le>8.3108283579349518e-03</le></_></splits></_>
        <_>
          <depth>1</depth>
          <value>-2.8209493544917162e-02</value></_>
        <_>
          <depth>1</depth>
          <value>2.8086221785039228e-01</value></_></nodes></_>
    <_>
      <nodes>
        <_>
          <depth>0</depth>
          <value>6.9258648620959171e-04</value>
          <splits>
            <_><var>195</var>
              <quality>7.5300638563930988e-03</quality>
              <le>6.5214640926569700e-04</le></_></splits></_>
        <_>
          <depth>1</depth>
          <value>-1.5074933479292324e-01</value></_>
        <_>
          <depth>1</depth>
          <value>5.3480362927337648e-02</value></_></nodes></_>
    <_>
      <nodes>
        <_>
          <depth>0</depth>
          <value>-5.8297188047700082e-04</value>
          <splits>
            <_><var>136</var>
              <quality>8.5441078990697861e-03</quality>
              <le>3.2546806614845991e-03</le></_></splits></_>
        <_>
          <depth>1</depth>
          <value>1.2274060208856601e-01</value></_>
        <_>
          <depth>1</depth>
          <value>-7.4010730533292268e-02</value></_></nodes></_>
    <_>
      <nodes>
        <_>
          <depth>0</depth>
          <value>-3.3695771871804538e-03</value>
          <splits>
            <_><var>199</var>
              <quality>8.5004353895783424e-03</quality>
              <le>5.5826962925493717e-03</le></_></splits></_>
        <_>
          <depth>1</depth>
          <value>-9.9073124578504909e-02</value></_>
        <_>
          <depth>1</depth>
          <value>9.0580689609963252e-02</value></_></nodes></_>
    <_>
      <nodes>
        <_>
          <depth>0</depth>
          <value>2.5849793814858068e-03</value>
          <splits>
            <_><var>0</var>
              <quality>7.7033773995935917e-03</quality>
              <le>2.8669723542407155e-04</le></_></splits></_>
        <_>
          <depth>1</depth>
          <value>-1.9167663208689190e-01</value></_>
        <_>
          <depth>1</depth>
          <value>4.4831599281430830e-02</value></_></nodes></_>
    <_>
      <nodes>
        <_>
          <depth>0</depth>
          <value>-2.1187595304439334e-04</value>
          <splits>
            <_><var>61</var>
              <quality>9.4417305663228035e-03</quality>
              <le>1.6830328851938248e-02</le></_></splits></_>
        <_>
          <depth>1</depth>
          <value>-1.9447804889260133e-02</value></_>
        <_>
          <depth>1</depth>
          <value>5.7169982857423396e-01</value></_></nodes></_>
    <_>
      <nodes>
        <_>
          <depth>0</depth>
          <value>1.8215091644848674e-04</value>
          <splits>
            <_><var>77</var>
              <quality>7.7622276730835438e-03</quality>
              <le>1.2230651453137398e-02</le></_></splits></_>
        <_>
          <depth>1</depth>
          <value>3.1038118516243302e-02</value></_>
        <_>
          <depth>1</depth>
          <value>-2.7120868026075928e-01</value></_></nodes></_>
    <_>
      <nodes>
        <_>
          <depth>0</depth>
          <value>5.1086250324311913e-06</value>
          <splits>
            <_><var>77</var>
              <quality>9.1305589303374290e-03</quality>
              <le>1.8728535622358322e-02</le></_></splits></_>
        <_>
          <depth>1</depth>
          <value>-1.7033082068450552e-02</value></_>
        <_>
          <depth>1</depth>
          <value>6.3904446497675993e-01</value></_></nodes></_>
    <_>
      <nodes>
        <_>
          <depth>0</depth>
          <value>-5.8911174747239715e-04</value>
          <splits>
            <_><var>175</var>
              <quality>7.5843310914933681e-03</quality>
              <le>1.5567302703857422e-02</le></_></splits></_>
        <_>
          <depth>1</depth>
          <value>1.4645872841505628e-02</value></_>
        <_>
          <depth>1</depth>
          <value>-5.8274381792217023e-01</value></_></nodes></_>
    <_>
      <nodes>
        <_>
          <depth>0</depth>
          <value>-8.3858501660265792e-04</value>
          <splits>
            <_><var>67</var>
              <quality>7.6782545074820518e-03</quality>
              <le>2.3537877947092056e-02</le></_></splits></_>
        <_>
          <depth>1</depth>
          <value>9.9917997116447475e-03</value></_>
        <_>
          <depth>1</depth>
          <value>-9.6635974526564483e-01</value></_></nodes></_>
    <_>
      <nodes>
        <_>
          <depth>0</depth>
          <value>2.2208492725963288e-03</value>
          <splits>
            <_><var>63</var>
              <quality>9.0238004922866821e-03</quality>
              <le>2.0389266312122345e-02</le></_></splits></_>
        <_>
          <depth>1</depth>
          <value>-7.8585410375089960e-03</value></_>
        <_>
          <depth>1</depth>
          <value>1.7763827677155353e+00</value></_></nodes></_>
    <_>
      <nodes>
        <_>
          <depth>0</depth>
          <value>-7.9315364362477232e-03</value>
          <splits>
            <_><var>63</var>
              <quality>7.9344948753714561e-03</quality>
              <le>1.9635383039712906e-02</le></_></splits></_>
        <_>
          <depth>1</depth>
          <value>2.6319641082483245e-03</value></_>
        <_>
          <depth>1</depth>
          <value>-1.0788309933873723e+00</value></_></nodes></_>
    <_>
      <nodes>
        <_>
          <depth>0</depth>
          <value>9.4723567426900862e-04</value>
          <splits>
            <_><var>149</var>
              <quality>7.3740775696933270e-03</quality>
              <le>4.4686384499073029e-02</le></_></splits></_>
        <_>
          <depth>1</depth>
          <value>1.4409572964799994e-02</value></_>
        <_>
          <depth>1</depth>
          <value>-6.5590062517508130e-01</value></_></nodes></_>
    <_>
      <nodes>
        <_>
          <depth>0</depth>
          <value>-6.6438313032015034e-04</value>
          <splits>
            <_><var>115</var>
              <quality>8.0419611185789108e-03</quality>
              <le>2.3076934739947319e-03</le></_></splits></_>
        <_>
          <depth>1</depth>
          <value>9.3518744986054267e-02</value></_>
        <_>
          <depth>1</depth>
          <value>-9.1065696646573907e-02</value></_></nodes></_>
    <_>
      <nodes>
        <_>
          <depth>0</depth>
          <value>-3.0389171289286760e-04</value>
          <splits>
            <_><var>115</var>
              <quality>8.8056512176990509e-03</quality>
              <le>4.8783098463900387e-04</le></_></splits></_>
        <_>
          <depth>1</depth>
          <value>-1.3939485806631249e-01</value></_>
        <_>
          <depth>1</depth>
          <value>6.6870075556812583e-02</value></_></nodes></_>
    <_>
      <nodes>
        <_>
          <depth>0</depth>
          <value>-4.1103311891759527e-04</value>
          <splits>
            <_><var>27</var>
              <quality>8.5223233327269554e-03</quality>
              <le>3.1092115677893162e-03</le></_></splits></_>
        <_>
          <depth>1</depth>
          <value>1.1820203796763096e-01</value></_>
        <_>
          <depth>1</depth>
          <value>-7.6552895036836377e-02</value></_></nodes></_>
    <_>
      <nodes>
        <_>
          <depth>0</depth>
          <value>-1.2175568953231176e-03</value>
          <splits>
            <_><var>62</var>
              <quality>6.7826909944415092e-03</quality>
              <le>1.8867992330342531e-03</le></_></splits></_>
        <_>
          <depth>1</depth>
          <value>8.2296109650373858e-02</value></_>
        <_>
          <depth>1</depth>
          <value>-8.7110729545457385e-02</value></_></nodes></_>
    <_>
      <nodes>
        <_>
          <depth>0</depth>
          <value>6.8740331090307510e-05</value>
          <splits>
            <_><var>108</var>
              <quality>8.0656306818127632e-03</quality>
              <le>3.0266442336142063e-03</le></_></splits></_>
        <_>
          <depth>1</depth>
          <value>-1.1299849918617093e-01</value></_>
        <_>
          <depth>1</depth>
          <value>7.5627821656598759e-02</value></_></nodes></_>
    <_>
      <nodes>
        <_>
          <depth>0</depth>
          <value>2.4753584695469655e-03</value>
          <splits>
            <_><var>100</var>
              <quality>6.9697513245046139e-03</quality>
              <le>8.6393486708402634e-03</le></_></splits></_>
        <_>
          <depth>1</depth>
          <value>-3.1005496212088198e-02</value></_>
        <_>
          <depth>1</depth>
          <value>2.2525441632913781e-01</value></_></nodes></_>
    <_>
      <nodes>
        <_>
          <depth>0</depth>
          <value>-3.8307225337975630e-03</value>
          <splits>
            <_><var>128</var>
              <quality>9.0011619031429291e-03</quality>
              <le>3.0816714279353619e-03</le></_></splits></_>
        <_>
          <depth>1</depth>
          <value>7.7936413668985308e-02</value></_>
        <_>
          <depth>1</depth>
          <value>-1.2033510306384007e-01</value></_></nodes></_>
    <_>
      <nodes>
        <_>
          <depth>0</depth>
          <value>2.5538067987314530e-03</value>
          <splits>
            <_><var>128</var>
              <quality>9.8847420886158943e-03</quality>
              <le>6.6122291609644890e-03</le></_></splits></_>
        <_>
          <depth>1</depth>
          <value>-4.4356881659765465e-02</value></_>
        <_>
          <depth>1</depth>
          <value>2.2826933448285752e-01</value></_></nodes></_>
    <_>
      <nodes>
        <_>
          <depth>0</depth>
          <value>-3.3807737448009034e-03</value>
          <splits>
            <_><var>119</var>
              <quality>7.0493244566023350e-03</quality>
              <le>1.1412477120757103e-02</le></_></splits></_>
        <_>
          <depth>1</depth>
          <value>1.5014680356596886e-02</value></_>
        <_>
          <depth>1</depth>
          <value>-4.3107238772710993e-01</value></_></nodes></_>
    <_>
      <nodes>
        <_>
          <depth>0</depth>
          <value>2.8353438566063385e-04</value>
          <splits>
            <_><var>150</var>
              <quality>6.9291335530579090e-03</quality>
              <le>2.4479841813445091e-03</le></_></splits></_>
        <_>
          <depth>1</depth>
          <value>1.2230194714123682e-01</value></_>
        <_>
          <depth>1</depth>
          <value>-5.9872051284619796e-02</value></_></nodes></_>
    <_>
      <nodes>
        <_>
          <depth>0</depth>
          <value>3.5388422501568339e-04</value>
          <splits>
            <_><var>142</var>
              <quality>7.3242960497736931e-03</quality>
              <le>5.5684294551610947e-02</le></_></splits></_>
        <_>
          <depth>1</depth>
          <value>9.2936828672624244e-03</value></_>
        <_>
          <depth>1</depth>
          <value>-1.3016106520205835e+00</value></_></nodes></_>
    <_>
      <nodes>
        <_>
          <depth>0</depth>
          <value>1.2371393544045341e-03</value>
          <splits>
            <_><var>146</var>
              <quality>6.9886068813502789e-03</quality>
              <le>6.8246447481215000e-03</le></_></splits></_>
        <_>
          <depth>1</depth>
          <value>4.2947089260267593e-02</value></_>
        <_>
          <depth>1</depth>
          <value>-1.7705034508108830e-01</value></_></nodes></_>
    <_>
      <nodes>
        <_>
          <depth>0</depth>
          <value>-1.2893587367120874e-03</value>
          <splits>
            <_><var>97</var>
              <quality>6.8078893236815929e-03</quality>
              <le>3.1351561192423105e-03</le></_></splits></_>
        <_>
          <depth>1</depth>
          <value>-1.0235493986294625e-01</value></_>
        <_>
          <depth>1</depth>
          <value>6.9965875963856561e-02</value></_></nodes></_>
    <_>
      <nodes>
        <_>
          <depth>0</depth>
          <value>-2.5385977066179873e-03</value>
          <splits>
            <_><var>85</var>
              <quality>7.4482150375843048e-03</quality>
              <le>4.4252728112041950e-03</le></_></splits></_>
        <_>
          <depth>1</depth>
          <value>-1.1085623674518211e-01</value></_>
        <_>
          <depth>1</depth>
          <value>7.0204920969183335e-02</value></_></nodes></_>
    <_>
      <nodes>
        <_>
          <depth>0</depth>
          <value>3.0410418538113640e-03</value>
          <splits>
            <_><var>98</var>
              <quality>7.3558273725211620e-03</quality>
              <le>3.5388849209994078e-03</le></_></splits></_>
        <_>
          <depth>1</depth>
          <value>-7.5487282805954681e-02</value></_>
        <_>
          <depth>1</depth>
          <value>1.0207229234971477e-01</value></_></nodes></_>
    <_>
      <nodes>
        <_>
          <depth>0</depth>
          <value>-3.7644805256457476e-03</value>
          <splits>
            <_><var>75</var>
              <quality>7.5513748452067375e-03</quality>
              <le>2.8571486473083496e-03</le></_></splits></_>
        <_>
          <depth>1</depth>
          <value>1.6864483055693591e-01</value></_>
        <_>
          <depth>1</depth>
          <value>-5.0258854943366682e-02</value></_></nodes></_>
    <_>
      <nodes>
        <_>
          <depth>0</depth>
          <value>1.0561466999695983e-03</value>
          <splits>
            <_><var>26</var>
              <quality>7.0478436537086964e-03</quality>
              <le>3.2446614932268858e-04</le></_></splits></_>
        <_>
          <depth>1</depth>
          <value>-2.8239435898465631e-01</value></_>
        <_>
          <depth>1</depth>
          <value>2.7924441843585900e-02</value></_></nodes></_>
    <_>
      <nodes>
        <_>
          <depth>0</depth>
          <value>-1.5490621030845105e-03</value>
          <splits>
            <_><var>1</var>
              <quality>8.6119212210178375e-03</quality>
              <le>1.1183756403625011e-02</le></_></splits></_>
        <_>
          <depth>1</depth>
          <value>-3.7008129093364678e-02</value></_>
        <_>
          <depth>1</depth>
          <value>2.5986116459912667e-01</value></_></nodes></_>
    <_>
      <nodes>
        <_>
          <depth>0</depth>
          <value>2.8999766277955931e-03</value>
          <splits>
            <_><var>12</var>
              <quality>6.9177919067442417e-03</quality>
              <le>5.6737703271210194e-03</le></_></splits></_>
        <_>
          <depth>1</depth>
          <value>-6.3774777673103994e-02</value></_>
        <_>
          <depth>1</depth>
          <value>1.1261583373902720e-01</value></_></nodes></_>
    <_>
      <nodes>
        <_>
          <depth>0</depth>
          <value>-2.2886274203100433e-04</value>
          <splits>
            <_><var>169</var>
              <quality>7.9580387100577354e-03</quality>
              <le>5.5844010785222054e-03</le></_></splits></_>
        <_>
          <depth>1</depth>
          <value>7.2157500810463307e-02</value></_>
        <_>
          <depth>1</depth>
          <value>-1.1668758750919107e-01</value></_></nodes></_>
    <_>
      <nodes>
        <_>
          <depth>0</depth>
          <value>3.0653428394032922e-04</value>
          <splits>
            <_><var>16</var>
              <quality>7.1606156416237354e-03</quality>
              <le>8.8203828781843185e-03</le></_></splits></_>
        <_>
          <depth>1</depth>
          <value>-2.3357856992324708e-02</value></_>
        <_>
          <depth>1</depth>
          <value>3.3044450784222035e-01</value></_></nodes></_>
    <_>
      <nodes>
        <_>
          <depth>0</depth>
          <value>4.0087044773179167e-05</value>
          <splits>
            <_><var>24</var>
              <quality>7.0648640394210815e-03</quality>
              <le>1.1217625811696053e-02</le></_></splits></_>
        <_>
          <depth>1</depth>
          <value>2.5570853219585729e-02</value></_>
        <_>
          <depth>1</depth>
          <value>-3.0003701996362847e-01</value></_></nodes></_>
    <_>
      <nodes>
        <_>
          <depth>0</depth>
          <value>3.4580698045013361e-04</value>
          <splits>
            <_><var>111</var>
              <quality>6.2654283829033375e-03</quality>
              <le>6.5395114943385124e-03</le></_></splits></_>
        <_>
          <depth>1</depth>
          <value>-2.9164130787747513e-02</value></_>
        <_>
          <depth>1</depth>
          <value>2.2778812030092413e-01</value></_></nodes></_>
    <_>
      <nodes>
        <_>
          <depth>0</depth>
          <value>1.6335247800433595e-04</value>
          <splits>
            <_><var>155</var>
              <quality>6.6375117748975754e-03</quality>
              <le>6.0629034414887428e-03</le></_></splits></_>
        <_>
          <depth>1</depth>
          <value>-6.3147333291468141e-02</value></_>
        <_>
          <depth>1</depth>
          <value>1.1113327496595900e-01</value></_></nodes></_>
    <_>
      <nodes>
        <_>
          <depth>0</depth>
          <value>-1.7052674850545995e-04</value>
          <splits>
            <_><var>184</var>
              <quality>7.9794395714998245e-03</quality>
              <le>1.0899263434112072e-02</le></_></splits></_>
        <_>
          <depth>1</depth>
          <value>3.4928842171839600e-02</value></_>
        <_>
          <depth>1</depth>
          <value>-2.4434032782776174e-01</value></_></nodes></_>
    <_>
      <nodes>
        <_>
          <depth>0</depth>
          <value>5.3275194172520577e-04</value>
          <splits>
            <_><var>188</var>
              <quality>7.8757125884294510e-03</quality>
              <le>1.2484413571655750e-02</le></_></splits></_>
        <_>
          <depth>1</depth>
          <value>-2.7601573917177810e-02</value></_>
        <_>
          <depth>1</depth>
          <value>3.0433614367771061e-01</value></_></nodes></_>
    <_>
      <nodes>
        <_>
          <depth>0</depth>
          <value>-3.7628211460021406e-04</value>
          <splits>
            <_><var>119</var>
              <quality>6.6960761323571205e-03</quality>
              <le>2.5265519507229328e-03</le></_></splits></_>
        <_>
          <depth>1</depth>
          <value>-1.0786156140077453e-01</value></_>
        <_>
          <depth>1</depth>
          <value>6.5553340426243722e-02</value></_></nodes></_>
    <_>
      <nodes>
        <_>
          <depth>0</depth>
          <value>-4.5001889210956455e-04</value>
          <splits>
            <_><var>166</var>
              <quality>6.6151996143162251e-03</quality>
              <le>4.6242838725447655e-03</le></_></splits></_>
        <_>
          <depth>1</depth>
          <value>9.2974429663267355e-02</value></_>
        <_>
          <depth>1</depth>
          <value>-7.5346577782210170e-02</value></_></nodes></_>
    <_>
      <nodes>
        <_>
          <depth>0</depth>
          <value>2.7979894741136170e-04</value>
          <splits>
            <_><var>50</var>
              <quality>6.7361206747591496e-03</quality>
              <le>8.4507707506418228e-03</le></_></splits></_>
        <_>
          <depth>1</depth>
          <value>4.5798009725089295e-02</value></_>
        <_>
          <depth>1</depth>
          <value>-1.5690751152731999e-01</value></_></nodes></_>
    <_>
      <nodes>
        <_>
          <depth>0</depth>
          <value>-2.3995823423984541e-03</value>
          <splits>
            <_><var>8</var>
              <quality>6.6518941894173622e-03</quality>
              <le>8.3004161715507507e-03</le></_></splits></_>
        <_>
          <depth>1</depth>
          <value>2.7334026451660193e-02</value></_>
        <_>
          <depth>1</depth>
          <value>-2.4242745766734877e-01</value></_></nodes></_>
    <_>
      <nodes>
        <_>
          <depth>0</depth>
          <value>6.7968985686694592e-04</value>
          <splits>
            <_><var>6</var>
              <quality>7.7211270108819008e-03</quality>
              <le>3.0919432174414396e-04</le></_></splits></_>
        <_>
          <depth>1</depth>
          <value>3.1338141573775558e-01</value></_>
        <_>
          <depth>1</depth>
          <value>-2.6164603093494367e-02</value></_></nodes></_>
    <_>
      <nodes>
        <_>
          <depth>0</depth>
          <value>-1.2114120058545521e-04</value>
          <splits>
            <_><var>2</var>
              <quality>7.2586759924888611e-03</quality>
              <le>2.5406503118574619e-04</le></_></splits></_>
        <_>
          <depth>1</depth>
          <value>-2.1273987547445133e-01</value></_>
        <_>
          <depth>1</depth>
          <value>3.6376426926749708e-02</value></_></nodes></_>
    <_>
      <nodes>
        <_>
          <depth>0</depth>
          <value>9.6587672388298259e-04</value>
          <splits>
            <_><var>156</var>
              <quality>8.2600768655538559e-03</quality>
              <le>2.2566998377442360e-03</le></_></splits></_>
        <_>
          <depth>1</depth>
          <value>1.4696209537604885e-01</value></_>
        <_>
          <depth>1</depth>
          <value>-5.9090843008911313e-02</value></_></nodes></_>
    <_>
      <nodes>
        <_>
          <depth>0</depth>
          <value>2.7776813710549624e-04</value>
          <splits>
            <_><var>165</var>
              <quality>6.1604534275829792e-03</quality>
              <le>6.8706083111464977e-03</le></_></splits></_>
        <_>
          <depth>1</depth>
          <value>4.3417830534195949e-02</value></_>
        <_>
          <depth>1</depth>
          <value>-1.5130645836540624e-01</value></_></nodes></_>
    <_>
      <nodes>
        <_>
          <depth>0</depth>
          <value>-3.6563618895967486e-03</value>
          <splits>
            <_><var>96</var>
              <quality>6.8080383352935314e-03</quality>
              <le>4.8204390332102776e-03</le></_></splits></_>
        <_>
          <depth>1</depth>
          <value>-1.0070039333385980e-01</value></_>
        <_>
          <depth>1</depth>
          <value>7.0435404659181453e-02</value></_></nodes></_>
    <_>
      <nodes>
        <_>
          <depth>0</depth>
          <value>4.2368018000603592e-03</value>
          <splits>
            <_><var>89</var>
              <quality>7.8583918511867523e-03</quality>
              <le>5.6361900642514229e-03</le></_></splits></_>
        <_>
          <depth>1</depth>
          <value>5.0901496388938254e-02</value></_>
        <_>
          <depth>1</depth>
          <value>-1.7456143567471025e-01</value></_></nodes></_>
    <_>
      <nodes>
        <_>
          <depth>0</depth>
          <value>-1.0077492464737648e-03</value>
          <splits>
            <_><var>126</var>
              <quality>5.9057124890387058e-03</quality>
              <le>6.0624438337981701e-03</le></_></splits></_>
        <_>
          <depth>1</depth>
          <value>-4.7607328956533544e-02</value></_>
        <_>
          <depth>1</depth>
          <value>1.3326007208246921e-01</value></_></nodes></_></trees></opencv_ml_boost>
</opencv_storage>
